svm_type c_svc
kernel_type rbf
gamma 3.0
nr_class 7
total_sv 689
rho -0.49820804430606175 -0.31417701159658334 -0.1716333474594447 -0.0896685658202294 -0.17751750321431972 0.03611337882016779 0.37440530914801595 0.4218883468743667 0.44697896892284783 0.40433613839757676 0.5156188357042201 0.06963487953116757 0.2083841750037154 0.21621489625540882 0.334652441200032 0.08420250527284164 0.062004004955105954 0.19122789943009694 -0.05993898301770156 0.11260260191943743 0.19920692998494688
label 33 10 21 22 23 31 32
nr_sv 101 91 99 100 100 99 99
SV
0.5008927659793015 0.6839691577141817 0.8261436258857203 0.9084464789033728 0.8205517231545929 1.0370838762102546 1:1.0 2:0.0 3:0.0 4:1.079295154 5:1.333333333 6:1.8629 7:6.9977 
0.27906543907270764 0.38009734208715384 0.459906889468368 0.5058435709511138 0.4565803874598393 0.5814648297781471 1:1.0 2:1.0 3:0.0 4:1.696035242 5:1.5 6:4.8667 7:5.12576 
0.2883157030815536 0.39526798952274145 0.48641191839296816 0.535062967385219 0.5110520173441784 0.5631852752021613 1:1.0 2:0.0 3:0.0 4:1.726872247 5:1.666666667 6:3.7141 7:3.98689 
0.49303574496059577 0.6741482904612195 0.814296277875272 0.8951157480853087 0.8085250025144949 1.0388703204723777 1:2.0 2:1.0 3:1.0 4:2.775330396 5:2.0 6:5.3792 7:6.9977 
0.3016568574881393 0.4123548963584654 0.4979776831053798 0.5466249279159163 0.4942687250082206 0.6226780380228943 1:1.0 2:1.0 3:0.0 4:2.189427313 5:1.833333333 6:4.743 7:6.9977 
0.4746978263158965 0.648921706363268 0.7833824074297467 0.8609712329633608 0.7780316601113549 0.9826349441002947 1:2.0 2:0.0 3:0.0 4:2.004405286 5:2.166666667 6:4.7422 7:6.9977 
0.332340178591006 0.4546168712029479 0.5486161264030076 0.6026372214363771 0.5443612246143166 0.5790327734388452 1:1.0 2:0.0 3:0.0 4:1.202643172 5:1.166666667 6:3.4919 7:6.9977 
0.29182736563811423 0.39964345600956375 0.5310076660240262 0.12630034118894704 1.4953413108341815 7.0790164914923235 1:1.0 2:0.0 3:0.0 4:1.079295154 5:1.0 6:2.3146 7:4.01019 
0.5016462909405104 0.6853782782515987 0.8596730672536634 0.9518286906849205 0.8221077235871204 1.0349033236806877 1:3.0 2:0.0 3:0.0 4:1.511013216 5:1.333333333 6:3.7172 7:3.50326 
0.5019521281307708 0.6855864247981356 0.8278435219472166 0.9103876786022256 0.822250925238816 1.0417007821951128 1:1.0 2:0.0 3:1.0 4:2.497797357 5:2.666666667 6:5.9779 7:5.32809 
0.5018598422531082 0.6863413571624005 0.8281748982168726 0.910272659549789 0.8226330748110002 1.0372859427726355 1:1.0 2:0.0 3:2.0 4:3.515418502 5:3.5 6:9.1052 7:6.9977 
0.48520261828774286 0.66263910838726 0.8003854459332673 0.8798334635267939 0.7944535445370432 1.0029308916834005 1:3.0 2:0.0 3:0.0 4:1.449339207 5:1.5 6:2.6647 7:6.9977 
0.47667728989771474 0.6512078923918346 0.7863574608845779 0.8640836590185418 0.7805893285461803 0.9824099858959527 1:1.0 2:1.0 3:0.0 4:1.54185022 5:1.333333333 6:3.0068 7:6.9977 
0.4721445619002255 0.6451478330525311 0.7788615012994423 0.8559582798092183 0.773475381464456 0.974248222863676 1:3.0 2:0.0 3:1.0 4:2.281938326 5:2.333333333 6:7.2889 7:6.9977 
0.49822556098812903 0.6813786086740194 0.8223159461407614 0.9037912514031554 0.816791614865182 1.0294203393148866 1:1.0 2:0.0 3:1.0 4:2.713656388 5:2.666666667 6:7.2355 7:6.9977 
0.47768549870304977 0.6522697683381268 0.7881443023165768 0.8663033073189189 0.7825096345334461 1.0079237800820515 1:1.0 2:0.0 3:1.0 4:1.973568282 5:1.833333333 6:4.9408 7:6.99541 
0.17807512488261834 0.24437782179951467 0.2944207982046443 0.3237587759888597 0.2921326516012175 0.36266979629808743 1:1.0 2:1.0 3:0.0 4:1.387665198 5:1.333333333 6:4.8847 7:4.83485 
0.502000246279612 0.6860370283479438 0.8288612238007282 0.9105803451621369 0.8225217599143742 1.0375018210609424 1:1.0 2:1.0 3:0.0 4:3.885462555 5:3.666666667 6:12.3983 7:6.9977 
0.47997439092585287 0.6557613583295883 0.7921261936635198 0.8704478556858779 0.7862763444657538 0.9914678089386737 1:3.0 2:1.0 3:0.0 4:1.480176211 5:1.333333333 6:3.5007 7:6.9977 
0.49737477521850093 0.6795195200066368 0.8205961227001516 0.9116098195854341 0.8209131912538679 1.0278408847260598 1:3.0 2:0.0 3:1.0 4:1.480176211 5:1.333333333 6:2.2611 7:4.99508 
0.3056639631704781 0.41812269960134396 0.5049923713290175 0.5553140756450728 0.5019114966873651 0.6312743553117456 1:3.0 2:2.0 3:0.0 4:2.066079295 5:1.666666667 6:4.6296 7:6.9977 
0.45180842473261684 0.617639862579664 0.7458339240349312 0.819579778599019 0.7403277269781356 0.933587038413166 1:1.0 2:0.0 3:0.0 4:2.127753304 5:1.833333333 6:7.1919 7:6.9977 
0.48608789606047265 0.6641217847344588 0.8016250529823349 0.8811217534125567 0.7962938165778486 1.0031308653422226 1:3.0 2:1.0 3:1.0 4:2.004405286 5:1.666666667 6:5.7123 7:6.9977 
0.5016333363336705 0.68608886108744 0.828113196950767 0.910168187601076 0.8222189897824012 1.0357265045788027 1:4.0 2:2.0 3:2.0 4:3.022026432 5:3.0 6:8.1163 7:6.9977 
0.46941651734433354 0.6417176594731374 0.7750262761752192 0.8514818604757485 0.7697441833497485 1.021616444953458 1:3.0 2:0.0 3:0.0 4:1.634361233 5:1.5 6:3.7396 7:6.9977 
0.5015569263277713 0.6854796836637413 0.8280580404158222 0.9098634641160532 0.8221450363390466 1.3447773161305756 1:1.0 2:0.0 3:0.0 4:2.035242291 5:1.333333333 6:5.329 7:3.49311 
0.5014454605473584 0.6852856259616726 0.8276765548192861 0.9095302202029927 0.822095998695218 1.0354465825297852 1:1.0 2:2.0 3:0.0 4:3.700440529 5:3.5 6:9.9028 7:6.9977 
0.5018599014865724 0.6855836511216409 0.8281860132913293 0.9103336057027488 0.8222802107261356 1.035884937992892 1:4.0 2:1.0 3:1.0 4:4.841409692 5:4.5 6:11.3872 7:6.9977 
0.30151960247444304 0.41134728372477114 0.4971141221355983 0.5461496279934274 0.4941933327529801 0.655489662312648 1:3.0 2:0.0 3:0.0 4:2.621145374 5:2.5 6:5.792 7:6.9977 
0.5020478766846191 0.6853088908901406 0.828258595318554 0.9101731089953731 0.8223810803791759 1.0367310286247688 1:3.0 2:2.0 3:0.0 4:3.330396476 5:2.333333333 6:10.4284 7:6.9977 
0.49609906370906864 0.6776774800324844 0.8191654857852533 0.9005445569423688 0.9126653734643724 1.035875136999563 1:3.0 2:0.0 3:0.0 4:1.140969163 5:1.333333333 6:2.276 7:5.66109 
0.29172244308202633 0.3984881616601252 0.4919521943664936 0.5268329722640616 0.4583039206580167 0.6619526975186133 1:1.0 2:0.0 3:0.0 4:1.665198238 5:1.333333333 6:3.6477 7:3.98689 
0.30686220240782647 0.4191910272988445 0.5064423976576294 0.556269341748989 0.5023460113467718 0.6330312906739352 1:3.0 2:2.0 3:0.0 4:1.881057269 5:1.833333333 6:4.2947 7:6.9977 
0.33397419587566646 0.4574527806091031 0.5518915485928336 0.6025469589995394 0.620533011816325 0.7197172477798206 1:1.0 2:1.0 3:0.0 4:0.77092511 5:0.833333333 6:2.1349 7:4.6529 
0.36684025313691815 0.5016140596725273 0.6054483365535948 0.6661137622681074 0.6017605348038367 1.1024556821781877 1:1.0 2:0.0 3:0.0 4:1.264317181 5:1.333333333 6:3.1785 7:6.49574 
0.19669578287728925 0.26836000312292674 0.32366079644094553 0.35523615576897344 0.320884138425424 0.4089696354942714 1:1.0 2:1.0 3:0.0 4:1.603524229 5:1.666666667 6:4.2501 7:6.9977 
0.48720698905960536 0.666053440383574 0.8043933735272976 0.8843965358219289 0.7982179049100652 1.0074142260249181 1:3.0 2:0.0 3:1.0 4:4.348017621 5:4.166666667 6:9.9911 7:6.9977 
0.22503220086583764 0.3082977941645796 0.37188506258924453 0.408488221748153 0.36879276180628856 0.4650044936688223 1:1.0 2:0.0 3:0.0 4:2.528634361 5:2.333333333 6:6.5861 7:6.9977 
0.5019939982684551 0.685688055140846 0.8280911312317828 0.9104743963802155 0.8225002640489322 1.0360654777066156 1:4.0 2:3.0 3:0.0 4:5.365638767 5:6.0 6:13.5258 7:6.9977 
0.4985202241463878 0.6815443008228187 2.344128792848014 0.943443571658734 0.8477160815278291 1.1380412183479294 1:1.0 2:0.0 3:0.0 4:0.740088106 5:0.5 6:1.8372 7:2.94108 
0.5020546359818074 0.6857849682540333 0.828623059703241 0.9101463943696761 0.8224956147650742 1.0368983300009578 1:1.0 2:1.0 3:0.0 4:3.916299559 5:3.333333333 6:7.8856 7:6.9977 
0.420681724589135 0.5749571633539702 0.6952095276975061 0.7630998470538074 0.6897440118806486 0.876059899058901 1:3.0 2:0.0 3:1.0 4:3.052863436 5:3.0 6:7.391 7:6.9977 
0.5017812389863657 0.6854780236907122 0.9274676396446001 0.9990178896048729 0.8258431308436127 2.4445913444901155 1:3.0 2:0.0 3:0.0 4:0.986784141 5:1.0 6:2.2524 7:3.5941 
0.48445049760650627 0.6614046138096695 0.7990582115130924 0.8788201778824235 0.7937272732992304 1.0005908543860742 1:3.0 2:0.0 3:1.0 4:2.59030837 5:2.666666667 6:4.3742 7:6.9977 
0.4940853636146175 0.6749406675493526 0.8150956651281844 0.8956307919861158 0.8093779118451413 1.1126332777586714 1:1.0 2:0.0 3:0.0 4:1.54185022 5:1.833333333 6:5.4649 7:5.49639 
0.4577042291688618 0.6256374080804007 0.755581193552053 0.8304166356870227 0.7504822169137392 0.9547848075079264 1:2.0 2:0.0 3:0.0 4:2.31277533 5:2.5 6:6.1327 7:6.9977 
0.3053121537742718 0.41657389910539994 0.5032781003585775 0.5528742942842186 0.49923610931762047 0.6310749932805038 1:1.0 2:0.0 3:0.0 4:2.436123348 5:2.166666667 6:6.3396 7:6.49574 
0.24537619351866155 0.3351167228752531 0.404115656276416 0.4455657565017465 0.40303532814547915 0.4835982736000674 1:3.0 2:0.0 3:0.0 4:2.960352423 5:2.333333333 6:3.8483 7:6.9977 
0.3111065523938791 0.4251217092051232 0.5134666708870934 0.564845664179601 0.5100058207477692 0.6365965187435074 1:1.0 2:0.0 3:0.0 4:1.881057269 5:1.666666667 6:5.6535 7:6.9977 
0.31471737469422706 0.4301006093589609 0.5184092716983286 0.576075204572998 0.4794960835153194 0.6790809044441646 1:1.0 2:1.0 3:0.0 4:1.017621145 5:1.0 6:2.3879 7:4.39351 
0.35953481843524343 0.4909042577864396 0.5933465999473462 0.6520558935279754 0.588736203820727 0.7463787748871327 1:1.0 2:0.0 3:0.0 4:2.436123348 5:2.0 6:5.3338 7:6.9977 
0.4795989341304398 0.6551472930583527 0.7918289483438754 0.869958942836923 0.7866091431994711 0.9907851401883373 1:1.0 2:1.0 3:0.0 4:2.621145374 5:2.333333333 6:6.3234 7:6.9977 
0.4901563389582214 0.6699964502633906 0.8093124656120374 0.8896845031707684 0.8036448639644527 1.0122963766601079 1:2.0 2:2.0 3:1.0 4:3.823788546 5:3.5 6:9.2597 7:6.9977 
0.3051976982193801 0.4166537373513384 0.5500156441240136 1.4551496319516954 1.1198007057792494 0.0 1:1.0 2:0.0 3:0.0 4:1.202643172 5:1.0 6:1.9451 7:4.01426 
0.5018899137434738 0.685347887766315 0.8283076964657748 0.9314472782564029 0.8248849926963324 1.0768487203239154 1:3.0 2:0.0 3:0.0 4:2.158590308 5:1.833333333 6:3.8943 7:4.9918 
0.5017629530043749 0.685180524141535 0.8279500854893853 0.9098551112333281 0.8220984540550529 1.0387451020341674 1:3.0 2:1.0 3:0.0 4:3.762114537 5:3.166666667 6:11.5834 7:6.9977 
0.4554953469407511 0.6221908098122675 0.7514624542766462 0.8260761491183002 0.7465277404343823 0.9702732616844151 1:1.0 2:0.0 3:0.0 4:1.973568282 5:2.0 6:3.3297 7:6.9977 
0.38373477140032186 0.5247175004313913 0.6335783874593615 0.6962399896319336 0.6289691333499945 0.8103155938959891 1:3.0 2:1.0 3:0.0 4:2.898678414 5:2.5 6:6.6752 7:6.9977 
0.37357740727953015 0.5104431448341726 0.6167409995142135 0.677403338558595 0.6125973881652762 0.8036918023765147 1:3.0 2:0.0 3:0.0 4:2.960352423 5:2.5 6:4.5201 7:6.9977 
0.1927532323714072 0.26401603922926503 0.31961463514575433 0.3495521020053719 0.31525737474908283 0.4278236819812455 1:3.0 2:0.0 3:0.0 4:2.775330396 5:2.5 6:3.8614 7:6.9977 
0.280035482659113 0.38242468933721946 0.4621994162500496 0.5079081605418109 0.4596155293145954 0.6180977497569741 1:3.0 2:1.0 3:0.0 4:2.436123348 5:2.166666667 6:4.5665 7:6.9977 
0.38524378985145036 0.5261726903418283 0.6355689613571223 0.6981849224517779 0.6313744633355874 0.7970275659133492 1:3.0 2:0.0 3:0.0 4:2.59030837 5:2.666666667 6:6.6459 7:6.99541 
0.3885976855426507 0.5303763723838645 0.6411920332509028 0.7037489675918511 0.6365443413191822 0.8077649684515057 1:1.0 2:1.0 3:0.0 4:1.511013216 5:1.5 6:4.6225 7:4.37836 
0.19883478417743863 0.27256168869704406 0.32830053788998986 0.35986611866447854 0.3259696018184113 0.44126860870427603 1:3.0 2:0.0 3:1.0 4:2.960352423 5:2.5 6:8.2755 7:6.9977 
0.35570671404449467 0.48600154183414107 0.5874040187925821 0.6457207711068259 0.5830207560019183 1.079924534572806 1:3.0 2:1.0 3:0.0 4:2.189427313 5:2.166666667 6:5.6612 7:6.9977 
0.27398045653377706 0.37390097101365194 0.45239863343400655 0.49718602822704105 0.4487530535778186 0.3955602609732162 1:1.0 2:0.0 3:0.0 4:1.665198238 5:1.5 6:4.2025 7:6.9977 
0.5016817488575849 0.6862325457283093 0.8284041825690582 0.910447380888249 0.8225237770665572 1.0368038093152925 1:1.0 2:2.0 3:0.0 4:2.405286344 5:2.0 6:7.8581 7:6.9977 
0.3101993797490783 0.42414664933575863 0.5121415700648256 0.5627610907599191 0.5087927391740515 0.7341988838361182 1:3.0 2:1.0 3:0.0 4:2.004405286 5:1.833333333 6:5.163 7:6.9977 
0.5017187748693412 0.6857529285482383 0.8278028208870091 0.9096241167224282 0.8223066059376037 1.0359102405057123 1:2.0 2:1.0 3:1.0 4:1.757709251 5:1.833333333 6:2.2832 7:6.9977 
0.4936939280698763 0.674381282583786 0.8142460503374587 0.895266288240418 0.8084400788150261 1.0206093996304053 1:2.0 2:0.0 3:1.0 4:2.806167401 5:2.833333333 6:5.7524 7:6.9977 
0.3578082762791194 0.48860485429132827 0.5906252545528885 0.6480411308527678 0.5859918182094023 0.7554992975535779 1:3.0 2:0.0 3:0.0 4:2.991189427 5:3.166666667 6:8.4949 7:6.9977 
0.46654835933196503 0.6372772418866309 0.7701657088980189 0.8469725429148789 0.7648957058801585 0.9630075229773314 1:3.0 2:0.0 3:0.0 4:3.453744493 5:3.5 6:7.128 7:6.9977 
0.4902749992686629 0.6700271212990294 0.8095506562349054 0.8903633329413654 0.8041146939005406 1.0127169603478243 1:2.0 2:2.0 3:1.0 4:3.916299559 5:4.5 6:8.7592 7:6.9977 
0.4416185831314601 0.6035156013166619 0.7290608405074896 0.801433232208661 0.723708710584542 0.9128393224193534 1:1.0 2:1.0 3:0.0 4:2.066079295 5:2.166666667 6:3.5755 7:6.9977 
0.49952695765196437 0.6825791362675313 0.8253159837122006 0.9064775498346136 0.8189242997349586 1.0404027147242647 1:1.0 2:0.0 3:2.0 4:2.528634361 5:2.5 6:5.2768 7:6.9977 
0.4000543681809587 0.5468230258784841 0.6604752334101718 0.7253882747718456 0.6561884781353837 0.821992454286233 1:3.0 2:1.0 3:0.0 4:2.466960352 5:2.166666667 6:7.0873 7:6.9977 
0.46830636886181 0.6401886857697453 0.7730817650798829 0.8497974176267271 0.7678206516486004 0.9696011051762277 1:2.0 2:1.0 3:0.0 4:2.281938326 5:2.5 6:5.0233 7:6.9977 
0.11055891247008237 0.1517671313190977 0.18341064603794321 0.20169588795742086 0.18142452367511855 0.21978792263467606 1:3.0 2:0.0 3:0.0 4:2.497797357 5:2.333333333 6:6.2142 7:6.9977 
0.4931813962631395 0.6737361376313749 0.8263159714480701 1.2503982070296402 0.8121578817732061 1.0244359366278906 1:1.0 2:0.0 3:1.0 4:1.726872247 5:1.666666667 6:3.186 7:3.68787 
0.499664783599965 0.682962424310764 0.8249999316629996 0.9069491327729348 0.8189650744995681 1.0319955050536957 1:4.0 2:0.0 3:0.0 4:4.193832599 5:4.166666667 6:10.3997 7:6.9977 
0.5014980223760914 0.6854939933043662 0.8279726538941113 0.9096405712452008 0.8226340365873426 1.0360996420247395 1:3.0 2:0.0 3:0.0 4:4.502202643 5:4.166666667 6:8.4233 7:6.9977 
0.5019802893172526 0.6858247858652864 0.828147802770314 0.9102504671573133 0.8225417739704497 1.0360137987871283 1:3.0 2:1.0 3:4.0 4:3.792951542 5:3.166666667 6:7.7565 7:6.9977 
0.22302229200720122 0.304785465400174 0.3683212751186695 0.4055339972083525 0.36624757181964535 0.4607149645375048 1:1.0 2:0.0 3:0.0 4:2.497797357 5:1.833333333 6:6.3455 7:6.9977 
0.3680033146721381 0.5030935931218885 0.6075222998315133 0.6676265484428523 0.6033084693896256 0.7856833996917364 1:3.0 2:0.0 3:0.0 4:3.022026432 5:3.0 6:7.797 7:6.9977 
0.38494063336828355 0.5264288364241161 0.6353215323589395 0.6992424957534298 0.63128872385924 0.7920715635765367 1:3.0 2:0.0 3:0.0 4:3.083700441 5:3.166666667 6:9.2852 7:6.9977 
0.4175112465500473 0.5704394477123259 0.6892933782947629 0.7571752081315984 0.6844184280330443 0.9012967503982555 1:3.0 2:0.0 3:0.0 4:1.911894273 5:2.166666667 6:5.575 7:6.9977 
0.5016432505129897 0.6855990413124191 0.8282130999838448 0.9104141182619412 0.821756547970353 1.065856155722726 1:3.0 2:0.0 3:1.0 4:4.594713656 5:4.0 6:12.0298 7:6.9977 
0.45523096954884534 0.6221645329182572 0.7514207497353421 0.826088230545003 0.7463444919453754 0.945566044566978 1:3.0 2:0.0 3:1.0 4:3.700440529 5:3.166666667 6:8.066 7:6.9977 
0.13336301216077223 0.18265193628839368 0.22040310294443677 0.24258846731180597 0.2188438910900602 0.28095631556748263 1:1.0 2:1.0 3:0.0 4:2.189427313 5:1.833333333 6:4.3564 7:6.9977 
0.3641390355306809 0.49818503924159374 0.6014067747626856 0.6608258823288212 0.5973876211453933 1.4037653284089253 1:1.0 2:0.0 3:0.0 4:1.480176211 5:1.333333333 6:4.3601 7:6.48295 
0.339685265474251 0.464319023390306 0.5614943307574424 0.6176375350389586 0.5573277091552098 0.6887140616951518 1:3.0 2:0.0 3:1.0 4:2.713656388 5:2.333333333 6:8.3964 7:6.9977 
0.445918854370101 0.6083851212123257 0.7355024396913903 0.8080342897336179 0.7303293428302692 0.9424438881807566 1:3.0 2:0.0 3:0.0 4:3.330396476 5:3.5 6:9.9918 7:6.9977 
0.4808881817244345 0.6573255088028558 0.7937789001753696 0.8728671587461851 0.7878728001924822 0.9937035084561694 1:3.0 2:0.0 3:1.0 4:3.885462555 5:3.333333333 6:9.4611 7:6.9977 
0.5000016500454416 0.6838757483558606 0.8257859276476086 0.9082069946689223 0.8201949091286915 1.0334052266997122 1:4.0 2:1.0 3:0.0 4:3.947136564 5:3.166666667 6:10.3011 7:6.9977 
0.4385432628702383 0.5997734163535109 0.7239420803146922 0.7956094680006256 0.7191643195795244 0.9223784723367117 1:1.0 2:1.0 3:0.0 4:2.004405286 5:1.666666667 6:5.5557 7:4.98852 
0.5020521176759555 0.6857451347215349 0.8284733879460617 0.910646496443283 0.8225434736178452 1.0462475905582318 1:1.0 2:0.0 3:0.0 4:3.022026432 5:2.666666667 6:9.0722 7:6.9977 
0.3624009710584716 0.4952797619699779 0.5979314879437861 0.6567911501709504 0.593100396255582 0.7357569143273458 1:3.0 2:1.0 3:0.0 4:2.035242291 5:2.333333333 6:4.2192 7:6.9977 
0.4814954110432626 0.6580495088438303 0.7946222622783619 0.8737994307626277 0.7889314539672649 0.9942957113762104 1:4.0 2:0.0 3:0.0 4:2.621145374 5:2.666666667 6:5.7845 7:6.9977 
0.4921003961377643 0.672252285336248 0.8119097598941588 0.8926458891905515 0.8062222601953797 1.0159164454412177 1:1.0 2:2.0 3:0.0 4:1.696035242 5:1.5 6:5.0873 7:6.9977 
0.22864074860421124 0.3125156461394225 0.37829972624832514 0.4159094950993598 0.37617413739985334 0.4670988424327791 1:1.0 2:1.0 3:0.0 4:1.603524229 5:1.5 6:4.5542 7:6.9977 
0.25281339753716114 0.3461492088863435 0.4177177699423392 0.45841245669303926 0.4144795919065287 0.546897140972761 1:1.0 2:0.0 3:0.0 4:1.788546256 5:1.666666667 6:5.0504 7:6.9977 
-0.0 3.315184546853541 2.917986277755137 10.0 0.0 0.0 1:1.0 2:0.0 3:0.0 4:0.585903084 5:0.5 6:1.23237 7:1.28681 
-0.16586737609463217 0.0 0.0 0.0 0.0 0.17087980535045524 1:1.0 2:0.0 3:0.0 4:0.555066079 5:0.833333333 6:3.52256 7:1.15046 
-0.3537431105041854 0.0 3.7621609664579037 0.0 0.0 0.34458535029375686 1:1.0 2:0.0 3:0.0 4:0.49339207 5:0.666666667 6:1.53526 7:1.39352 
-1.2990731578729657 1.195295036218325 2.9311428785239175 1.2658004602497999 1.2176881667555657 1.3140635603325643 1:3.0 2:0.0 3:0.0 4:0.925110132 5:1.166666667 6:2.657 7:1.12692 
-0.6632577060257736 0.0 3.0749557628746467 0.22025805633227383 6.267371983020929 0.6642234630890558 1:1.0 2:0.0 3:0.0 4:0.431718062 5:0.333333333 6:1.11596 7:1.24761 
-0.614867263090718 0.40322875589271795 0.9286185389949122 0.0 2.7564706937136436 0.6201495780106546 1:1.0 2:0.0 3:0.0 4:0.431718062 5:0.666666667 6:3.87493 7:1.20283 
-0.5183781246224286 6.564906245825869 4.630022483959326 0.20467699835244385 0.3768973457248955 0.5220991032668775 1:1.0 2:1.0 3:0.0 4:0.616740088 5:0.833333333 6:3.0271 7:1.232 
-1.4952836060864296 1.393422796572866 1.463587598909975 1.4820133311050219 1.4275483781179663 1.5122094115208218 1:1.0 2:0.0 3:1.0 4:0.400881057 5:0.333333333 6:5.31852 7:0.993405 
-0.05533167732112541 9.023002971572902 10.0 0.0 10.0 0.05333076339600595 1:1.0 2:0.0 3:0.0 4:0.647577093 5:0.833333333 6:0.721004 7:1.01452 
-0.23159945293495995 1.8222723218095143 0.0 0.0 0.0 0.23361756314793622 1:1.0 2:0.0 3:0.0 4:0.462555066 5:0.666666667 6:3.88336 7:0.96619 
-0.0 0.0 9.56840083730843 0.0 2.4768206532867096 0.0 1:1.0 2:0.0 3:0.0 4:0.801762115 5:0.833333333 6:2.3732 7:1.28681 
-1.338907065312316 1.2346448517870339 1.1623769321609159 1.5610576726860332 1.255072683781259 1.3547303179993917 1:3.0 2:0.0 3:0.0 4:0.801762115 5:0.833333333 6:1.22286 7:1.40129 
-0.0 10.0 4.150245005999982 3.148391980581332 3.784161893332025 0.0 1:1.0 2:0.0 3:0.0 4:0.925110132 5:1.0 6:1.52919 7:1.32602 
-0.0 6.1580282232385715 0.06940747133970185 0.0 0.0 0.0 1:1.0 2:0.0 3:1.0 4:0.555066079 5:0.5 6:2.80677 7:0.993405 
-1.4690122042076368 1.359231643455167 1.391446134178025 1.4191086510191062 1.3770188925428948 1.4864439899179978 1:3.0 2:1.0 3:0.0 4:1.480176211 5:2.166666667 6:1.4997 7:1.0 
-0.0 4.58482045855714 0.0 0.0 0.0 0.0010689455838851602 1:1.0 2:0.0 3:0.0 4:0.585903084 5:0.833333333 6:0.831087 7:1.32602 
-0.0 0.0 0.0 2.0854527296789476 6.1831511196791 0.0 1:1.0 2:0.0 3:0.0 4:0.616740088 5:0.833333333 6:3.2972 7:1.04379 
-0.4133112064917162 2.3769056255780625 2.4905129183818566 3.519445083272885 0.6560941067428071 0.42081522370212066 1:1.0 2:0.0 3:0.0 4:0.555066079 5:0.666666667 6:4.41611 7:0.96619 
-0.0 0.0 0.0 0.0 7.080475587972945 0.0 1:1.0 2:0.0 3:0.0 4:0.49339207 5:0.666666667 6:1.90432 7:1.16101 
-0.0 0.0 2.0128755410087664 1.686219841833873 7.529707915665515 0.0 1:1.0 2:0.0 3:0.0 4:0.709251101 5:1.0 6:1.3088 7:1.1739 
-0.0 5.300090464696088 0.0 9.186510696939814 0.0 0.0 1:1.0 2:0.0 3:0.0 4:0.832599119 5:0.833333333 6:2.32177 7:1.20919 
-1.4982831799643814 1.3739509228808346 1.4223387372954819 1.4469930831526838 1.4045420196197014 1.5156704973945612 1:1.0 2:0.0 3:0.0 4:0.585903084 5:0.833333333 6:9.21034 7:0.96619 
-1.16029305787856 0.0 1.6295931376630386 0.0 0.0 1.1737460069361854 1:1.0 2:0.0 3:1.0 4:0.585903084 5:0.833333333 6:2.28155 7:0.867238 
-0.9572862917382482 6.548891996988457 2.261449111028518 5.2576420100616215 2.372193364071624 0.9686046148164156 1:1.0 2:0.0 3:0.0 4:0.308370044 5:0.333333333 6:0.0 7:1.25716 
-0.4800279156870979 7.597424168102696 9.038209662193486 0.0 9.785225362881363 0.49387528156711447 1:1.0 2:0.0 3:0.0 4:0.308370044 5:0.5 6:2.92621 7:1.25716 
-0.0 0.0 1.6358571725796696 0.0 0.0 0.0 1:1.0 2:0.0 3:0.0 4:0.740088106 5:1.0 6:1.74808 7:1.28681 
-0.0 8.971339619275941 1.2261447901122746 8.77925419519319 9.257245151306545 0.0 1:1.0 2:0.0 3:0.0 4:0.832599119 5:1.0 6:2.48764 7:0.980246 
-0.3976284782329732 2.932672031650949 5.372563547978798 0.0 0.0 0.3604224181468572 1:1.0 2:0.0 3:0.0 4:0.49339207 5:0.666666667 6:1.40973 7:0.793077 
-0.0 0.0 0.5972430805006579 0.0 1.078114619775653 0.0 1:1.0 2:0.0 3:0.0 4:0.462555066 5:0.5 6:3.42344 7:1.28681 
-0.0 6.9937500591052535 2.9045274422005862 0.0 2.0804665462951806 0.0 1:1.0 2:0.0 3:0.0 4:0.27753304 5:0.5 6:1.26125 7:1.25716 
-1.209605567026082 2.4619705429008527 0.7803596307237679 9.330398153688053 5.767828250299275 1.223759070288152 1:1.0 2:0.0 3:1.0 4:0.462555066 5:0.5 6:2.94663 7:0.993405 
-1.4691513294010399 1.3599936120099425 1.3939536659925955 1.4247413285149184 1.377372519546962 1.4861645389023477 1:3.0 2:1.0 3:0.0 4:0.462555066 5:0.5 6:1.26163 7:1.0 
-0.0 8.094351454595676 0.0 0.0 10.0 0.15062322767113118 1:1.0 2:0.0 3:0.0 4:0.585903084 5:0.666666667 6:1.5453 7:0.793077 
-0.0 10.0 7.221748013654371 9.954777376829128 8.632558204718292 0.0 1:1.0 2:0.0 3:0.0 4:0.77092511 5:0.833333333 6:1.49767 7:0.949293 
-0.0 0.0 10.0 0.0 0.0 0.0 1:1.0 2:0.0 3:0.0 4:0.925110132 5:1.166666667 6:1.75363 7:1.29519 
-0.7183478988245249 0.6554000838654311 1.9210600057820457 0.6795351318733533 0.6734532797106029 0.7270107793284594 1:3.0 2:0.0 3:0.0 4:1.04845815 5:1.166666667 6:1.66695 7:0.770384 
-0.7988619812344889 10.0 3.705806889752832 0.0 9.742630527284255 0.8224039005022815 1:1.0 2:0.0 3:0.0 4:0.339207048 5:0.333333333 6:1.78082 7:0.963687 
-0.9497709482256133 3.708076853231334 0.16533339751672352 3.4078550444885347 2.9329492683312797 0.9676753726522075 1:1.0 2:0.0 3:0.0 4:0.77092511 5:1.0 6:0.864559 7:1.16646 
-1.140573390370955 9.035469665986815 7.123156740817156 4.45996709665923 10.0 1.154520583904135 1:1.0 2:1.0 3:0.0 4:0.925110132 5:1.0 6:1.73493 7:1.17409 
-0.0 0.0 10.0 0.0 0.0 0.0 1:1.0 2:0.0 3:0.0 4:0.77092511 5:1.0 6:1.68116 7:1.01452 
-0.0 10.0 5.425199359988499 7.200353391720891 7.955130909915675 0.0 1:1.0 2:0.0 3:0.0 4:0.894273128 5:0.833333333 6:1.96318 7:1.12178 
-0.0 0.0 0.0 1.1148815333537987 0.0 0.0 1:1.0 2:0.0 3:0.0 4:0.308370044 5:0.5 6:3.27017 7:0.96619 
-0.0 10.0 7.432304185264488 10.0 0.0 0.0 1:1.0 2:0.0 3:0.0 4:0.77092511 5:0.833333333 6:1.24157 7:1.12178 
-0.0 0.0 0.0 1.51668937396361 0.0 0.0 1:1.0 2:0.0 3:0.0 4:0.585903084 5:0.833333333 6:1.3088 7:1.32602 
-0.0 6.080436860834922 0.0 0.0 0.0 0.0 1:1.0 2:0.0 3:0.0 4:0.678414097 5:0.833333333 6:1.5831 7:1.39552 
-0.0 5.846290170347241 10.0 5.090470770823128 0.0 0.0 1:1.0 2:0.0 3:0.0 4:0.863436123 5:1.0 6:1.71073 7:1.01452 
-0.0 0.0 0.0 0.0 0.8840430946313915 0.0 1:1.0 2:0.0 3:0.0 4:0.555066079 5:0.666666667 6:3.21484 7:1.22136 
-0.5889677985739167 0.0 0.0 0.8029239342627147 0.0 0.5950715457764709 1:1.0 2:1.0 3:0.0 4:0.246696035 5:0.333333333 6:0.715597 7:1.03285 
-1.3985032291348631 4.6371612790665955 1.357725240896315 1.9899791128143753 1.3722166148757786 1.414743153054242 1:1.0 2:1.0 3:1.0 4:0.585903084 5:0.666666667 6:2.22265 7:1.33383 
-0.9956397831253307 10.0 3.3066382530868657 1.0198352382078113 0.9334491894218688 1.0065042751067639 1:1.0 2:0.0 3:1.0 4:0.555066079 5:0.5 6:1.15827 7:0.993405 
-0.7879939182084564 1.7850733620208792 2.336238136655396 9.08252696164996 0.0 0.7937942756792975 1:1.0 2:0.0 3:0.0 4:0.308370044 5:0.333333333 6:3.30426 7:1.0462 
-0.0 10.0 0.0 0.0 0.0 0.0 1:1.0 2:0.0 3:0.0 4:0.339207048 5:0.5 6:1.92689 7:0.96619 
-0.0 0.0 2.7273137350689023 0.0 0.0 0.0 1:1.0 2:1.0 3:0.0 4:0.400881057 5:0.5 6:0.992632 7:1.03285 
-0.35750770400969173 0.3219905699531043 0.0 0.3307070905613555 0.33443394538390875 0.36166595527100165 1:3.0 2:0.0 3:0.0 4:0.863436123 5:1.166666667 6:2.05629 7:1.0 
-0.0 6.981642233282987 3.3430180533981098 0.0 0.0 0.0 1:1.0 2:0.0 3:0.0 4:0.400881057 5:0.666666667 6:1.67084 7:1.04774 
-0.0 0.0 0.0 0.0 1.1118375622879995 0.0 1:1.0 2:0.0 3:0.0 4:0.524229075 5:0.833333333 6:3.00017 7:1.14858 
-0.1497585908798647 5.482525697380355 0.0 0.0 1.2375515904087568 0.0779188162988737 1:1.0 2:0.0 3:0.0 4:0.740088106 5:0.833333333 6:1.53063 7:0.880996 
-0.0 0.9529284259971254 0.0 1.7443765119269403 2.9568401386494694 0.0 1:1.0 2:0.0 3:0.0 4:0.647577093 5:0.666666667 6:1.53063 7:1.32602 
-0.3156084901458609 8.745847311021729 10.0 3.222221083004381 7.312360690313641 0.3204264610299136 1:1.0 2:0.0 3:0.0 4:0.462555066 5:0.666666667 6:0.510326 7:1.12178 
-0.0 0.0 0.0 10.0 0.0 0.0 1:1.0 2:0.0 3:0.0 4:0.616740088 5:0.833333333 6:1.29464 7:1.31897 
-1.0046993381762617 6.692588598457685 1.5011494836949328 7.8735297794708785 5.430004297259471 1.015700933815359 1:1.0 2:0.0 3:0.0 4:0.27753304 5:0.5 6:0.0 7:0.727027 
-0.5767187935684376 2.5655419404012334 0.0 0.3420062724809852 2.710845958623036 0.5837466911706736 1:1.0 2:1.0 3:0.0 4:0.370044053 5:0.5 6:1.02778 7:1.03285 
-0.6464005243298924 1.78997294099188 0.614870593181982 6.811676227583725 3.184721859627612 0.654148631974584 1:1.0 2:1.0 3:0.0 4:0.555066079 5:0.666666667 6:2.18696 7:0.986464 
-0.3356712925484802 1.2430147623237935 10.0 0.0 0.49431420215389127 0.3168123830699283 1:1.0 2:0.0 3:0.0 4:0.431718062 5:0.5 6:2.50646 7:1.16101 
-0.0 0.0 1.2302875490508827 0.0 0.0 0.0 1:1.0 2:0.0 3:0.0 4:0.678414097 5:0.833333333 6:1.5276 7:1.09056 
-1.0730952418640964 8.770106988986646 1.7569951483467583 1.1024413120700953 1.15473612003986 1.0864437586462719 1:1.0 2:0.0 3:1.0 4:0.27753304 5:0.333333333 6:0.682801 7:0.993405 
-0.0 0.0 2.314001737606721 0.0 10.0 0.0 1:1.0 2:0.0 3:0.0 4:0.678414097 5:0.666666667 6:1.5919 7:1.16682 
-0.1431102368601079 1.812421271356314 0.8775933159086224 3.076697440478887 0.9461046205133549 0.14316421831153953 1:1.0 2:1.0 3:0.0 4:0.740088106 5:0.833333333 6:2.46313 7:1.33808 
-1.4896807446465161 1.4091754313265572 1.4568614481763111 1.445636485821629 1.39882305654388 1.5077461922585775 1:1.0 2:0.0 3:2.0 4:1.04845815 5:1.166666667 6:1.6345 7:1.1539 
-0.8438710016411894 7.4947969648164445 0.24345577558963305 0.5894035296612709 8.564345161839109 0.900245369232072 1:1.0 2:0.0 3:0.0 4:0.709251101 5:0.666666667 6:2.45144 7:0.727027 
-0.7790408891535383 0.0 0.18540358342538282 0.23245576006232135 0.4644156628600432 0.7910461247329028 1:1.0 2:1.0 3:0.0 4:0.894273128 5:0.833333333 6:2.88835 7:1.35391 
-0.0 0.0 10.0 8.59559684038302 10.0 0.0 1:1.0 2:0.0 3:0.0 4:0.647577093 5:0.666666667 6:2.96309 7:1.26432 
-1.0791977152071806 2.9602463773742227 1.942162830772564 0.16707815583837124 0.5725388721946488 1.0924119027568349 1:1.0 2:1.0 3:0.0 4:0.27753304 5:0.333333333 6:2.72682 7:0.954369 
-0.0 0.0 7.788616744519591 0.0 0.0 0.0 1:1.0 2:0.0 3:0.0 4:0.740088106 5:0.833333333 6:2.74715 7:1.12178 
-0.0 7.857259133930339 3.4389841829734236 0.0 10.0 0.0 1:1.0 2:0.0 3:0.0 4:0.524229075 5:0.333333333 6:1.75122 7:1.0224 
-0.5466729348771149 10.0 10.0 10.0 3.052723139820966 0.5498283653007479 1:1.0 2:0.0 3:0.0 4:1.171806167 5:1.166666667 6:1.97517 7:1.21295 
-0.4826791718825934 10.0 2.714090590028738 0.0 1.0636855809539245 0.4852422390970324 1:1.0 2:0.0 3:0.0 4:0.894273128 5:1.0 6:3.24425 7:1.19515 
-1.442513968765905 1.945900462817552 1.6087305583191465 1.5945428709211877 2.651444924368347 1.4596491890483312 1:1.0 2:1.0 3:0.0 4:1.54185022 5:1.666666667 6:2.30937 7:1.0 
-1.4911396717956293 1.369283714461173 1.4151366949942168 1.4400697747109144 1.3977876030091565 1.5088262748414893 1:3.0 2:2.0 3:0.0 4:0.986784141 5:1.166666667 6:1.64302 7:1.0 
-1.0438317213303894 0.9588097210011108 4.069588931702497 1.9844792986482735 0.9588238807249664 1.054263195851234 1:1.0 2:0.0 3:0.0 4:0.832599119 5:0.833333333 6:4.49083 7:0.96619 
-0.0 6.916091276631964 1.1992486485653755 0.0 0.0 0.0 1:1.0 2:0.0 3:0.0 4:0.955947137 5:1.166666667 6:1.74888 7:1.35852 
-1.1081009532021162 1.022490955761444 1.0926134517843302 1.0694899049982414 1.038836735383248 1.1206333706834377 1:3.0 2:0.0 3:0.0 4:1.418502203 5:1.666666667 6:1.54955 7:1.0 
-0.0 6.843048516537135 3.005861554383265 4.718674645794549 5.566199363332653 0.0 1:1.0 2:0.0 3:0.0 4:0.801762115 5:0.833333333 6:2.61044 7:0.96619 
-0.9524220289539412 10.0 10.0 6.6479820033449295 2.6820403389275094 0.9621818410116375 1:1.0 2:0.0 3:0.0 4:1.110132159 5:1.166666667 6:2.93335 7:1.21673 
-0.3415185497572144 0.32818947589058023 3.682194275623761 0.3454057288530446 0.3212018855738545 0.34504710734967486 1:3.0 2:0.0 3:0.0 4:1.140969163 5:1.333333333 6:1.92311 7:1.22154 
-0.4493442061098202 0.0 0.0 0.0 3.245912979537518 0.451971839402979 1:1.0 2:0.0 3:0.0 4:0.832599119 5:1.0 6:2.14964 7:1.39365 
-0.6409453690032031 0.13884346627358662 0.4168613618841364 0.5963805948831097 0.31226370525354885 0.6487574165143954 1:1.0 2:1.0 3:0.0 4:0.215859031 5:0.333333333 6:0.869829 7:1.31006 
-0.0 9.576599139674316 10.0 7.79324138872206 1.4363859079940686 0.0 1:1.0 2:0.0 3:1.0 4:0.524229075 5:0.666666667 6:2.36412 7:0.993405 
-0.0 7.6348233415737825 1.4917698750652157 0.0 0.0 0.0 1:1.0 2:0.0 3:1.0 4:0.555066079 5:0.666666667 6:2.8679 7:0.993405 
-0.0 10.0 10.0 2.161054126596558 0.0 0.0 1:1.0 2:0.0 3:0.0 4:0.555066079 5:0.833333333 6:1.0274 7:0.96619 
-0.673621062017108 10.0 8.856311861069964 1.1888413168032899 6.287208997696763 0.6928917326776156 1:1.0 2:0.0 3:0.0 4:1.079295154 5:1.166666667 6:1.63799 7:1.35611 
-0.4160909284616029 -0.0 1.044475997943466 0.0 9.271059870842288 0.4209189569458679 1:1.0 2:0.0 3:0.0 4:0.585903084 5:0.666666667 6:0.0 7:0.965743 
-0.6358160967884936 -1.5222165131440637 4.183303929592158 3.126144136905704 1.094899781609769 0.6459981896480411 1:1.0 2:0.0 3:0.0 4:0.863436123 5:0.666666667 6:4.86822 7:1.14883 
-1.0863483285029474 -0.0 0.7178918075047896 4.659344702421567 1.7760599942337376 1.1057630462884984 1:1.0 2:0.0 3:0.0 4:1.449339207 5:1.666666667 6:1.47875 7:1.0425 
-0.461240478277886 -10.0 5.1452125377709015 0.162021352488759 0.32560968089101294 0.46719319974067963 1:1.0 2:0.0 3:1.0 4:0.524229075 5:0.5 6:1.15345 7:0.992835 
-0.7362199489333964 -0.0 10.0 0.0 0.732950184578951 0.7486272004154064 1:1.0 2:0.0 3:1.0 4:0.49339207 5:0.5 6:1.84352 7:0.992835 
-0.777226375368917 -10.0 1.0064883112384644 10.0 6.029026530777999 0.790364864101721 1:1.0 2:0.0 3:0.0 4:0.370044053 5:0.5 6:0.0 7:0.965743 
-0.0 -2.112995688062012 2.2220972669740626 1.0369001054387805 0.0 0.0 1:1.0 2:0.0 3:0.0 4:0.49339207 5:0.5 6:0.0559356 7:1.14883 
-1.081514361497712 -0.4225525649055541 0.9486286408543896 0.9871359982492929 0.9682358999806769 1.098680326306632 1:1.0 2:1.0 3:1.0 4:1.04845815 5:1.166666667 6:1.10774 7:1.4 
-0.038741109391124934 -3.5970651693601563 3.0144874159764212 5.454078604017907 0.0 0.037717139016961186 1:1.0 2:0.0 3:1.0 4:0.49339207 5:0.5 6:2.03217 7:0.992835 
-0.11026721776856736 -0.0 0.0 0.0 0.0 0.11283333592610936 1:1.0 2:0.0 3:0.0 4:0.308370044 5:0.333333333 6:4.12894 7:1.26357 
-0.0 -10.0 3.859601089804771 4.3165801195343025 0.8300349230393176 0.0 1:1.0 2:0.0 3:0.0 4:0.709251101 5:0.833333333 6:0.88231 7:1.14883 
-0.6267454102483223 -3.860670862108734 2.6426251215556973 0.5196773987673219 0.7584485797384214 0.6357884230485252 1:1.0 2:1.0 3:0.0 4:0.339207048 5:0.5 6:3.1213 7:1.21697 
-0.49336457856312754 -1.132049260873055 8.412550731486974 0.4149020962537017 0.4722316536800312 0.5015814560256533 1:1.0 2:0.0 3:1.0 4:0.801762115 5:0.833333333 6:0.769486 7:0.992835 
-0.0 -10.0 10.0 10.0 1.9679671688063174 0.0 1:1.0 2:0.0 3:0.0 4:0.863436123 5:1.0 6:1.48807 7:1.01037 
-1.1328080342164606 -4.09607914347944 0.8966818463659306 2.144092092487179 1.1223450261743484 1.1500906542615805 1:1.0 2:1.0 3:1.0 4:0.400881057 5:0.5 6:2.19127 7:1.15918 
-0.0 -0.0 2.647450650614818 0.0 0.0 0.0 1:1.0 2:0.0 3:0.0 4:0.740088106 5:0.666666667 6:1.16328 7:0.829641 
-1.0822475321375171 -0.8567650415343636 2.73790567451563 0.8998009019079564 1.7700692811506107 1.0992026223007862 1:1.0 2:0.0 3:0.0 4:0.647577093 5:0.666666667 6:3.32755 7:2.0 
-0.34675781388930643 -5.081179360889122 0.0 0.0 0.24004755045648488 0.41827849512774395 1:1.0 2:0.0 3:0.0 4:0.77092511 5:0.666666667 6:1.32671 7:0.727027 
-0.6013154971075597 -0.0 0.0 0.0 0.04056670843995431 0.6088918216516106 1:1.0 2:0.0 3:0.0 4:0.339207048 5:0.333333333 6:4.40632 7:1.24713 
-0.5330618523652845 -3.083017872548953 0.46613249001269275 0.8224790909504275 0.5806368210497438 0.541149403116834 1:1.0 2:0.0 3:0.0 4:0.462555066 5:0.333333333 6:3.91803 7:0.958628 
-0.0 -4.69189538443773 0.0 0.0 9.912336026031982 0.0 1:1.0 2:0.0 3:0.0 4:0.709251101 5:0.666666667 6:2.02107 7:0.839311 
-0.0 -10.0 10.0 4.756110828185839 7.7432107430831305 0.0 1:1.0 2:0.0 3:0.0 4:0.585903084 5:0.833333333 6:0.978641 7:0.965743 
-0.0 -10.0 5.030206111682918 8.510872704450803 10.0 0.0 1:1.0 2:0.0 3:0.0 4:0.740088106 5:0.666666667 6:1.40708 7:0.965743 
-0.5621769629021269 -0.5600804030070781 7.0821451739931955 0.4220094634691548 0.5431867858203969 0.5702483998916471 1:1.0 2:0.0 3:1.0 4:0.863436123 5:1.0 6:1.82146 7:1.33318 
-1.0616324618483397 -0.8581369879513626 0.8405021617359455 1.099133323113571 0.9125860129958542 1.0781365409407635 1:1.0 2:1.0 3:1.0 4:0.863436123 5:1.0 6:2.66481 7:2.0 
-1.074715186229829 -8.042288386842335 3.3111139742845435 1.1358922881264697 1.5301061287140776 1.0922093159352464 1:1.0 2:0.0 3:1.0 4:0.27753304 5:0.333333333 6:0.508717 7:1.12169 
-0.7425907832375414 -0.0 2.6212142213019454 2.199541610955692 7.770959749001632 0.7388025542745799 1:1.0 2:0.0 3:0.0 4:1.079295154 5:1.0 6:0.990661 7:0.839311 
-0.0 -0.0 2.2822082059036415 0.0 1.2815584766816925 0.0 1:1.0 2:0.0 3:0.0 4:1.017621145 5:1.166666667 6:1.36668 7:1.0425 
-0.12376852440162568 -0.0 0.0 1.314628021701041 0.0 0.12425411776027931 1:1.0 2:1.0 3:0.0 4:1.233480176 5:1.166666667 6:1.49194 7:1.33152 
-0.7499294502877201 -0.9123582926187749 0.7062677501327943 6.305911681318052 0.5709299872119353 0.7625101546749717 1:1.0 2:1.0 3:1.0 4:1.079295154 5:1.0 6:1.91348 7:1.01788 
-0.0 -0.4817104201851136 0.689360672869719 0.0 0.0 0.0 1:1.0 2:0.0 3:0.0 4:1.079295154 5:1.166666667 6:3.05971 7:1.14413 
-0.0 -3.0090128187778573 5.372440467629801 4.986972833333748 6.244146959995148 0.0 1:1.0 2:0.0 3:0.0 4:1.202643172 5:1.5 6:1.62528 7:0.987774 
-1.2095370361492614 -0.5759695790332192 0.986367329558934 1.1134349042988165 1.1220184946710883 1.228356054874335 1:2.0 2:2.0 3:0.0 4:1.881057269 5:1.833333333 6:1.81801 7:2.0 
-0.0 -4.042694120895911 1.5738246518316006 10.0 10.0 0.0 1:1.0 2:0.0 3:0.0 4:1.264317181 5:1.166666667 6:2.26972 7:1.10014 
-0.7854194516929978 -10.0 5.998887744789343 0.0 3.072426743494649 0.8046339916002498 1:1.0 2:0.0 3:0.0 4:0.555066079 5:0.833333333 6:0.502031 7:1.32552 
-1.2055574249451353 -0.5740034997874353 0.9823356533742318 1.1099994975894416 1.116363463966457 1.2242986045594906 1:2.0 2:2.0 3:0.0 4:1.572687225 5:1.666666667 6:0.981496 7:2.0 
-0.5831151504113559 -10.0 0.4395256132539312 5.479576849806266 2.1447899476549206 0.5916087876463066 1:1.0 2:0.0 3:0.0 4:1.04845815 5:1.0 6:1.9198 7:1.45909 
-0.6722612543282344 -0.0 5.185565463930843 1.2209935665860725 8.548066960726699 0.6835557948367074 1:1.0 2:1.0 3:0.0 4:1.325991189 5:1.333333333 6:1.736 7:1.66667 
-0.0 -10.0 10.0 10.0 0.0 0.0 1:1.0 2:0.0 3:0.0 4:0.955947137 5:1.0 6:2.74359 7:1.14883 
-0.6039216523680969 -1.1595682344904776 7.004228462686327 5.144713605788766 0.8781339228448319 0.6162361759363646 1:1.0 2:0.0 3:0.0 4:1.449339207 5:1.5 6:3.1538 7:1.30988 
-0.0 -1.0422809799807415 3.1203803128026553 0.0 0.0 0.0 1:1.0 2:0.0 3:0.0 4:1.110132159 5:1.333333333 6:2.98798 7:1.15335 
-1.0023458876659828 -0.8005297369683324 0.6536487816180115 0.6597556867363271 0.7382393240610339 1.0180782456412403 1:1.0 2:0.0 3:0.0 4:1.202643172 5:1.0 6:3.70116 7:0.983729 
-0.5793455210604916 -0.3453542879522204 5.816362631753783 6.17087232529354 9.740952335715384 0.5806499307305125 1:1.0 2:0.0 3:0.0 4:1.418502203 5:1.333333333 6:2.46935 7:1.34337 
-0.025227714993882103 -10.0 10.0 1.0114920675490395 4.5871359200943305 0.034625881468624914 1:1.0 2:0.0 3:0.0 4:1.017621145 5:1.166666667 6:1.77151 7:1.39947 
-0.2792068829898665 -10.0 10.0 1.4312496527473864 0.0729819161664828 0.26241265301654393 1:1.0 2:0.0 3:0.0 4:0.49339207 5:0.666666667 6:0.978641 7:0.965743 
-1.2740777325908024 -0.6105324252870554 1.087839614591626 1.167358195402062 1.1951787100265556 1.2942038047378008 1:1.0 2:2.0 3:0.0 4:0.986784141 5:1.166666667 6:1.54632 7:2.0 
-0.460960849693907 -0.30916196480779035 0.3882733315357531 0.13297712183915 0.6432457534524918 0.4669859592568484 1:1.0 2:1.0 3:1.0 4:1.017621145 5:1.333333333 6:1.81176 7:1.33333 
-0.0 -10.0 10.0 0.7784289147801134 0.0 0.0 1:1.0 2:0.0 3:0.0 4:0.925110132 5:1.0 6:1.63791 7:1.0975 
-0.2925600642739225 -0.0 0.0 0.0 0.0 0.2976407127063935 1:1.0 2:0.0 3:0.0 4:0.308370044 5:0.333333333 6:3.97519 7:0.96549 
-1.3041710749478264 -0.6291470429420485 1.1942747033604693 1.2861529486504646 1.2129907859699662 1.3250053910216406 1:3.0 2:0.0 3:0.0 4:1.572687225 5:2.0 6:2.58149 7:2.0 
-0.17895967210068045 -1.4743004908925674 4.368253467269913 2.946406651460205 3.6324094244164726 0.18247550156649583 1:1.0 2:0.0 3:0.0 4:0.431718062 5:0.333333333 6:4.49033 7:1.04574 
-0.8444626122705877 -0.4416542346304782 0.7001581179315126 0.7783390030337016 0.7951929777321577 0.8576052991022967 1:3.0 2:1.0 3:0.0 4:1.325991189 5:1.666666667 6:1.51027 7:2.0 
-0.781536887040559 -0.3618858451298589 0.6465615630749084 0.7253710281673629 0.7459765164333368 0.7933986931010096 1:3.0 2:1.0 3:0.0 4:1.387665198 5:1.333333333 6:1.21399 7:2.0 
-0.6376825603615357 -4.506366610574501 1.715140276711202 0.0 4.632973731656026 0.6489896846755034 1:1.0 2:1.0 3:0.0 4:1.04845815 5:1.0 6:1.4074 7:1.17111 
-1.3097098895082744 -0.6237440065942678 1.186407590454775 1.2115243100633535 1.2580207350217774 1.3304673095888553 1:3.0 2:0.0 3:1.0 4:2.281938326 5:2.5 6:2.19982 7:2.0 
-0.7184530981840644 -0.3961840139641908 0.5418326332290918 0.699515059720848 0.6754299080020172 0.7307760396609078 1:2.0 2:0.0 3:0.0 4:1.665198238 5:1.833333333 6:2.10353 7:1.09275 
-0.24421587137375214 -0.11644084437474068 0.10132113568072511 0.22495277897959187 0.22473293402902297 0.24840254985859175 1:2.0 2:0.0 3:1.0 4:1.295154185 5:1.166666667 6:2.57221 7:1.31742 
-0.9392433520636025 -0.2049008005765126 1.1763985565969568 1.3675467509900774 1.2480038506491624 0.9540154186190216 1:1.0 2:0.0 3:0.0 4:0.709251101 5:0.833333333 6:5.22204 7:0.965743 
-0.42413672421192145 -10.0 0.0 0.0 0.0 0.4147591685070712 1:1.0 2:0.0 3:0.0 4:0.27753304 5:0.5 6:1.79939 7:0.965743 
-0.27994715505374285 -0.0 0.0 0.0 0.0 0.27752576889695657 1:1.0 2:0.0 3:0.0 4:1.140969163 5:1.5 6:3.17064 7:1.11293 
-0.22489143574712087 -10.0 6.385039388436668 10.0 10.0 0.21409570860012017 1:1.0 2:0.0 3:0.0 4:0.801762115 5:0.833333333 6:1.55404 7:1.39947 
-0.41932410308980134 -7.5821267005197255 2.313617603410625 2.015354316041605 3.848497080019769 0.4328204489836205 1:1.0 2:0.0 3:0.0 4:0.925110132 5:1.0 6:2.99595 7:0.965743 
-0.0 -10.0 0.0 0.0 2.317601434035925 0.0 1:1.0 2:0.0 3:0.0 4:0.339207048 5:0.5 6:1.79939 7:0.965743 
-1.3137731741822805 -0.6253817157236466 1.0696793859418918 1.2280005319796325 1.2159413069394052 1.3340672668145361 1:1.0 2:0.0 3:0.0 4:2.343612335 5:2.5 6:4.00415 7:2.0 
-1.2413581293768197 -0.6311318821939386 1.0112929751855804 1.1611747046450527 1.1556911594994563 1.2623592726570017 1:3.0 2:1.0 3:0.0 4:0.678414097 5:0.833333333 6:1.66043 7:2.0 
-0.5446938842359492 -10.0 10.0 4.555380117417331 9.622780494619311 0.5484463519619068 1:1.0 2:0.0 3:0.0 4:0.370044053 5:0.5 6:1.46534 7:1.25682 
-0.0 -2.6990518535539483 10.0 0.0 10.0 0.0 1:1.0 2:1.0 3:0.0 4:1.171806167 5:1.166666667 6:1.84828 7:1.33152 
-0.7124982984491579 -5.731718727619584 6.335032267037066 1.2641331717508177 0.45179567835793677 0.7246906615035144 1:1.0 2:1.0 3:0.0 4:0.678414097 5:0.833333333 6:2.83654 7:0.986464 
-0.7231326333370194 -0.3115274614137946 0.6966441898477729 0.683428962172447 0.7551045767396608 0.7330862051775798 1:2.0 2:0.0 3:0.0 4:1.696035242 5:1.833333333 6:2.39127 7:1.1327 
-0.9762833249460067 -0.45757874625241524 0.9026993741008384 0.9135750907996004 0.9079123095155426 0.9908530986982272 1:2.0 2:0.0 3:1.0 4:1.233480176 5:1.166666667 6:2.1178 7:1.19541 
-1.312615588448659 -0.6252774912326373 1.0899012207182968 1.2090771210045743 1.2156702382849356 1.3331207874322812 1:2.0 2:0.0 3:1.0 4:1.757709251 5:1.833333333 6:0.96519 7:1.75736 
-0.32937889837061035 -0.0 10.0 2.391523705710429 9.316250284416704 0.3240633194392347 1:1.0 2:0.0 3:0.0 4:1.017621145 5:1.166666667 6:1.64365 7:0.847321 
-0.0 -6.112932651890714 6.135325694083973 2.564450753924775 10.0 0.0 1:1.0 2:0.0 3:0.0 4:0.894273128 5:0.833333333 6:1.82942 7:0.842297 
-0.005166585608949575 -6.094811439113593 2.534427193292108 10.0 10.0 0.028949858080606312 1:1.0 2:0.0 3:0.0 4:0.955947137 5:0.833333333 6:2.3544 7:0.995092 
-1.3133903633111141 -0.625412500078621 1.0689401168659238 1.2182639113678346 1.2239064292356112 1.3339164567593687 1:2.0 2:1.0 3:0.0 4:1.81938326 5:2.0 6:3.47413 7:2.0 
-0.937435603624464 -0.6145118094201727 3.3284434388282866 2.853713172680315 0.8322559438058623 0.9520946294697277 1:1.0 2:0.0 3:0.0 4:1.171806167 5:1.166666667 6:2.98038 7:2.0 
-0.2938911903829121 -0.0 0.0 0.0 8.947681868663706 0.3265189761082463 1:1.0 2:0.0 3:0.0 4:1.110132159 5:1.166666667 6:2.54962 7:0.965743 
-1.3098140884456686 -0.6238747502980143 1.1308897911626825 1.2231045742485118 1.4147666752749506 1.330599805284838 1:1.0 2:0.0 3:0.0 4:2.559471366 5:2.333333333 6:2.4942 7:1.0 
-1.0329155323545225 -10.0 10.0 3.2040864656305033 10.0 1.042362191631772 1:1.0 2:0.0 3:0.0 4:0.339207048 5:0.333333333 6:2.84044 7:1.24713 
-0.3341354205746493 -0.0 0.10290131404597631 0.20550122381669328 0.47769261060397683 0.33878040099324946 1:1.0 2:0.0 3:1.0 4:1.202643172 5:1.333333333 6:2.27867 7:1.3494 
-0.7541245371693629 -0.40377031513020584 4.782985124339358 0.6709522481878825 0.7477131585239813 0.765928053419069 1:1.0 2:1.0 3:0.0 4:0.678414097 5:0.5 6:3.40135 7:1.03152 
-0.5426259188204362 -10.0 1.6069836098759822 3.659626563285137 3.1186325288021384 0.551553879463615 1:1.0 2:0.0 3:1.0 4:0.524229075 5:0.666666667 6:2.88103 7:0.992835 
-0.0 -10.0 10.0 0.0 10.0 0.0 1:1.0 2:0.0 3:0.0 4:0.400881057 5:0.5 6:1.68843 7:0.965743 
-0.07817659835199683 -7.993191908702468 2.9566226740779555 0.0 0.0 0.07897610628266369 1:1.0 2:0.0 3:0.0 4:0.925110132 5:1.166666667 6:3.32921 7:1.29567 
-1.072508686613762 -3.0544279296010064 10.0 1.6809113774605897 8.374853459196576 1.088122465428964 1:1.0 2:1.0 3:0.0 4:0.431718062 5:0.5 6:1.54983 7:1.03152 
-0.0 -10.0 10.0 6.039001363240131 6.452516649831763 0.0 1:1.0 2:0.0 3:0.0 4:0.925110132 5:1.0 6:1.47906 7:1.27852 
-0.8957678997160066 -0.0 2.7902760793683994 1.7221688115663625 0.7605180045295175 0.9096848444528904 1:1.0 2:0.0 3:1.0 4:1.356828194 5:1.333333333 6:2.78241 7:1.3325 
-0.21026055864612536 -10.0 4.597277349683763 7.948718814050505 7.084651621054631 0.12634274439195645 1:1.0 2:0.0 3:0.0 4:0.863436123 5:0.833333333 6:2.40156 7:0.965743 
-0.7239479080548715 -4.72754961382847 2.3830203607378126 4.264291510701537 4.438290386318991 0.7358078841648467 1:1.0 2:1.0 3:0.0 4:0.986784141 5:1.0 6:2.11113 7:1.04104 
-0.9994232366490678 -0.44903897283799205 0.8574930329949881 0.9173896498282829 0.9238671737709212 1.0151334143159467 1:2.0 2:0.0 3:1.0 4:0.925110132 5:1.0 6:2.78443 7:1.46803 
-1.014008080691636 -0.43083143273152524 0.8593312152940754 0.9846306441501061 1.0339623804896374 1.031101642739228 1:1.0 2:1.0 3:1.0 4:1.295154185 5:1.5 6:2.29538 7:2.0 
-1.1842422791771197 -1.1173882916172295 0.8086495685197645 2.982810201087153 3.699518888620453 1.2026203961641557 1:1.0 2:0.0 3:1.0 4:0.524229075 5:0.5 6:3.64984 7:0.758605 
-1.3145369580091462 -0.6263416094709024 1.0696896328097947 1.2079231420943226 1.2160306762155835 1.3343873755711424 1:1.0 2:0.0 3:3.0 4:0.925110132 5:1.166666667 6:2.68035 7:2.0 
-0.25126056249148854 -2.275903621610781 6.675589407971367 0.0 0.0 0.2556566380928723 1:1.0 2:0.0 3:1.0 4:0.801762115 5:1.0 6:2.61494 7:1.27549 
-0.9612901895533384 -0.5091571276458875 1.7745420921491812 0.9263885355593696 5.922419678831318 0.9752751785252589 1:1.0 2:1.0 3:0.0 4:1.04845815 5:1.166666667 6:2.19244 7:2.0 
-0.5677790097020204 -6.900365929448684 0.5961520107849736 0.0 3.4882855356490117 0.7084988251256458 1:1.0 2:0.0 3:0.0 4:0.616740088 5:0.5 6:2.13369 7:0.839735 
-0.5139787863166984 -10.0 5.737863570165432 6.293262769082957 1.9290813881254778 0.5213394844007918 1:1.0 2:0.0 3:1.0 4:0.49339207 5:0.5 6:2.58822 7:0.992835 
-0.26399215058702186 -0.6145134843570409 4.5615322454443294 1.0943414453637132 0.10383747996401226 0.26893309988004166 1:1.0 2:0.0 3:1.0 4:1.017621145 5:1.166666667 6:2.21218 7:1.06222 
-0.7339549325961451 -0.25481448724362715 1.0126345618104493 0.7676016929762943 0.7622323054034338 0.7461043563424606 1:1.0 2:0.0 3:1.0 4:0.709251101 5:1.166666667 6:1.06591 7:1.12692 
-0.9544123709433948 -0.4704891208120834 -0.7579685068203965 0.8031844216351907 0.9145722837299235 0.9692589296431637 1:1.0 2:0.0 3:0.0 4:2.466960352 5:2.5 6:2.65666 7:3.0 
-0.9399578781293498 -3.4906075972163877 -0.7473728692720942 0.8737921183893684 0.8534530005161782 0.9562778186018539 1:3.0 2:0.0 3:0.0 4:1.387665198 5:1.166666667 6:1.84914 7:0.909185 
-0.0 -10.0 -10.0 2.8613169454193836 0.0 0.0 1:1.0 2:0.0 3:0.0 4:0.555066079 5:0.666666667 6:0.977818 7:0.965743 
-0.9199802717213876 -2.6905107688051704 -9.722241093101685 1.1717254195516775 10.0 0.9355366364787039 1:1.0 2:1.0 3:0.0 4:0.524229075 5:0.5 6:1.54979 7:1.17894 
-0.0 -3.0874182032107065 -0.6160624834788747 2.735871351300775 2.935711159329351 0.0 1:1.0 2:0.0 3:0.0 4:1.264317181 5:1.5 6:1.60049 7:1.49823 
-1.1503975385548877 -0.5688059514540873 -1.0219256628047744 1.070309641921278 1.0796018402039125 1.1692858580524454 1:3.0 2:0.0 3:1.0 4:2.066079295 5:2.166666667 6:1.38753 7:1.81233 
-0.22757990311405357 -0.0 -0.0 0.0 10.0 0.23111623378185514 1:1.0 2:0.0 3:0.0 4:1.233480176 5:1.333333333 6:1.22915 7:1.35611 
-0.6213903159812318 -0.3065365563284209 -0.4538792201384991 0.5962432609685758 0.3281643999852641 0.6344921463895196 1:3.0 2:1.0 3:0.0 4:1.942731278 5:2.0 6:1.43416 7:3.0 
-0.30548479443255694 -0.0 -8.53789277605634 1.2146089369505302 9.991507448551047 0.3112442687916479 1:1.0 2:1.0 3:0.0 4:1.233480176 5:1.5 6:1.84878 7:1.50392 
-1.0909500499226241 -0.5383826741405469 -0.866150930551831 1.2157646046881527 0.9954716480674863 1.1089055773805097 1:1.0 2:1.0 3:0.0 4:2.158590308 5:2.5 6:1.57971 7:3.0 
-0.12741832175329382 -0.0 -0.0 0.0 1.2662439491771016 0.1284999625174664 1:1.0 2:0.0 3:0.0 4:1.140969163 5:1.333333333 6:1.01491 7:1.37722 
-1.1521695222392874 -0.5686802508164177 -0.9167052141150694 1.0679067657067565 1.0444309685946174 1.1714940678746548 1:3.0 2:0.0 3:2.0 4:2.035242291 5:2.166666667 6:2.11634 7:3.0 
-0.677926239249425 -0.27675997692956417 -5.656628863890824 0.037338720666632894 0.591515915809986 0.6890084294796331 1:1.0 2:0.0 3:1.0 4:0.955947137 5:1.0 6:1.56981 7:1.3325 
-0.8793880065606889 -0.4338400328486439 -0.7004612978096103 0.8217093909570911 0.7969948725188624 0.8942051179947865 1:3.0 2:0.0 3:1.0 4:2.066079295 5:1.833333333 6:1.46568 7:3.0 
-1.1417939211323411 -0.5633292169359435 -0.9068782185198196 1.0566760101862802 1.0339243596342291 1.1608326088258998 1:1.0 2:1.0 3:2.0 4:1.572687225 5:1.666666667 6:1.75629 7:3.0 
-0.7593503387266407 -1.8019026488339085 -0.9472868311413218 0.6199878294175879 2.782825927778041 0.7720374316848742 1:1.0 2:1.0 3:0.0 4:0.709251101 5:0.833333333 6:0.749807 7:1.11102 
-1.171855737343022 -0.578154332714921 -0.9302325935492426 1.0839293280240325 1.0620982893918844 1.1911155118275736 1:1.0 2:0.0 3:3.0 4:2.251101322 5:2.333333333 6:2.58588 7:3.0 
-0.7214006280880325 -0.0 -10.0 5.69848601210547 9.5136713204608 0.7276669353716152 1:1.0 2:0.0 3:0.0 4:1.202643172 5:1.166666667 6:1.64487 7:0.857864 
-0.18766968037882106 -0.0925575405560194 -0.20515271927903755 0.16004365504949777 0.47365874377814704 0.18743667793436936 1:3.0 2:1.0 3:0.0 4:1.81938326 5:2.0 6:1.3718 7:3.0 
-0.6973093865374832 -0.3433685158284552 -0.5543079462669434 0.6482914031259744 0.6302064926328065 0.7071597836829113 1:3.0 2:0.0 3:1.0 4:1.325991189 5:1.666666667 6:2.07085 7:3.0 
-0.0 -10.0 -10.0 5.639154784198681 0.0 0.0 1:1.0 2:0.0 3:0.0 4:0.832599119 5:1.0 6:1.60387 7:0.965743 
-0.0 -10.0 -10.0 10.0 10.0 0.0 1:1.0 2:0.0 3:0.0 4:0.925110132 5:1.0 6:1.44976 7:1.17181 
-0.626606348127011 -0.30914903887667705 -0.49202473525595264 0.6692973892082275 0.5120424746343517 0.6355066671758921 1:1.0 2:1.0 3:0.0 4:1.480176211 5:1.666666667 6:1.45149 7:3.0 
-0.9871078496995718 -0.2124795023575255 -0.5781856513871284 0.6658182942227542 4.032053598541483 1.0032554196642915 1:1.0 2:0.0 3:0.0 4:1.788546256 5:1.833333333 6:2.70851 7:0.780223 
-0.0 -10.0 -10.0 0.0 8.820734357158058 0.0 1:1.0 2:0.0 3:0.0 4:0.801762115 5:1.0 6:1.61954 7:1.23428 
-0.8466998862214106 -0.4166412868758602 -0.6658646731159862 1.0455930486167107 0.5405260871500457 0.8598986161113236 1:1.0 2:1.0 3:0.0 4:1.81938326 5:1.833333333 6:2.42385 7:3.0 
-0.4165623500542044 -10.0 -10.0 10.0 6.94953783116846 0.42533609268993433 1:1.0 2:0.0 3:0.0 4:0.863436123 5:0.833333333 6:2.60175 7:1.12049 
-1.1646122903510872 -0.5747786045653976 -0.9323765239854712 1.077255971104105 1.0555570390902145 1.1834477381467006 1:3.0 2:1.0 3:1.0 4:1.603524229 5:1.833333333 6:0.674778 7:2.26795 
-0.9373324662149539 -4.597993316918146 -2.181312785813042 2.563524842684938 0.9112131859945863 0.9524889711414243 1:1.0 2:0.0 3:0.0 4:0.832599119 5:0.833333333 6:4.27897 7:1.23428 
-1.1611163617547684 -0.5637129248813948 -0.9101496862042749 1.113514125580871 1.0349846636348223 1.1612238760642166 1:3.0 2:0.0 3:0.0 4:1.973568282 5:2.166666667 6:3.41017 7:3.0 
-0.7691565960380471 -0.24661812360419114 -0.6361025967532007 0.9383204516474796 1.0347539919050524 0.7821074776458975 1:1.0 2:1.0 3:0.0 4:0.925110132 5:0.833333333 6:0.869505 7:1.66667 
-0.8172207441556067 -6.041287857792002 -1.7109058433426845 1.3071945504752989 1.9288560360406821 0.863451971000263 1:1.0 2:0.0 3:0.0 4:0.308370044 5:0.333333333 6:2.32893 7:0.96549 
-1.0237575532966774 -0.4938395668830856 -0.8370819347961375 0.9175593146260913 0.905197875972534 1.0150267566385751 1:3.0 2:0.0 3:0.0 4:1.572687225 5:1.666666667 6:2.53136 7:3.0 
-0.8798503475310528 -0.06863844867061539 -2.827491664901937 0.8527807669473128 0.8110750443625284 0.8947468411351864 1:1.0 2:0.0 3:1.0 4:0.955947137 5:1.166666667 6:0.619674 7:1.30852 
-0.840916676166153 -0.4146799871512731 -0.6613067101893596 0.7774946674057855 0.7303655194229234 0.8552053705042882 1:3.0 2:1.0 3:0.0 4:2.004405286 5:2.333333333 6:0.985468 7:3.0 
-0.0 -10.0 -10.0 0.0 0.0 0.0 1:1.0 2:0.0 3:0.0 4:0.955947137 5:1.166666667 6:1.69155 7:1.23428 
-1.0765587375833758 -1.4529419575922546 -0.8765555585248841 1.2192381678729094 0.9761325997537159 1.0941748169132999 1:3.0 2:0.0 3:0.0 4:1.110132159 5:1.333333333 6:3.0814 7:1.36158 
-0.9616236523598305 -0.5978452924060358 -4.17769577143583 0.7133869425178078 0.7564261260099578 0.9791671773902393 1:1.0 2:0.0 3:0.0 4:1.04845815 5:1.0 6:3.32949 7:1.8873 
-0.7305096073550685 -0.36782654012585225 -0.5804294880227623 0.8967382225468036 0.6729754882018123 0.7477274667542435 1:1.0 2:0.0 3:0.0 4:1.788546256 5:1.833333333 6:1.58423 7:3.0 
-1.1708952010342315 -0.5779805362513968 -0.9298662782421715 1.083364796249296 1.0613093087108947 1.190854478750324 1:4.0 2:0.0 3:2.0 4:3.145374449 5:3.666666667 6:2.66124 7:3.0 
-0.9733420958282617 -0.47192834266391626 -0.7643638623394408 0.9832331539329074 0.8400085664414678 0.9731032211340425 1:1.0 2:0.0 3:0.0 4:1.788546256 5:1.833333333 6:3.08061 7:3.0 
-0.0038363604143755027 -10.0 -0.0 1.5323168406358485 3.060004795913902 0.0 1:1.0 2:0.0 3:0.0 4:0.647577093 5:0.666666667 6:2.60101 7:1.28645 
-1.0713472401582522 -0.5285947536163341 -0.8526851969134712 0.9935463502317752 0.9711605291882014 1.0897377915814175 1:2.0 2:0.0 3:1.0 4:1.911894273 5:2.0 6:1.75199 7:3.0 
-0.10053294347462498 -0.22842790044436434 -0.41305815081852926 0.5518380994282094 0.49246773161668606 0.5367178287244639 1:1.0 2:0.0 3:0.0 4:1.079295154 5:1.0 6:2.56237 7:3.0 
-1.0120870021027606 -0.4311567889200276 -0.803709490637712 0.790129662367273 0.782816053663753 0.886889111474719 1:1.0 2:0.0 3:0.0 4:1.110132159 5:1.166666667 6:3.08051 7:3.0 
-2.5268041735980096 -0.48760305584962377 -0.7705816370654597 0.9473605007374154 1.0279529141448507 1.0727806697607076 1:1.0 2:0.0 3:0.0 4:0.925110132 5:0.833333333 6:1.99126 7:3.0 
-0.3032293752097317 -0.15098458838237225 -0.24211339036598992 0.8936165468447654 0.5476057531166887 0.31197233816420045 1:1.0 2:0.0 3:0.0 4:2.189427313 5:2.166666667 6:2.75678 7:3.0 
-0.8213830028588357 -0.40565279461806486 -0.6654849546072883 0.7600593542071122 0.7779432713412818 0.8411389019612627 1:1.0 2:1.0 3:1.0 4:1.387665198 5:1.333333333 6:1.76102 7:3.0 
-1.1715902588135858 -0.578164010675982 -0.9303455555202556 1.0839801270144906 1.0620664808825726 1.1915893031012925 1:3.0 2:3.0 3:0.0 4:2.528634361 5:2.833333333 6:1.71883 7:3.0 
-1.0953037532419905 -0.5404461545139173 -0.8740926585328123 1.0148504778422294 1.0180176857323577 1.1140139866240655 1:2.0 2:1.0 3:0.0 4:1.449339207 5:1.666666667 6:1.44909 7:3.0 
-0.6214503390336895 -0.0 -2.3459904567542824 10.0 5.619042511206922 0.6299521671396733 1:1.0 2:0.0 3:0.0 4:1.572687225 5:1.5 6:2.84585 7:1.39455 
-0.5879052821904752 -7.824943526633786 -10.0 2.653325578701046 10.0 0.5953672370261497 1:1.0 2:0.0 3:0.0 4:0.678414097 5:0.833333333 6:0.868722 7:0.777778 
-1.0970775827951202 -0.5133500310234879 -0.8262834223870594 1.108156091703471 0.977426302320676 1.1169139027167634 1:3.0 2:0.0 3:0.0 4:1.202643172 5:1.5 6:1.73471 7:3.0 
-1.0810274779064 -0.460270098997038 -1.859575476910319 1.5092743548336927 0.9412252830230644 1.099470623543621 1:1.0 2:0.0 3:1.0 4:1.511013216 5:1.666666667 6:3.08637 7:1.57143 
-0.1719077084699403 -10.0 -0.0 10.0 6.620495247936195 0.15589732649743562 1:1.0 2:0.0 3:0.0 4:0.925110132 5:1.0 6:1.98441 7:1.21692 
-1.164735148388128 -0.575874589490976 -1.0447281775265882 2.148308978370705 1.2180663825449705 1.1843749503923702 1:3.0 2:0.0 3:0.0 4:2.251101322 5:2.5 6:2.29413 7:1.65685 
-0.19229672718923724 -1.275562322733569 -0.0 1.5775693869902727 0.7432052456162166 0.19746232752181436 1:1.0 2:0.0 3:0.0 4:0.863436123 5:0.666666667 6:3.09965 7:1.26366 
-0.7191934549412776 -0.358787541998063 -0.6087876595041118 0.6234089146517984 1.6759677017625563 0.73495802887271 1:1.0 2:1.0 3:0.0 4:1.295154185 5:1.5 6:2.22739 7:3.0 
-0.0 -1.7158691284961975 -5.243316843099857 2.1887860617308315 0.0 0.0 1:1.0 2:0.0 3:1.0 4:0.77092511 5:0.666666667 6:1.89339 7:0.98333 
-1.118299688461214 -5.299784281920803 -10.0 1.278357799611693 1.1552156025870401 1.1369735073837424 1:1.0 2:1.0 3:0.0 4:0.647577093 5:0.666666667 6:3.08129 7:1.01505 
-0.973513851044529 -0.13285980605817654 -0.2999494473867832 1.0617612156933478 1.2840706157720252 0.989406244845456 1:1.0 2:0.0 3:0.0 4:1.202643172 5:1.5 6:0.706502 7:1.87564 
-0.914076518833251 -0.45171989166074733 -0.7332540429120655 0.8466031417452886 0.8994353877689454 0.9576140473119232 1:1.0 2:1.0 3:1.0 4:0.832599119 5:1.0 6:1.85957 7:3.0 
-0.0 -4.954421761071673 -5.580854543892168 0.0 2.2406923168258674 0.0 1:1.0 2:0.0 3:0.0 4:0.339207048 5:0.333333333 6:2.68238 7:1.15979 
-0.3532874548055776 -10.0 -10.0 5.204575345101323 0.0 0.3568059953889411 1:1.0 2:0.0 3:0.0 4:1.017621145 5:1.0 6:3.00625 7:1.1934 
-0.1519470282147298 -3.6788234317033894 -10.0 0.2321659176402836 0.0 0.15692699598673965 1:1.0 2:0.0 3:0.0 4:1.325991189 5:1.5 6:2.86103 7:1.27852 
-0.7978474630818359 -0.5203124788709877 -6.040956165737578 1.2146808183096953 0.7675297140578575 0.8120675943254454 1:1.0 2:0.0 3:1.0 4:1.264317181 5:1.166666667 6:2.12388 7:1.08504 
-0.0 -7.915947123818091 -3.595470787045443 0.0 4.788801469182439 0.0 1:1.0 2:0.0 3:0.0 4:0.585903084 5:0.666666667 6:0.634501 7:1.12049 
-0.0 -10.0 -0.0 0.8175490545484241 10.0 0.0 1:1.0 2:0.0 3:0.0 4:0.647577093 5:0.666666667 6:2.85311 7:1.28645 
-0.0 -6.728322405485301 -0.727173056115493 0.0 0.0 0.0 1:1.0 2:0.0 3:0.0 4:0.863436123 5:1.166666667 6:1.71486 7:1.09056 
-0.5748319260174368 -6.604674402915018 -10.0 1.487596299858035 10.0 0.5840409555205929 1:1.0 2:1.0 3:0.0 4:1.04845815 5:1.0 6:1.89482 7:1.33808 
-0.8249407462033456 -2.012630660376015 -10.0 0.5087011851573154 0.7206392038372944 0.8397334612828834 1:1.0 2:0.0 3:1.0 4:0.49339207 5:0.5 6:1.63373 7:0.992835 
-0.8150114696491295 -1.2064261362721458 -7.564407744616232 0.3909884396339815 0.7449985531853622 0.8281840043801787 1:1.0 2:0.0 3:1.0 4:0.77092511 5:1.166666667 6:2.79609 7:1.27549 
-0.0 -10.0 -10.0 4.127100718968478 10.0 0.08521540432146672 1:1.0 2:0.0 3:0.0 4:0.555066079 5:0.666666667 6:1.49472 7:0.965743 
-0.9667997179554115 -3.0059958272616307 -6.470622211697692 9.520648096762487 5.024906325775607 0.9823774475673901 1:1.0 2:0.0 3:0.0 4:0.585903084 5:0.5 6:4.7915 7:0.96549 
-0.764789853510532 -0.0 -0.7630229090801846 7.547175364402949 7.019972069846612 0.782096800408176 1:1.0 2:0.0 3:0.0 4:1.325991189 5:1.5 6:1.70633 7:1.96234 
-0.32956410003014497 -3.3168607130470456 -4.6097369657676355 3.378147086515778 3.5873458414694586 0.3385867260001212 1:1.0 2:0.0 3:0.0 4:1.04845815 5:1.0 6:0.940237 7:1.32552 
-1.1606005123553473 -0.5722685168616037 -0.9213418430658861 1.0756582626437998 1.0523050038051198 1.1800366841048 1:4.0 2:1.0 3:0.0 4:1.942731278 5:2.333333333 6:2.08243 7:3.0 
-0.778560548801463 -10.0 -10.0 7.78898731121914 1.6683952660707173 0.7912545147638285 1:1.0 2:0.0 3:1.0 4:0.49339207 5:0.666666667 6:2.43497 7:0.992835 
-0.0 -0.0 -5.42141891063589 2.0901897320210083 0.0 0.0 1:1.0 2:0.0 3:0.0 4:1.202643172 5:1.166666667 6:1.34513 7:1.21317 
-0.8056693139684422 -0.29581713394897047 -1.8009544222456273 0.8489308729022236 1.9976759546028784 0.8199555122701966 1:1.0 2:1.0 3:0.0 4:1.110132159 5:1.166666667 6:1.54653 7:2.26541 
-0.8512833097487605 -0.4263724866659569 -0.5771360008055916 0.7857434338077888 1.210837069045577 0.8599925420843495 1:1.0 2:1.0 3:0.0 4:1.017621145 5:1.0 6:1.20183 7:3.0 
-0.8880325652819133 -8.654680033888594 -6.264675151747601 3.556540960571977 7.089880375429312 0.9057870899468442 1:1.0 2:0.0 3:0.0 4:0.431718062 5:0.666666667 6:0.407846 7:1.14883 
-1.0630519628892052 -0.5246018956239983 -0.8434325910665839 0.9837647680333641 0.9635206408049699 1.080908386573088 1:3.0 2:0.0 3:1.0 4:2.189427313 5:2.5 6:0.924273 7:3.0 
-0.10287334918955421 -10.0 -10.0 10.0 10.0 0.12141572411241958 1:1.0 2:0.0 3:0.0 4:1.017621145 5:1.0 6:1.99666 7:1.02077 
-0.8211737379183851 -2.7876855658108495 -10.0 0.7403101804475829 0.922556042620373 0.8357115767086003 1:1.0 2:0.0 3:1.0 4:0.616740088 5:0.666666667 6:0.682801 7:0.992835 
-0.290851246806196 -10.0 -10.0 10.0 7.637096931770145 0.2470647092596851 1:1.0 2:0.0 3:0.0 4:0.49339207 5:0.666666667 6:1.30504 7:1.15979 
-0.7655708544917831 -3.162878800077532 -0.6384292361898399 0.7200697474391904 0.69628109780776 0.778344223925354 1:3.0 2:0.0 3:0.0 4:1.202643172 5:1.166666667 6:2.26072 7:1.35945 
-0.5646148720560614 -10.0 -10.0 0.0 10.0 0.5536687999964099 1:1.0 2:0.0 3:0.0 4:0.49339207 5:0.5 6:1.66433 7:1.15979 
-1.1708178726663294 -0.6651230827220819 -0.9339409632854965 1.2049079999903485 1.0615850143748 1.1910405374058857 1:3.0 2:0.0 3:0.0 4:0.925110132 5:1.333333333 6:0.503514 7:1.73474 
-0.9043592743861392 -8.451676274605415 -5.6900719952362335 2.7139672940941035 7.121922522439572 0.9160074309636959 1:1.0 2:0.0 3:0.0 4:0.339207048 5:0.333333333 6:3.09666 7:1.32105 
-0.5421128281994977 -0.2683069358584781 -0.4302128947236828 0.5203280193215958 0.49319553255431764 0.5519765211000328 1:3.0 2:0.0 3:1.0 4:1.665198238 5:1.5 6:2.11903 7:3.0 
-0.7279894458044813 -0.3568525601237931 -0.578133394847941 0.7829913986182657 0.6758178973544859 0.7377264808343046 1:1.0 2:0.0 3:0.0 4:1.881057269 5:2.333333333 6:1.54874 7:3.0 
-1.060043486002213 -0.5229244161725871 -0.8417211521808508 0.9945197050159981 0.9610795324092407 1.078963405187129 1:1.0 2:0.0 3:1.0 4:1.850220264 5:2.166666667 6:1.68026 7:3.0 
-1.1365434914384829 -0.560851638937045 -0.9061539508341919 1.0756376431365806 1.030870657377573 1.1559407324074569 1:3.0 2:0.0 3:0.0 4:2.281938326 5:2.5 6:1.9434 7:3.0 
-1.1686316689869451 -0.5767141588809619 -0.9278117386764154 1.081534178892334 1.0592161439076695 1.1878354784056298 1:4.0 2:0.0 3:1.0 4:2.713656388 5:3.0 6:1.73731 7:3.0 
-0.6430876376789262 -0.06082761523703455 -0.0 0.1751954465005847 1.5295289744344949 0.6535408569597494 1:1.0 2:1.0 3:0.0 4:1.171806167 5:1.5 6:2.14172 7:1.48296 
-0.40898376363997513 -3.950811693941672 -4.1297541700755325 7.8881551878127185 5.044078950173485 0.4168933298948077 1:1.0 2:0.0 3:0.0 4:1.171806167 5:1.5 6:2.04728 7:1.45715 
-1.132882887861862 -0.5589629535267775 -0.8999889339954361 1.0538682906393881 1.0307225926019437 1.1521273421593086 1:1.0 2:2.0 3:0.0 4:1.881057269 5:2.166666667 6:2.35101 7:3.0 
-0.236923717593016 -0.12882885376929998 -0.10324642583328715 0.18355412568765045 1.0652521282040786 0.2463643574725341 1:1.0 2:1.0 3:0.0 4:1.04845815 5:1.5 6:1.36581 7:3.0 
-1.018470550802706 -0.13397599611714753 -0.8465706653198498 8.647799459838414 5.259624032988443 1.0348280599918793 1:1.0 2:0.0 3:0.0 4:1.911894273 5:2.0 6:1.88648 7:1.53786 
-0.0 -10.0 -10.0 -10.0 10.0 0.0 1:1.0 2:0.0 3:0.0 4:0.925110132 5:0.833333333 6:1.4879 7:1.07357 
-0.9664416252943169 -0.4900168062195052 -0.7018636716629464 -0.8117703117544514 0.8331860450192634 0.986342314241994 1:2.0 2:1.0 3:0.0 4:2.374449339 5:2.5 6:2.13789 7:4.0 
-0.3610373609043228 -0.1830378231411577 -0.26181668903775746 -0.3436853231302094 0.32840530263554907 0.368787927847184 1:1.0 2:1.0 3:0.0 4:1.973568282 5:2.166666667 6:1.81709 7:4.0 
-1.044480124419071 -0.5295240441012188 -0.7584960465353526 -0.878240964486111 0.9436325408630543 1.0661144112073409 1:1.0 2:1.0 3:0.0 4:2.86784141 5:3.333333333 6:1.41408 7:4.0 
-0.8888414701500792 -10.0 -10.0 -1.5046893072018852 8.682299965896867 0.9079731703823851 1:1.0 2:0.0 3:0.0 4:0.308370044 5:0.5 6:0.0 7:0.96619 
-0.9899170949920468 -0.49390420226445575 -0.7072977393005185 -0.8423997749677996 1.2968305109254463 1.0094315650236283 1:1.0 2:0.0 3:0.0 4:2.066079295 5:1.666666667 6:2.30117 7:4.0 
-1.0890384820900632 -0.9646402995591059 -0.7914938625582209 -1.0463133063138008 0.9394915425425977 1.1119310746240025 1:3.0 2:0.0 3:0.0 4:0.585903084 5:0.833333333 6:0.634501 7:1.13483 
-0.657032652974071 -2.627998928250252 -7.739691442795251 -1.9162722556389087 6.595538693607606 0.6657789901098885 1:1.0 2:0.0 3:0.0 4:0.801762115 5:0.833333333 6:1.53063 7:1.68137 
-0.925036553166751 -0.49507984116753534 -0.7269297071786964 -1.128894208218433 0.7994228300799475 0.9437063080841082 1:1.0 2:0.0 3:0.0 4:1.81938326 5:2.333333333 6:3.05767 7:2.42775 
-0.6496841283581775 -0.41578199876436495 -0.39943062168500737 -0.5070983942065359 0.6973785699039637 0.6618650697620267 1:1.0 2:1.0 3:0.0 4:1.295154185 5:1.5 6:3.07852 7:1.5 
-1.1393099000595037 -0.552050506419813 -0.7896713620819094 -0.9656754824410481 0.9388817692815886 1.1103734214409686 1:3.0 2:0.0 3:0.0 4:2.035242291 5:2.0 6:3.34721 7:4.0 
-0.6791848046851309 -0.1502348960328064 -0.7368177161855091 -0.0 0.1615487438675226 0.6940216678054298 1:1.0 2:0.0 3:0.0 4:1.634361233 5:1.666666667 6:3.47959 7:1.6907 
-0.6731858948994272 -0.0 -2.787418258942497 -0.0 1.5494495772640344 0.6876001994750743 1:1.0 2:0.0 3:0.0 4:1.603524229 5:1.833333333 6:1.34867 7:1.29618 
-0.4256428957083733 -0.21307260971651243 -0.3077692310166538 -0.35358658623004063 0.36610535042849845 0.43683333690088216 1:3.0 2:1.0 3:1.0 4:1.881057269 5:2.0 6:1.7237 7:4.0 
-1.068189641289652 -0.5419447258722389 -0.775723286965516 -0.8976425045697984 0.9225768358707211 1.0902208014540278 1:3.0 2:1.0 3:1.0 4:2.744493392 5:3.166666667 6:1.38998 7:4.0 
-0.7529183133579074 -0.38236298767565247 -0.5471278095374715 -0.6621600687617104 0.7065820252395136 0.7689085843346659 1:3.0 2:0.0 3:0.0 4:2.682819383 5:2.5 6:1.70499 7:4.0 
-1.5498380477985385 -0.48041306505467063 -0.6872482618367186 -0.8143706679153757 1.1195904207622958 1.1426093101296824 1:1.0 2:0.0 3:0.0 4:1.295154185 5:1.333333333 6:1.5144 7:4.0 
-0.6658607037472034 -0.33922718486849934 -0.4851588259915774 -0.5852883311395671 0.6155469219281279 0.6817781055601982 1:1.0 2:1.0 3:0.0 4:1.696035242 5:2.0 6:1.34919 7:4.0 
-0.2968153901936778 -10.0 -0.0 -0.0 0.0 0.2926142882585567 1:1.0 2:0.0 3:0.0 4:0.678414097 5:0.666666667 6:1.21706 7:1.38227 
-0.9849487951834556 -10.0 -4.782905165907574 -1.9471642819597632 4.225978489731178 1.006122491613208 1:1.0 2:1.0 3:0.0 4:0.740088106 5:0.833333333 6:2.1272 7:1.07248 
-0.8974232021506269 -8.668563356275188 -5.9401630276519795 -1.3220748544460361 10.0 0.9162387551455736 1:1.0 2:0.0 3:1.0 4:0.49339207 5:0.5 6:3.1501 7:0.993405 
-0.684025249047235 -0.34689841093864504 -0.4966420925728885 -0.5721589019298134 0.5897744489688851 0.6979660569698973 1:3.0 2:0.0 3:0.0 4:2.837004405 5:3.0 6:1.84649 7:4.0 
-1.1410721760264746 -0.544284386802178 -0.7791444764738078 -0.9036285785087815 0.9281453279305105 1.2105576248532508 1:1.0 2:0.0 3:1.0 4:1.079295154 5:1.0 6:3.06947 7:4.0 
-0.049540478797611226 -10.0 -7.578303550167899 -5.571268795876312 4.443769851795811 0.06361975773838574 1:1.0 2:0.0 3:0.0 4:0.616740088 5:0.666666667 6:1.26874 7:1.25716 
-1.0384294845884008 -0.52579502345183 -0.7592427789414349 -1.2585489247419634 0.9674123401154706 1.0601498305000374 1:1.0 2:1.0 3:0.0 4:2.127753304 5:2.0 6:1.96779 7:2.5 
-1.0750297051727058 -0.5521887760339729 -0.8066686759848115 -0.9087821551666404 0.9305591977681542 1.0969214058091796 1:2.0 2:0.0 3:0.0 4:1.634361233 5:1.333333333 6:3.9707 7:1.19333 
-1.0872277216028337 -0.5735670844231147 -0.8223089414759317 -0.9513196142292454 1.0927537505789673 1.1094897610389418 1:3.0 2:0.0 3:1.0 4:1.264317181 5:1.5 6:2.06912 7:1.66248 
-0.7570868500519632 -4.446460067830374 -3.5931629709530033 -5.35572441198725 4.429697218105033 0.772383803215265 1:1.0 2:0.0 3:0.0 4:0.246696035 5:0.5 6:0.669626 7:0.96619 
-0.8298629575791219 -10.0 -1.3819919584293132 -1.2932808157836841 1.1758930017038558 0.8457192729936972 1:1.0 2:0.0 3:0.0 4:0.462555066 5:0.333333333 6:3.21005 7:1.0462 
-0.6961728434298716 -0.31369676688534986 -0.5762397679055754 -0.9728271799138366 1.1535281316568171 0.7110403873421925 1:1.0 2:1.0 3:0.0 4:1.264317181 5:1.5 6:1.00247 7:1.87363 
-0.0 -8.239848316621286 -5.93255974630532 -9.228622739234394 7.507233220810051 0.0 1:1.0 2:0.0 3:0.0 4:1.110132159 5:1.166666667 6:2.06281 7:1.15046 
-0.10215639537698401 -0.0 -0.3019637522197606 -0.0 9.010052978494077 0.10447523374225984 1:1.0 2:0.0 3:0.0 4:1.572687225 5:1.5 6:1.97492 7:1.25299 
-0.8422051930608686 -0.4279210822925532 -0.6123158734922638 -0.7087419887388342 0.7272489315610473 0.8602205203409763 1:2.0 2:1.0 3:1.0 4:2.466960352 5:2.5 6:1.43466 7:4.0 
-0.7607668060636391 -0.951948509197953 -2.0919736793035653 -1.4559970890315834 3.6579705513807914 0.7767993983716115 1:1.0 2:1.0 3:0.0 4:1.511013216 5:1.5 6:1.47503 7:1.38046 
-0.8503479886919219 -0.43172308240307267 -0.618075703642675 -0.7314784697599327 0.7949868960105692 0.868478250989677 1:1.0 2:1.0 3:0.0 4:2.621145374 5:2.5 6:1.90037 7:4.0 
-0.7980934589546849 -0.4052852321038993 -0.5682714642854755 -0.45495109021386165 0.6879257581392834 0.8145585798296955 1:3.0 2:0.0 3:0.0 4:2.035242291 5:2.0 6:3.10641 7:1.0 
-0.8959478904823283 -0.4499757760273757 -0.6454535356457823 -1.191187227324021 0.7027359776901757 0.9149139260808773 1:1.0 2:0.0 3:0.0 4:2.066079295 5:2.0 6:2.20305 7:2.74517 
-1.0867912844000545 -0.551784658476336 -0.7967995661293897 -0.9162881351927632 1.0662291203596856 1.110604999824809 1:1.0 2:1.0 3:0.0 4:1.850220264 5:1.666666667 6:4.04544 7:2.55587 
-0.9756035187016604 -0.4950389769695628 -0.7086294639576141 -0.8257146153443494 0.845580491719009 0.9966794955109503 1:3.0 2:0.0 3:0.0 4:1.81938326 5:2.0 6:1.21131 7:4.0 
-1.0886679324662667 -0.6240141006279007 -0.8308449844741812 -1.0443059451244725 0.9454895216338288 1.2292877303660885 1:3.0 2:0.0 3:0.0 4:0.986784141 5:1.0 6:1.57007 7:2.33333 
-1.0896723917942892 -0.5529907927980534 -0.7915446107822053 -0.9159983081700869 0.9399447373334722 1.1128109354133429 1:1.0 2:0.0 3:0.0 4:5.057268722 5:4.0 6:3.50972 7:4.0 
-1.0054797621255154 -0.5103821699337772 -0.7300557066315705 -0.8448028245231314 0.8710379512594748 1.026361270106818 1:3.0 2:1.0 3:0.0 4:3.022026432 5:2.833333333 6:2.21146 7:4.0 
-0.5155538743589845 -0.0 -6.095681601526285 -0.32116646969060514 10.0 0.5230373066353063 1:1.0 2:0.0 3:0.0 4:1.264317181 5:1.5 6:2.34265 7:1.04379 
-0.0 -10.0 -10.0 -10.0 10.0 0.0 1:1.0 2:0.0 3:0.0 4:0.678414097 5:0.833333333 6:1.38847 7:1.12178 
-0.3317340040603119 -0.012961997438478388 -0.0 -7.218260363730095 2.958591951742047 0.33873785197780654 1:1.0 2:0.0 3:0.0 4:1.665198238 5:2.0 6:1.77196 7:1.47719 
-0.547802067813435 -0.6643611649406248 -0.7564939061680146 -10.0 7.924005895872317 0.5625627814173032 1:1.0 2:0.0 3:0.0 4:1.325991189 5:1.5 6:1.92893 7:1.89645 
-1.0899024516394886 -0.5530223319116636 -0.7915466167109192 -0.915783008632735 0.9400225816354775 1.112489222827636 1:3.0 2:1.0 3:3.0 4:3.237885463 5:3.5 6:1.84336 7:4.0 
-1.0515676879300928 -0.533875238385038 -0.763756857584825 -0.884088272879568 0.9092487807409346 1.0739365531494853 1:1.0 2:0.0 3:1.0 4:3.330396476 5:2.833333333 6:3.44672 7:4.0 
-0.0 -2.05812069442047 -0.0 -0.26776802081178186 0.0 0.0 1:1.0 2:0.0 3:0.0 4:0.801762115 5:0.833333333 6:1.12024 7:1.44444 
-1.0143839276948856 -0.5153152406941938 -0.7371398105137679 -0.8604794818052647 0.9289754943522437 1.035954824604028 1:3.0 2:1.0 3:0.0 4:2.127753304 5:2.166666667 6:2.24237 7:4.0 
-0.2735131678327865 -0.7832245126584013 -10.0 -10.0 7.143865137337001 0.27578176722312947 1:1.0 2:0.0 3:0.0 4:1.295154185 5:1.333333333 6:1.65535 7:1.15335 
-0.6191830111522503 -10.0 -10.0 -6.814179333936948 6.485677982281173 0.6337919415351876 1:1.0 2:0.0 3:0.0 4:0.801762115 5:1.0 6:1.19708 7:0.96619 
-0.798902773337863 -0.4055804058404117 -0.5809206017902304 -0.6717045147717731 0.6893587175923744 0.8165729235750584 1:2.0 2:1.0 3:1.0 4:2.405286344 5:2.833333333 6:2.00259 7:4.0 
-0.6648178562817068 -0.3403840417281877 -0.4847501311515306 -0.5668089886281664 0.575099644092031 0.6762343720558036 1:3.0 2:1.0 3:1.0 4:1.788546256 5:2.0 6:1.58079 7:4.0 
-0.33582370900561315 -0.14382381974543398 -0.28382270158062173 -0.2926504159650375 0.0 0.342016264241975 1:1.0 2:1.0 3:0.0 4:1.387665198 5:1.333333333 6:0.948567 7:1.55669 
-0.30935265387426863 -0.081344006883271 -4.186649919540273 -1.7145895502814097 4.392283079221243 0.32342851422714647 1:1.0 2:0.0 3:0.0 4:1.264317181 5:1.166666667 6:2.56801 7:1.58874 
-0.2739191967868269 -10.0 -10.0 -10.0 8.656903901635074 0.2974135238901663 1:1.0 2:0.0 3:0.0 4:0.925110132 5:1.0 6:2.05129 7:0.96619 
-0.6167454454209346 -0.3130157529030254 -0.44832607679761494 -0.5221396895529995 0.545953188562365 0.6284882030081567 1:1.0 2:1.0 3:0.0 4:2.035242291 5:1.666666667 6:1.65819 7:4.0 
-0.992591926745525 -0.5039336050407076 -0.7210063104879998 -0.834417739508568 0.8565076377909401 1.0135794923325503 1:3.0 2:0.0 3:0.0 4:4.193832599 5:3.833333333 6:3.00502 7:4.0 
-1.0898252992070732 -0.5530017656300328 -0.7911627620912657 -0.9158065811608335 0.9399917277274732 1.1125012825457006 1:4.0 2:0.0 3:0.0 4:6.167400881 5:6.166666667 6:2.58631 7:4.0 
-0.9528795247402482 -0.3931774720542191 -0.5625517640592863 -0.6450473927548056 0.6922960547802592 1.2841056671084512 1:3.0 2:0.0 3:0.0 4:1.140969163 5:1.333333333 6:1.51704 7:4.0 
-1.088851043559912 -4.637916264527659 -5.180889442453019 -10.0 2.5474360992819682 1.111457196879629 1:1.0 2:0.0 3:0.0 4:0.585903084 5:0.666666667 6:4.70501 7:0.96619 
-0.5240757577638737 -0.0 -0.0 -2.1198188098939865 4.069460183352214 0.5354713460522186 1:1.0 2:0.0 3:0.0 4:1.757709251 5:1.833333333 6:2.89115 7:1.45157 
-0.3546536418536659 -10.0 -10.0 -9.04248784722626 4.990359954760224 0.35633284486819966 1:1.0 2:0.0 3:0.0 4:1.017621145 5:1.0 6:2.70843 7:1.14858 
-0.9293484620471424 -9.333250293066868 -10.0 -8.646950555058018 2.2704833979858057 0.9502795728892517 1:1.0 2:0.0 3:1.0 4:0.616740088 5:0.5 6:2.33043 7:0.993405 
-1.0313854859759652 -1.4001762738421546 -6.735026641617379 -0.9906243681240672 0.9264138937370454 1.0530429877168535 1:1.0 2:1.0 3:1.0 4:0.986784141 5:0.833333333 6:1.98888 7:1.15918 
-0.332470413003289 -10.0 -7.084671011337248 -7.5801967942588195 8.867642479868683 0.3357839359707063 1:1.0 2:0.0 3:0.0 4:0.801762115 5:0.833333333 6:2.19175 7:1.14858 
-0.0 -4.205313924124811 -10.0 -0.0 2.32798104078101 0.0 1:1.0 2:0.0 3:0.0 4:1.017621145 5:0.833333333 6:2.539 7:1.14858 
-0.9664090565401474 -0.47104175466124615 -0.8893377395242213 -0.443741633184548 1.710733978991868 0.9515717723778605 1:1.0 2:0.0 3:0.0 4:1.171806167 5:1.0 6:2.35073 7:2.33333 
-0.9874682423402401 -0.8616657357487568 -1.2189053641338403 -2.498302392379135 1.7868759702088657 1.0085934650845023 1:1.0 2:0.0 3:0.0 4:1.295154185 5:1.333333333 6:0.512781 7:1.32602 
-0.8460342000367163 -0.4617643037674624 -0.6611917766981276 -0.7823985477323154 0.7664735477059753 0.9105086763965088 1:1.0 2:0.0 3:0.0 4:1.696035242 5:1.833333333 6:0.959027 7:4.0 
-0.8142908636952642 -0.4122586832470903 -0.5405697400790718 -0.844245962220008 0.9649056118421948 0.8312302853071759 1:3.0 2:0.0 3:0.0 4:2.59030837 5:2.5 6:2.43954 7:1.15959 
-0.0 -2.562803087253306 -0.0 -0.6764202583006831 0.0 0.0 1:1.0 2:0.0 3:0.0 4:1.387665198 5:1.333333333 6:1.62864 7:1.29618 
-0.09741615871158235 -1.3574522928152795 -5.532979331248417 -8.368054706142766 0.0 0.09782666855577796 1:1.0 2:0.0 3:0.0 4:1.603524229 5:1.5 6:3.00747 7:1.49343 
-0.3772799136644331 -10.0 -3.655390986957504 -7.436450673705469 10.0 0.3891190551892539 1:1.0 2:0.0 3:0.0 4:0.678414097 5:0.666666667 6:2.94527 7:1.0462 
-1.0428644696727578 -0.5283257154645337 -1.845967016067672 -1.551193384637534 1.036684800544446 1.0654525866087794 1:1.0 2:0.0 3:1.0 4:1.696035242 5:1.5 6:2.53602 7:1.08597 
-1.0164800816509596 -0.5120642745700337 -0.7335602331567019 -0.9058805283108121 1.1699509137821862 1.029938747192498 1:1.0 2:0.0 3:0.0 4:2.066079295 5:2.5 6:2.87776 7:4.0 
-0.780823030781656 -0.40949149987624767 -0.5781025694533081 -3.4116073062703074 1.8342503179672647 0.7966556155651627 1:1.0 2:0.0 3:0.0 4:2.127753304 5:2.0 6:2.00532 7:1.92704 
-0.6083748833545181 -0.5824300579797433 -0.8394177124070739 -0.6871977381820572 1.7540386800584318 0.6225361857080578 1:1.0 2:1.0 3:0.0 4:1.356828194 5:1.333333333 6:2.80622 7:1.6961 
-1.008412928780109 -0.512272025367177 -0.7327226923417508 -0.8477955091451423 0.8727568025318244 1.0301196287331642 1:2.0 2:0.0 3:1.0 4:2.651982379 5:2.5 6:2.88522 7:4.0 
-0.9397267208918093 -0.4909813914211214 -0.744228104765006 -1.0557501788765473 0.8114102167651439 0.9596150578102637 1:3.0 2:0.0 3:0.0 4:1.480176211 5:1.833333333 6:3.43725 7:1.5 
-1.3074796993709537 -0.5228476466592712 -0.748123664205462 -0.8705216695611121 0.8929262347532876 1.0587423016230417 1:1.0 2:0.0 3:1.0 4:1.726872247 5:1.833333333 6:2.5714 7:4.0 
-0.9532098833178033 -0.4839782478760224 -0.6925344447137363 -0.8009999481977024 0.8219831426900726 0.9739509680146379 1:3.0 2:0.0 3:0.0 4:3.577092511 5:3.5 6:3.54598 7:4.0 
-1.0886666289988867 -0.5527375907780205 -0.7908907611363737 -0.9150812652944464 0.939598870571021 1.1117260945161056 1:2.0 2:2.0 3:0.0 4:2.220264317 5:2.5 6:3.72436 7:4.0 
-1.00296183336074 -0.5090979987419884 -0.7286867425148426 -0.8430987600932566 0.8692106018745818 1.0241742241494316 1:2.0 2:0.0 3:1.0 4:2.960352423 5:3.166666667 6:2.25123 7:4.0 
-0.47834459151497194 -0.2453894997489957 -0.4720504923519758 -1.4948086235294438 0.3732473419109782 0.4887524394442947 1:3.0 2:0.0 3:0.0 4:2.189427313 5:2.333333333 6:2.58231 7:1.33954 
-1.0247644211864 -0.519997386423234 -0.7442426980424757 -0.8620187906276372 0.9025839142162727 1.0462032785685593 1:1.0 2:1.0 3:0.0 4:2.497797357 5:2.833333333 6:2.87864 7:4.0 
-0.9983403276123873 -0.506181071081063 -0.7384180611744517 -0.8397985153317179 0.862034534883874 1.0196210453384587 1:3.0 2:0.0 3:0.0 4:2.31277533 5:2.333333333 6:3.45179 7:1.88486 
-1.0892640487793523 -0.5533794873359192 -0.7916034673888115 -0.9157819717812118 0.9399517543544389 1.112711960730634 1:4.0 2:2.0 3:1.0 4:3.515418502 5:3.5 6:2.62017 7:4.0 
-1.0831287315363598 -0.5491604519899039 -0.7859366077731241 -0.9096755556357148 0.9338393801257979 1.1048002059229471 1:2.0 2:1.0 3:1.0 4:2.158590308 5:2.0 6:3.37145 7:4.0 
-1.0676172969904103 -0.5376497983862164 -0.7694511729800129 -0.9224994784338443 0.9167802746351804 1.081801943558488 1:3.0 2:0.0 3:1.0 4:1.850220264 5:2.0 6:2.19153 7:4.0 
-1.0539344807455655 -0.5350172311449508 -0.7663996878265205 -0.8864754274287069 0.9124458641755556 1.076831380304593 1:1.0 2:0.0 3:0.0 4:3.546255507 5:3.0 6:3.16755 7:4.0 
-0.411382566759825 -0.08289812471133555 -0.0 -0.0 0.0 0.4203662662943005 1:1.0 2:0.0 3:0.0 4:2.004405286 5:1.833333333 6:3.15909 7:1.92044 
-0.9730031358974577 -0.4940890735428679 -0.70665310421112 -0.8180593082730346 0.8603609916688785 0.9930944395145448 1:3.0 2:0.0 3:0.0 4:3.237885463 5:3.0 6:2.71834 7:4.0 
-1.0896506167913524 -0.5534191127459458 -0.7912352150244536 -0.9157724108122972 0.9411456198077426 1.1125576440382463 1:3.0 2:1.0 3:2.0 4:4.68722467 5:4.166666667 6:1.97061 7:4.0 
-1.0037669325639562 -0.5105731585310704 -0.7316435916249949 -0.8475701673502107 0.8676237811695279 1.0271266533965084 1:2.0 2:0.0 3:0.0 4:1.449339207 5:1.833333333 6:0.990666 7:4.0 
-0.0 -0.0 -0.0 -0.0 6.622683427869344 0.0 1:1.0 2:0.0 3:0.0 4:0.986784141 5:1.166666667 6:2.25725 7:1.04379 
-0.17420020618706789 -0.14240519333337362 -0.20390679107407697 -0.2904468795694132 0.22579436523328275 0.0 1:3.0 2:0.0 3:0.0 4:1.140969163 5:1.5 6:1.53526 7:4.0 
-1.0532445678675606 -0.5359424023282514 -0.7668748545451717 -0.8907542238290208 0.9604851261439029 1.076945290450963 1:1.0 2:0.0 3:1.0 4:2.559471366 5:2.666666667 6:2.04472 7:4.0 
-1.0531818614402844 -0.5109777903622572 -1.031040059908117 -1.1155626870920328 1.0331300439933648 1.0756958880275649 1:1.0 2:0.0 3:1.0 4:1.233480176 5:1.166666667 6:3.65446 7:1.27549 
-0.0 -5.751866553958806 -10.0 -0.8521384339950444 -10.0 0.0 1:1.0 2:0.0 3:0.0 4:1.04845815 5:1.166666667 6:2.42408 7:1.0 
-0.23684532204415285 -0.3340887468619501 -0.5882937034036888 -2.2431956330937726 -8.728210040709133 0.2416780975123678 1:1.0 2:0.0 3:0.0 4:1.788546256 5:1.666666667 6:1.95619 7:1.34669 
-0.007126771259952029 -0.0 -10.0 -10.0 -0.6301887727161016 0.006430384136872596 1:1.0 2:1.0 3:0.0 4:1.140969163 5:1.333333333 6:1.82212 7:1.48262 
-0.7330597476694962 -0.0 -1.5052033958549411 -0.029490216286515606 -0.0 0.7471138394590878 1:1.0 2:0.0 3:0.0 4:0.616740088 5:1.0 6:0.0559356 7:0.92608 
-0.9391666973053843 -0.40860675345521397 -0.6792702045230072 -2.944971625007055 -0.4659434775163306 0.9566987611385176 1:1.0 2:0.0 3:0.0 4:2.035242291 5:2.166666667 6:2.15151 7:1.29567 
-0.858769735512231 -0.4373783538031879 -0.5752211621537583 -0.6884707521330152 -0.8199566624391604 0.8795687350099191 1:1.0 2:1.0 3:0.0 4:1.634361233 5:2.0 6:1.43615 7:5.0 
-0.31022803587613823 -10.0 -7.264450310156936 -10.0 -10.0 0.3178484245591763 1:1.0 2:0.0 3:0.0 4:0.77092511 5:1.0 6:2.1889 7:1.32552 
-1.1050141491086547 -0.557937068348537 -0.734159026603003 -0.8786965709678766 -1.0101284887450588 1.1263754148434844 1:3.0 2:0.0 3:0.0 4:2.806167401 5:2.666666667 6:2.92277 7:5.0 
-0.8685099246102771 -0.678479014482418 -5.22274515685482 -5.602167977822926 -0.299888586218872 0.8849806266030023 1:1.0 2:1.0 3:0.0 4:0.215859031 5:0.333333333 6:1.48944 7:1.19897 
-1.1488764619274006 -0.8040896677611324 -1.4015679655597084 -1.1277841279121523 -1.068935503145349 1.1701200103603637 1:1.0 2:0.0 3:1.0 4:0.462555066 5:0.5 6:0.0 7:1.4027 
-0.7137318411124873 -0.3615421637554503 -0.4753126376048422 -0.5689701808602948 -0.6814728644371061 0.7270504755483396 1:3.0 2:0.0 3:0.0 4:2.837004405 5:2.5 6:1.87826 7:5.0 
-0.6629289485192529 -9.756941750275349 -10.0 -9.822331003653224 -5.215873588039012 0.6756723936027561 1:1.0 2:0.0 3:0.0 4:0.77092511 5:1.0 6:0.82475 7:0.92608 
-0.4530036276242093 -0.22859380566751875 -0.3003076032200644 -0.3598474904979921 -0.40666652634075423 0.4600396074496412 1:1.0 2:0.0 3:0.0 4:3.268722467 5:3.333333333 6:2.05703 7:5.0 
-0.7685150727499664 -0.3498520879745072 -0.4597255688008336 -0.5502120182857289 -0.6230214527624042 0.7087759385825857 1:1.0 2:1.0 3:0.0 4:1.079295154 5:1.333333333 6:1.5081 7:5.0 
-0.746645629815177 -0.3735791545351043 -0.33852400402315475 -5.7504637311067865 -4.648130427869282 0.759821849353814 1:1.0 2:0.0 3:0.0 4:1.634361233 5:1.666666667 6:1.55598 7:1.84615 
-0.0 -10.0 -10.0 -10.0 -6.009418504420357 0.0 1:1.0 2:0.0 3:0.0 4:0.740088106 5:0.666666667 6:1.58447 7:1.01037 
-0.7325440702907273 -10.0 -9.75421917918117 -10.0 -0.17162144224576967 0.7462704781216964 1:1.0 2:0.0 3:0.0 4:0.370044053 5:0.5 6:2.93558 7:1.25682 
-0.6378312574147419 -0.32166707398959554 -0.42382895911404656 -0.5065584794638229 -0.598376430097344 0.6419827935458053 1:1.0 2:0.0 3:0.0 4:1.850220264 5:1.666666667 6:1.63131 7:5.0 
-0.5087766499021396 -5.227100607745358 -3.9185051557783015 -5.991504860115797 -3.410311535601554 0.5175261469372494 1:1.0 2:1.0 3:0.0 4:0.647577093 5:0.666666667 6:1.89401 7:1.17894 
-0.5878654406949765 -0.29786349459371714 -0.39098810749799995 -0.46819829206417135 -0.5307194149234187 0.5991893024937651 1:3.0 2:0.0 3:1.0 4:2.466960352 5:2.666666667 6:1.75919 7:5.0 
-1.1436731357854473 -0.5789470886434482 -0.7613724324696265 -0.9114035795378136 -1.029442368962542 1.1648404677582453 1:3.0 2:2.0 3:0.0 4:2.374449339 5:2.5 6:1.34989 7:5.0 
-2.555782288359035 -0.5913795591417262 -0.7788261897804878 -1.0645620511289036 -1.3388083919974558 2.620128253786993 1:1.0 2:0.0 3:0.0 4:1.079295154 5:1.333333333 6:2.15738 7:3.75865 
-0.3665541510664645 -10.0 -0.0 -1.0726655835978478 -5.076760183951218 0.374599906064244 1:1.0 2:0.0 3:0.0 4:0.647577093 5:0.833333333 6:3.14091 7:1.07795 
-0.19100460488499071 -10.0 -10.0 -0.9979196589227695 -0.0 0.3299351181851632 1:1.0 2:0.0 3:0.0 4:0.647577093 5:0.666666667 6:1.79492 7:0.829641 
-0.9346137234012806 -3.0231686718458066 -4.159699580784933 -0.6831775719543716 -8.6776844083156 0.9521234274715354 1:1.0 2:0.0 3:1.0 4:0.49339207 5:0.5 6:3.38139 7:0.992835 
-0.25005719326526127 -0.0 -0.44802000169637046 -10.0 -0.0 0.25986314307271713 1:1.0 2:0.0 3:0.0 4:1.233480176 5:1.333333333 6:1.23986 7:1.51064 
-0.6992008129831933 -5.87246525104629 -5.059020221642414 -2.3088963341364175 -9.250360063182903 0.7123046724623532 1:1.0 2:0.0 3:0.0 4:0.400881057 5:0.5 6:0.221146 7:0.966991 
-0.28201375278123436 -10.0 -5.591831314924283 -0.7981067380724535 -0.0 0.35790434571463664 1:1.0 2:0.0 3:0.0 4:0.462555066 5:0.333333333 6:1.73276 7:1.04575 
-0.9073016099453872 -0.4583439170042604 -0.6027121846829803 -0.7220332358094564 -0.8391197974598992 0.940707710452115 1:3.0 2:1.0 3:0.0 4:2.004405286 5:2.0 6:2.2377 7:5.0 
-0.046855890689144544 -0.9046462092932903 -6.650901857249486 -0.0 -1.1804143852345066 0.04682313049109728 1:1.0 2:0.0 3:0.0 4:0.49339207 5:0.666666667 6:0.0559356 7:0.802723 
-0.6378172543893836 -0.40279824586624574 -3.4394698098573446 -0.4369967477584395 -7.793842066215124 0.650062225305723 1:1.0 2:0.0 3:0.0 4:1.202643172 5:1.333333333 6:2.20272 7:1.77899 
-0.0 -0.0 -3.343640226000708 -0.2694190093289854 -0.0 0.0 1:1.0 2:0.0 3:0.0 4:0.524229075 5:0.666666667 6:0.221146 7:0.977184 
-1.1030779502992156 -0.8676763331885592 -0.7538348101833106 -1.8315641521039463 -0.9837538310887921 1.1235116941104255 1:1.0 2:1.0 3:0.0 4:0.49339207 5:0.666666667 6:0.20126 7:1.17894 
-1.00213110095231 -4.463831347818605 -1.333771371400719 -1.6468839839215634 -0.5886754982790123 1.0206035402358873 1:1.0 2:0.0 3:0.0 4:0.585903084 5:0.666666667 6:3.74279 7:1.47214 
-0.74905509367093 -0.37761994013288436 -0.49597277282704044 -0.5944823659998376 -0.6934972313564636 0.775265243692743 1:1.0 2:0.0 3:0.0 4:1.449339207 5:1.833333333 6:1.62713 7:5.0 
-0.0 -0.3060949499611995 -0.0 -2.485967490455096 -0.0 0.0 1:1.0 2:0.0 3:0.0 4:1.81938326 5:1.666666667 6:2.83706 7:1.16228 
-0.0 -1.0270476782487454 -0.0 -5.931685850031405 -1.4505155897067048 0.0 1:1.0 2:0.0 3:0.0 4:1.110132159 5:1.333333333 6:1.98666 7:1.84615 
-0.8773402271832949 -0.11423164594513101 -1.1832446469327877 -0.0 -2.2921222645394446 0.8851645149501675 1:1.0 2:0.0 3:0.0 4:0.925110132 5:1.166666667 6:1.43383 7:2.0 
-0.27204062022408426 -2.2242954163995456 -10.0 -10.0 -10.0 0.2796098024308893 1:1.0 2:0.0 3:0.0 4:1.171806167 5:1.333333333 6:1.92264 7:0.965743 
-1.1790312128783917 -0.5954914255294542 -0.8476090255273224 -1.0458536953386295 -1.070170582647251 1.2033354466567576 1:3.0 2:1.0 3:0.0 4:1.140969163 5:1.333333333 6:1.423 7:3.0 
-1.0494688933520797 -0.5306751968607223 -0.6984271847436487 -0.8358551802189589 -0.9477302782310556 1.0684730844048733 1:2.0 2:0.0 3:0.0 4:3.083700441 5:3.166666667 6:2.23748 7:5.0 
-0.7198736104630765 -0.3808923274978797 -0.5020993945465873 -0.6013547915106116 -0.6793764996238686 0.7661763971961345 1:1.0 2:1.0 3:0.0 4:1.140969163 5:1.333333333 6:1.03476 7:5.0 
-0.652679094179749 -3.195694667120624 -4.690609789889814 -4.90479434592532 -0.24994119054435443 0.6642945076398267 1:1.0 2:1.0 3:0.0 4:0.740088106 5:0.833333333 6:1.28046 7:1.16671 
-1.1751668033983798 -0.5986586828262787 -0.799662206122131 -0.938303841751 -1.0629672088085877 1.1971615536667743 1:1.0 2:2.0 3:1.0 4:0.555066079 5:0.666666667 6:1.35754 7:0.846154 
-1.176927815384785 -0.5948628521604675 -0.782740561365961 -0.9368139266666367 -1.0582769250664652 1.1979047142784518 1:3.0 2:1.0 3:0.0 4:1.171806167 5:1.0 6:3.15597 7:5.0 
-0.23077276463706362 -10.0 -10.0 -10.0 -10.0 0.2208586695537227 1:1.0 2:0.0 3:0.0 4:0.678414097 5:0.833333333 6:1.40576 7:1.29519 
-0.0 -0.0 -3.322092219475859 -0.0 -10.0 0.0 1:1.0 2:0.0 3:0.0 4:1.325991189 5:1.333333333 6:2.23689 7:1.09505 
-0.4692800884908477 -0.0 -10.0 -0.8508997148579225 -1.3398658976029396 0.48727868754561354 1:1.0 2:0.0 3:0.0 4:1.449339207 5:1.166666667 6:2.50278 7:1.18103 
-0.7524922210927766 -5.49987658684959 -8.210449418203783 -5.535836106949429 -2.4014740866155195 0.7498287785721857 1:1.0 2:0.0 3:0.0 4:0.308370044 5:0.333333333 6:1.27402 7:1.04575 
-0.0 -10.0 -0.0 -10.0 -0.0 0.0 1:1.0 2:0.0 3:0.0 4:0.555066079 5:0.666666667 6:0.542422 7:0.977184 
-0.5150844523281709 -0.26263170586101076 -0.3454867943331792 -0.41203379852153144 -0.5100147142361574 0.5178618877315669 1:1.0 2:0.0 3:0.0 4:2.127753304 5:2.166666667 6:2.75895 7:5.0 
-0.6285119109763947 -0.0 -2.5717755155555486 -3.628420920434218 -3.2540001102560994 0.6401765347384858 1:1.0 2:0.0 3:0.0 4:1.54185022 5:1.333333333 6:1.29304 7:1.01037 
-0.5624498592021485 -0.35146336915762405 -10.0 -5.255387643653228 -1.7178294157097918 0.5691462227950435 1:1.0 2:0.0 3:0.0 4:1.140969163 5:1.166666667 6:1.39593 7:0.661679 
-1.1288195921737039 -0.5657366419747685 -0.7443645553854712 -0.8909187799862834 -1.0081166096848926 1.1595621604414081 1:1.0 2:0.0 3:0.0 4:2.035242291 5:2.166666667 6:3.74884 7:5.0 
-0.7816395335954913 -0.029722779461656655 -5.874946132428257 -1.8598070109003018 -0.5745796021928032 0.7965305262739129 1:1.0 2:1.0 3:0.0 4:1.233480176 5:1.333333333 6:2.01293 7:2.07664 
-1.1662211894265802 -1.153172835352112 -4.115517785083063 -5.092810369544699 -2.60544613540548 1.1869846936463935 1:1.0 2:0.0 3:0.0 4:0.400881057 5:0.333333333 6:4.82095 7:1.04575 
-0.0 -10.0 -10.0 -10.0 -10.0 0.0 1:1.0 2:0.0 3:0.0 4:0.740088106 5:0.833333333 6:1.47146 7:1.0425 
-0.9449089950151093 -1.6320610607779222 -0.1455500110428384 -1.0327908425190415 -1.7207961159800131 0.9621068106798778 1:1.0 2:1.0 3:0.0 4:1.572687225 5:1.666666667 6:2.61379 7:1.4 
-0.9348333178269761 -4.618843859643313 -3.472111446582818 -1.7666484185499234 -4.831595678457046 0.9520073784287023 1:1.0 2:0.0 3:1.0 4:0.431718062 5:0.333333333 6:2.71558 7:1.19443 
-0.0 -10.0 -10.0 -10.0 -8.312014944272253 0.0 1:1.0 2:0.0 3:0.0 4:0.986784141 5:1.166666667 6:1.48193 7:1.32552 
-0.9177368547151765 -0.3149879468570709 -0.0 -0.8155651440315721 -0.7061992314303637 0.9355394350124219 1:1.0 2:0.0 3:0.0 4:2.035242291 5:1.666666667 6:2.90156 7:1.0425 
-1.1227176726669714 -0.5656058250100501 -0.7443977451732783 -1.1983267452166522 -1.58054277450188 1.1388251603223107 1:1.0 2:0.0 3:0.0 4:2.405286344 5:2.0 6:2.6194 7:3.62465 
-0.41145528382958885 -0.2083134059159402 -0.27423642177746416 -0.32773116274184055 -0.3720589675833431 0.4188400988497287 1:1.0 2:0.0 3:0.0 4:2.929515419 5:2.833333333 6:2.04603 7:5.0 
-1.024187056053788 -0.5183323530665253 -0.6818126271988292 -0.8162810151962111 -0.923964808396894 1.0441511558480414 1:3.0 2:1.0 3:0.0 4:2.744493392 5:2.333333333 6:1.48403 7:5.0 
-1.1290808229952718 -0.5889313848699138 -0.645453911226332 -2.83125070082596 -1.0326650922533607 1.1421346436431175 1:1.0 2:1.0 3:0.0 4:1.079295154 5:1.166666667 6:1.7726 7:3.0 
-0.21911970008922246 -10.0 -6.147901092764618 -6.2889890272701745 -0.0 0.09956958283081918 1:1.0 2:0.0 3:0.0 4:0.524229075 5:0.5 6:1.89607 7:1.15979 
-0.5646456791388431 -0.2848671073508442 -0.37657639441962365 -0.45000692335928216 -0.5103229843355734 0.5748297141452772 1:3.0 2:0.0 3:1.0 4:2.528634361 5:2.666666667 6:1.88974 7:5.0 
-0.2009049354415198 -8.561362008140438 -10.0 -0.0 -4.160334759678061 0.25452308063480245 1:1.0 2:0.0 3:0.0 4:0.801762115 5:0.666666667 6:2.2038 7:0.842297 
-1.1750531162481261 -0.594683864114321 -0.7897872310277332 -1.1103747185519486 -1.2657081621654587 1.1969232537588577 1:3.0 2:0.0 3:0.0 4:2.898678414 5:2.166666667 6:1.97494 7:1.51918 
-0.7640170483263984 -0.38595882631978135 -0.5086894182812416 -0.6081684612270826 -0.6860478591081955 0.7780568010244029 1:1.0 2:0.0 3:0.0 4:3.176211454 5:2.333333333 6:1.97317 7:5.0 
-1.1163727001675345 -0.564795676672975 -0.7434387587663258 -0.9141571832999424 -1.0513413921641155 1.136767891345708 1:1.0 2:0.0 3:0.0 4:2.837004405 5:2.5 6:1.86684 7:3.66667 
-0.33407751775778927 -0.16954760990097695 -0.22336535797023332 -0.2661762439926386 -0.3284184919183592 0.33223649631109675 1:3.0 2:1.0 3:0.0 4:2.251101322 5:2.166666667 6:2.05779 7:5.0 
-1.2536870213843252 -0.594977395421974 -0.7830508896103618 -0.9371799741973136 -1.0645330746001684 1.2346697653715795 1:3.0 2:0.0 3:0.0 4:0.801762115 5:0.833333333 6:2.05725 7:5.0 
-0.23028758566511057 -0.0 -1.961141222385849 -1.96749305995615 -0.5845745279491653 0.23474449934205666 1:1.0 2:1.0 3:0.0 4:1.511013216 5:1.333333333 6:2.25359 7:1.6961 
-1.1659406094596318 -0.5897754581349235 -0.7765159239209716 -0.9287829827865829 -1.0496426122902118 1.187796351172751 1:3.0 2:0.0 3:0.0 4:3.885462555 5:3.833333333 6:1.27553 7:5.0 
-1.1753228539011533 -0.5969845649571545 -0.8570198063371016 -0.9849910818850196 -1.2039836885723834 1.1967788819409426 1:3.0 2:0.0 3:1.0 4:2.035242291 5:1.666666667 6:2.25976 7:1.50526 
-1.1681940570257503 -0.5906987016360429 -0.7778421787626264 -0.9306380980940842 -1.0513427621604083 1.1897251921135812 1:3.0 2:0.0 3:2.0 4:2.991189427 5:3.166666667 6:1.4921 7:5.0 
-0.0 -7.026354498964295 -0.24264306674963032 -2.7986839846636955 -0.0 0.0 1:1.0 2:0.0 3:0.0 4:0.431718062 5:0.333333333 6:1.37997 7:1.04575 
-0.19137102088609176 -1.8111953204466344 -10.0 -8.233924064343626 -6.695869764725583 0.15312562611415478 1:1.0 2:0.0 3:0.0 4:1.171806167 5:0.833333333 6:2.04454 7:0.96549 
-1.1728489494628884 -0.5935247501579176 -0.7809542512665744 -0.9342118274803373 -1.0554281793282132 1.1946630169872101 1:1.0 2:0.0 3:0.0 4:4.933920705 5:4.333333333 6:1.8412 7:5.0 
-0.7152622641433836 -0.35946617638458606 -0.4731295749364809 -0.5669222387440408 -0.6561047571440771 0.7557667948637548 1:1.0 2:0.0 3:0.0 4:2.004405286 5:1.833333333 6:2.7559 7:5.0 
-0.9934860742432983 -0.502281894751179 -0.661232302772925 -0.7912126160528018 -0.9307534178948472 1.0118169741706646 1:1.0 2:1.0 3:0.0 4:2.31277533 5:2.0 6:1.88587 7:5.0 
-0.7960939350699588 -0.40308523314116906 -0.5306167934959831 -0.6348155796919376 -0.7173354754389968 0.8121124715364226 1:1.0 2:0.0 3:0.0 4:3.237885463 5:3.5 6:1.69073 7:5.0 
-1.1655579353813093 -0.5898403931245604 -0.7757523451726838 -0.9285830311976727 -1.049066843867534 1.1867913481043515 1:3.0 2:1.0 3:0.0 4:3.731277533 5:4.0 6:1.97795 7:5.0 
-0.6911013783548536 -0.3501103506627375 -0.45982557346472896 -0.5503239987608882 -0.6296582414107808 0.7034549452779242 1:1.0 2:0.0 3:0.0 4:2.528634361 5:2.166666667 6:2.01597 7:5.0 
-0.6243535959398043 -7.6653597363579165 -9.261896250404682 -5.941201054305487 -1.7956297839877389 0.6362799070830762 1:1.0 2:1.0 3:0.0 4:1.017621145 5:1.166666667 6:1.85939 7:1.2597 
-1.0621412932156833 -0.5372664743569504 -0.7068123989208629 -0.846202798653456 -0.958300694785174 1.0816551639014247 1:2.0 2:0.0 3:0.0 4:3.114537445 5:2.666666667 6:3.0448 7:5.0 
-0.7586569688970152 -0.38387059490549147 -0.5050439437734743 -0.604149548982752 -0.6991464443068345 0.7723931464279474 1:3.0 2:0.0 3:0.0 4:2.374449339 5:2.333333333 6:1.73534 7:5.0 
-1.1434698235958816 -0.5781838467424548 -0.7609359171871866 -0.9109425556682181 -1.0511065813425635 1.1645828218946923 1:1.0 2:0.0 3:1.0 4:2.929515419 5:2.666666667 6:2.47651 7:5.0 
-0.24297231515237402 -0.0 -2.793719091712042 -3.8566662095710327 -4.520849780608926 0.24338350438491124 1:1.0 2:0.0 3:0.0 4:1.665198238 5:1.666666667 6:2.6698 7:1.27852 
-1.1768965198041772 -0.5951472067564715 -0.7833161259520615 -0.9377055679501848 -1.060499225674767 1.1985570029890542 1:3.0 2:1.0 3:1.0 4:4.718061674 5:4.666666667 6:1.54805 7:5.0 
-0.0 -10.0 -0.20534003213063035 -10.0 -7.763080777281679 0.0 1:1.0 2:0.0 3:0.0 4:0.647577093 5:0.666666667 6:2.83297 7:1.25594 
-0.5963945662406247 -10.0 -10.0 -3.9293614006529958 -4.040324910081126 0.5966795245540331 1:1.0 2:0.0 3:0.0 4:0.925110132 5:0.833333333 6:2.678 7:0.808608 
-0.66302856503257 -0.33534058043352 -0.44046453197091473 -0.5279274366478311 -0.5967275284261531 0.6749897698239983 1:1.0 2:1.0 3:0.0 4:2.991189427 5:2.833333333 6:1.48197 7:5.0 
-0.6909389939822133 -0.3499518971932457 -0.46063215209874375 -0.5509165944045747 -0.6694611145096325 0.7039276339410258 1:1.0 2:1.0 3:0.0 4:2.86784141 5:3.166666667 6:1.553 7:5.0 
-1.1726946262852236 -0.5931649920932289 -0.7806901823619135 -0.9342501190663279 -1.0559741584331956 1.194340306511857 1:2.0 2:0.0 3:0.0 4:4.563876652 5:5.166666667 6:1.71462 7:5.0 
-1.0102940304686874 -0.45851450303349495 -2.2767487816429814 -1.7805499151119022 -3.4045801826265496 1.0289436711336946 1:1.0 2:1.0 3:0.0 4:1.726872247 5:1.666666667 6:1.43772 7:1.63798 
-1.145724606691999 -0.5619053700883625 -0.8093587407713845 -0.916025637028654 -1.566637513410871 1.1664592219299748 1:1.0 2:1.0 3:0.0 4:1.572687225 5:1.333333333 6:3.3551 7:2.14322 
-1.1656852114106155 -0.5899846335167562 -0.7760116496530419 -0.9283319304855132 -1.0666081182235139 1.1871887562127417 1:1.0 2:1.0 3:0.0 4:2.713656388 5:2.5 6:3.28789 7:5.0 
-1.2980831149461594 -0.3999301899088248 -0.5490884798788932 -0.6672667083398437 -0.7321199282415932 -0.6598003610089689 1:1.0 2:0.0 3:0.0 4:1.603524229 5:1.166666667 6:4.611 7:5.99803 
-0.9637523376319175 -0.4845430978934416 -0.6654600785335637 -0.8087751440524994 -0.8876148096677555 -0.800655146746506 1:4.0 2:1.0 3:1.0 4:5.797356828 5:5.666666667 6:11.1357 7:5.99803 
-0.9271109124661411 -0.46551425848659517 -0.6391213969937221 -0.7765455503538184 -0.8520610846748529 -0.769074504585441 1:3.0 2:1.0 3:0.0 4:3.176211454 5:2.833333333 6:7.8664 7:5.99803 
-0.9655490709517567 -0.484517868163566 -0.6652805708816678 -0.8086919315274369 -0.8872157958365354 -0.8004065223963537 1:3.0 2:0.0 3:1.0 4:4.193832599 5:4.0 6:7.6418 7:5.99803 
-1.0955613739566588 -0.4769072317605809 -0.657672319794417 -0.8611312193745407 -1.0198643088492574 -0.7921623689559527 1:3.0 2:0.0 3:0.0 4:0.49339207 5:0.833333333 6:1.7859 7:2.96164 
-2.3392812201188913 -0.4766401387211435 -0.6544801577850172 -0.8103921209010598 -1.1286512721780184 -0.8416324905489243 1:3.0 2:0.0 3:0.0 4:0.894273128 5:1.0 6:2.1202 7:3.99607 
-4.788298601951539 -0.11973277778130446 -0.1637036829270912 -0.3945875154055367 -0.21120742216088104 -1.13307945661063 1:1.0 2:0.0 3:0.0 4:0.863436123 5:1.0 6:2.3825 7:3.82533 
-0.9151774421355303 -0.4556722341419528 -0.6260520981923409 -0.7608829420826229 -0.8346569494045212 -0.7533218741373212 1:1.0 2:0.0 3:2.0 4:2.0969163 5:2.5 6:4.6432 7:5.99803 
-0.9355729583104851 -0.46944521756850116 -0.644712298911447 -0.7835157770480161 -0.8596915178100112 -0.7755886079101583 1:3.0 2:1.0 3:0.0 4:3.083700441 5:3.0 6:10.691 7:5.99803 
-0.9845301653406504 -0.48366874247748165 -0.6645641867834744 -0.807343513644899 -0.8866883253019887 -0.7998217144973949 1:2.0 2:1.0 3:1.0 4:2.343612335 5:2.166666667 6:5.7018 7:5.99803 
-0.49191800240880024 -0.23825955606347546 -0.32747057631526133 -0.3985651219740234 -0.4369200747050782 -0.3938631731546565 1:1.0 2:0.0 3:1.0 4:1.911894273 5:2.166666667 6:4.5661 7:5.99803 
-0.9301984584607649 -0.4652228499710844 -0.6393998959165048 -0.7769462191713923 -0.8526667898532458 -0.7707357192424009 1:3.0 2:1.0 3:0.0 4:2.127753304 5:2.333333333 6:3.3151 7:5.99803 
-0.9592585548669555 -0.48151800306149783 -0.6623873816058803 -0.8045849217908734 -0.8832265513822355 -0.7970169899623764 1:3.0 2:2.0 3:0.0 4:3.916299559 5:3.666666667 6:8.3489 7:5.99803 
-0.7782510700861832 -0.38550215247234837 -0.5290563408509427 -0.6435795118572151 -0.7056414236858951 -0.6423408156927861 1:3.0 2:0.0 3:0.0 4:2.220264317 5:2.5 6:3.6094 7:5.99803 
-0.6908284512413772 -0.34874265532477494 -0.4789706860480684 -0.6325311202451502 -0.6366192714040184 -0.6047640040767495 1:1.0 2:0.0 3:1.0 4:0.863436123 5:1.0 6:1.9267 7:3.39443 
-0.9581821998200739 -0.4814007640600639 -0.6616443375742518 -0.8037063531769233 -0.8820100604408144 -0.7964130947701652 1:3.0 2:1.0 3:1.0 4:3.700440529 5:4.166666667 6:10.1863 7:5.99803 
-0.9549245700675955 -0.47983644990745195 -0.6592480130683949 -0.8012639994945351 -0.8795959831956486 -0.7930089037565533 1:1.0 2:0.0 3:2.0 4:2.220264317 5:2.5 6:3.3573 7:5.99803 
-0.6088371012084008 -0.2989155980836603 -0.4099146035451421 -0.49817611620007274 -0.546717206550995 -0.49330272796402236 1:1.0 2:0.0 3:1.0 4:2.220264317 5:2.5 6:4.9273 7:5.99803 
