svm_type nu_svc
kernel_type rbf
gamma 8.0
nr_class 3
total_sv 8125
rho 0.40572991814351733 7.623525987669852 -0.57861563972568
label 1 2 0
nr_sv 2911 2247 2967
SV
0.1457687274947737 5634.058311202331 1:0.25 2:0.0 3:0.2 4:0.023746702 5:0.036363636 6:0.096153846 7:0.0 
0.0 5634.058311202331 1:0.25 2:0.0 3:0.0 4:0.042216359 5:0.072727273 6:0.0 7:0.0 
0.1457687274947737 5634.058311202331 1:0.75 2:0.2 3:0.0 4:0.102902375 5:0.163636364 6:0.0 7:0.142857143 
0.1457687274947737 5634.058311202331 1:0.25 2:0.0 3:0.0 4:0.09762533 5:0.109090909 6:0.096153846 7:0.142857143 
0.1457687274947737 5634.058311202331 1:0.25 2:0.0 3:0.0 4:0.023746702 5:0.036363636 6:0.0 7:0.0 
0.1457687274947737 5634.058311202331 1:0.25 2:0.0 3:0.0 4:0.113456464 5:0.181818182 6:0.0 7:0.142857143 
0.0 5634.058311202331 1:0.25 2:0.0 3:0.0 4:0.047493404 5:0.072727273 6:0.0 7:0.0 
0.1457687274947737 5634.058311202331 1:0.75 2:0.0 3:0.2 4:0.19525066 5:0.254545455 6:0.0 7:0.142857143 
0.1457687274947737 5634.058311202331 1:0.25 2:0.2 3:0.0 4:0.102902375 5:0.127272727 6:0.096153846 7:0.142857143 
0.1457687274947737 5634.058311202331 1:0.25 2:0.2 3:0.0 4:0.100263852 5:0.127272727 6:0.0 7:0.142857143 
0.1457687274947737 5634.058311202331 1:0.75 2:0.0 3:0.0 4:0.102902375 5:0.127272727 6:0.0 7:0.142857143 
0.1457687274947737 0.0 1:1.0 2:0.0 3:0.4 4:0.269129288 5:0.4 6:0.096153846 7:0.428571429 
0.0 5634.058311202331 1:0.25 2:0.2 3:0.0 4:0.036939314 5:0.072727273 6:0.0 7:0.142857143 
0.1457687274947737 5634.058311202331 1:0.25 2:0.0 3:0.0 4:0.021108179 5:0.036363636 6:0.0 7:0.142857143 
0.1457687274947737 0.0 1:0.25 2:0.0 3:0.0 4:0.105540897 5:0.145454545 6:0.096153846 7:0.142857143 
0.1457687274947737 5634.058311202331 1:0.25 2:0.0 3:0.2 4:0.153034301 5:0.218181818 6:0.096153846 7:0.142857143 
0.1457687274947737 5634.058311202331 1:0.25 2:0.2 3:0.0 4:0.034300792 5:0.054545455 6:0.0 7:0.142857143 
0.0 5634.058311202331 1:0.25 2:0.2 3:0.0 4:0.092348285 5:0.145454545 6:0.0 7:0.142857143 
0.0 5634.058311202331 1:0.25 2:0.0 3:0.0 4:0.081794195 5:0.109090909 6:0.096153846 7:0.142857143 
0.0 5634.058311202331 1:0.25 2:0.0 3:0.0 4:0.060686016 5:0.090909091 6:0.0 7:0.0 
0.0 5634.058311202331 1:0.25 2:0.2 3:0.0 4:0.089709763 5:0.127272727 6:0.0 7:0.142857143 
0.1457687274947737 5634.058311202331 1:0.25 2:0.2 3:0.0 4:0.18469657 5:0.2 6:0.096153846 7:0.142857143 
0.1457687274947737 5634.058311202331 1:0.25 2:0.0 3:0.0 4:0.09762533 5:0.145454545 6:0.0 7:0.142857143 
0.0 5634.058311202331 1:0.25 2:0.2 3:0.0 4:0.089709763 5:0.145454545 6:0.0 7:0.142857143 
0.0 5634.058311202331 1:0.25 2:0.0 3:0.2 4:0.039577836 5:0.072727273 6:0.0 7:0.0 
0.1457687274947737 0.0 1:0.25 2:0.0 3:0.0 4:0.253298153 5:0.236363636 6:0.0 7:0.142857143 
0.1457687274947737 5634.058311202331 1:0.25 2:0.0 3:0.2 4:0.034300792 5:0.054545455 6:0.096153846 7:0.0 
0.0 5634.058311202331 1:0.25 2:0.2 3:0.0 4:0.073878628 5:0.109090909 6:0.0 7:0.142857143 
0.1457687274947737 5634.058311202331 1:0.25 2:0.0 3:0.0 4:0.094986807 5:0.127272727 6:0.0 7:0.142857143 
0.1457687274947737 5634.058311202331 1:0.25 2:0.0 3:0.0 4:0.060686016 5:0.054545455 6:0.0 7:0.0 
0.1457687274947737 5634.058311202331 1:0.25 2:0.0 3:0.0 4:0.065963061 5:0.090909091 6:0.0 7:0.142857143 
0.1457687274947737 5634.058311202331 1:0.25 2:0.0 3:0.0 4:0.094986807 5:0.127272727 6:0.0 7:0.142857143 
0.1457687274947737 0.0 1:0.75 2:0.0 3:0.6 4:0.221635884 5:0.272727273 6:0.096153846 7:0.571428571 
0.08862680978535172 5634.058311202331 1:0.25 2:0.0 3:0.0 4:0.084432718 5:0.127272727 6:0.0 7:0.142857143 
0.0 5634.058311202331 1:0.25 2:0.0 3:0.0 4:0.094986807 5:0.145454545 6:0.096153846 7:0.142857143 
0.1457687274947737 5634.058311202331 1:0.25 2:0.0 3:0.0 4:0.068601583 5:0.090909091 6:0.0 7:0.142857143 
0.1457687274947737 5634.058311202331 1:0.25 2:0.0 3:0.0 4:0.205804749 5:0.290909091 6:0.0 7:0.142857143 
0.1457687274947737 5634.058311202331 1:0.25 2:0.0 3:0.0 4:0.09762533 5:0.127272727 6:0.096153846 7:0.142857143 
0.0 5634.058311202331 1:0.25 2:0.0 3:0.2 4:0.065963061 5:0.072727273 6:0.0 7:0.0 
0.1457687274947737 0.0 1:0.75 2:0.2 3:0.0 4:0.145118734 5:0.163636364 6:0.0 7:0.571428571 
0.1457687274947737 5634.058311202331 1:0.25 2:0.0 3:0.0 4:0.050131926 5:0.072727273 6:0.192307692 7:0.0 
0.1457687274947737 5634.058311202331 1:0.25 2:0.2 3:0.0 4:0.134564644 5:0.181818182 6:0.096153846 7:0.142857143 
0.0 5634.058311202331 1:0.25 2:0.0 3:0.0 4:0.055408971 5:0.090909091 6:0.096153846 7:0.0 
0.1457687274947737 0.0 1:0.25 2:0.0 3:0.0 4:0.105540897 5:0.109090909 6:0.0 7:0.142857143 
0.1457687274947737 5634.058311202331 1:0.25 2:0.0 3:0.0 4:0.150395778 5:0.2 6:0.0 7:0.142857143 
0.1457687274947737 5634.058311202331 1:0.25 2:0.0 3:0.0 4:0.060686016 5:0.072727273 6:0.0 7:0.142857143 
0.1457687274947737 5634.058311202331 1:0.25 2:0.0 3:0.0 4:0.029023747 5:0.036363636 6:0.096153846 7:0.142857143 
0.1457687274947737 5634.058311202331 1:0.25 2:0.0 3:0.2 4:0.09762533 5:0.109090909 6:0.096153846 7:0.142857143 
0.1457687274947737 0.0 1:0.25 2:0.0 3:0.0 4:0.263852243 5:0.272727273 6:0.096153846 7:0.285714286 
0.1457687274947737 0.0 1:0.75 2:0.0 3:0.2 4:0.27176781 5:0.436363636 6:0.0 7:0.571428571 
0.1457687274947737 5634.058311202331 1:0.25 2:0.0 3:0.0 4:0.10817942 5:0.145454545 6:0.096153846 7:0.142857143 
0.1457687274947737 5634.058311202331 1:0.25 2:0.0 3:0.2 4:0.031662269 5:0.054545455 6:0.0 7:0.142857143 
0.1457687274947737 5634.058311202331 1:0.75 2:0.0 3:0.0 4:0.100263852 5:0.127272727 6:0.096153846 7:0.142857143 
0.1457687274947737 0.0 1:0.25 2:0.0 3:0.0 4:0.100263852 5:0.127272727 6:0.0 7:0.142857143 
0.0 5634.058311202331 1:0.25 2:0.0 3:0.0 4:0.063324538 5:0.090909091 6:0.0 7:0.0 
0.1457687274947737 5634.058311202331 1:0.75 2:0.0 3:0.0 4:0.09762533 5:0.127272727 6:0.0 7:0.142857143 
0.0 5634.058311202331 1:0.25 2:0.0 3:0.2 4:0.084432718 5:0.109090909 6:0.096153846 7:0.142857143 
0.1457687274947737 5634.058311202331 1:0.25 2:0.0 3:0.0 4:0.07651715 5:0.109090909 6:0.192307692 7:0.142857143 
0.1457687274947737 5634.058311202331 1:0.25 2:0.0 3:0.2 4:0.023746702 5:0.036363636 6:0.0 7:0.0 
0.0 5634.058311202331 1:0.25 2:0.0 3:0.0 4:0.084432718 5:0.145454545 6:0.0 7:0.142857143 
0.1457687274947737 0.0 1:0.75 2:0.0 3:0.0 4:0.221635884 5:0.290909091 6:0.096153846 7:0.571428571 
0.1457687274947737 5634.058311202331 1:0.25 2:0.2 3:0.0 4:0.036939314 5:0.054545455 6:0.0 7:0.142857143 
0.003749620986696651 0.0 1:0.25 2:0.2 3:0.4 4:0.137203166 5:0.163636364 6:0.096153846 7:0.428571429 
0.0 5634.058311202331 1:0.25 2:0.0 3:0.2 4:0.121372032 5:0.163636364 6:0.096153846 7:0.142857143 
0.1457687274947737 0.0 1:0.75 2:0.0 3:0.0 4:0.129287599 5:0.145454545 6:0.0 7:0.571428571 
0.1457687274947737 5634.058311202331 1:0.25 2:0.0 3:0.0 4:0.029023747 5:0.054545455 6:0.096153846 7:0.0 
1.5624445669329745E-4 5634.058311202331 1:0.75 2:0.0 3:0.2 4:0.089709763 5:0.145454545 6:0.0 7:0.142857143 
0.0 5634.058311202331 1:0.25 2:0.0 3:0.0 4:0.092348285 5:0.145454545 6:0.096153846 7:0.142857143 
0.0 5634.058311202331 1:0.75 2:0.0 3:0.2 4:0.160949868 5:0.181818182 6:0.0 7:0.142857143 
0.12001935657485951 0.0 1:1.0 2:0.4 3:0.0 4:0.234828496 5:0.363636364 6:0.0 7:0.428571429 
0.1457687274947737 5634.058311202331 1:0.25 2:0.0 3:0.0 4:0.023746702 5:0.036363636 6:0.0 7:0.142857143 
0.0 5634.058311202331 1:0.25 2:0.0 3:0.0 4:0.07651715 5:0.090909091 6:0.096153846 7:0.0 
0.1457687274947737 5634.058311202331 1:0.75 2:0.0 3:0.0 4:0.08707124 5:0.127272727 6:0.0 7:0.142857143 
0.0 5634.058311202331 1:0.25 2:0.0 3:0.2 4:0.063324538 5:0.109090909 6:0.0 7:0.142857143 
0.1457687274947737 5634.058311202331 1:0.25 2:0.2 3:0.0 4:0.065963061 5:0.109090909 6:0.096153846 7:0.142857143 
0.1457687274947737 5634.058311202331 1:0.25 2:0.2 3:0.0 4:0.044854881 5:0.054545455 6:0.0 7:0.142857143 
0.1457687274947737 5634.058311202331 1:0.25 2:0.0 3:0.0 4:0.036939314 5:0.054545455 6:0.0 7:0.0 
0.1457687274947737 5634.058311202331 1:0.25 2:0.0 3:0.0 4:0.105540897 5:0.163636364 6:0.0 7:0.142857143 
0.1457687274947737 4994.849497037589 1:0.75 2:0.0 3:0.0 4:0.102902375 5:0.163636364 6:0.0 7:0.142857143 
0.1457687274947737 0.0 1:0.25 2:0.0 3:0.2 4:0.10817942 5:0.127272727 6:0.0 7:0.142857143 
0.1457687274947737 0.0 1:0.25 2:0.0 3:0.2 4:0.089709763 5:0.109090909 6:0.0 7:0.142857143 
0.1457687274947737 5634.058311202331 1:0.25 2:0.0 3:0.2 4:0.079155673 5:0.090909091 6:0.096153846 7:0.0 
0.1457687274947737 5634.058311202331 1:0.25 2:0.0 3:0.0 4:0.237467018 5:0.272727273 6:0.096153846 7:0.142857143 
0.0 5634.058311202331 1:0.25 2:0.0 3:0.0 4:0.044854881 5:0.054545455 6:0.096153846 7:0.0 
0.1457687274947737 5634.058311202331 1:0.25 2:0.0 3:0.0 4:0.055408971 5:0.072727273 6:0.0 7:0.142857143 
0.1457687274947737 0.0 1:0.25 2:0.0 3:0.0 4:0.139841689 5:0.181818182 6:0.096153846 7:0.571428571 
0.0 3287.1596004559296 1:0.5 2:0.0 3:0.0 4:0.116094987 5:0.145454545 6:0.0 7:0.0 
0.0 5634.058311202331 1:0.25 2:0.2 3:0.0 4:0.036939314 5:0.072727273 6:0.0 7:0.142857143 
0.0 5634.058311202331 1:0.25 2:0.0 3:0.0 4:0.050131926 5:0.072727273 6:0.0 7:0.0 
0.0 5634.058311202331 1:0.25 2:0.0 3:0.0 4:0.081794195 5:0.109090909 6:0.096153846 7:0.142857143 
0.1457687274947737 5634.058311202331 1:0.25 2:0.0 3:0.0 4:0.065963061 5:0.072727273 6:0.096153846 7:0.142857143 
0.1457687274947737 5634.058311202331 1:0.25 2:0.0 3:0.0 4:0.139841689 5:0.2 6:0.096153846 7:0.142857143 
0.0 5634.058311202331 1:0.25 2:0.0 3:0.0 4:0.071240106 5:0.090909091 6:0.096153846 7:0.142857143 
0.0 5634.058311202331 1:0.25 2:0.0 3:0.0 4:0.044854881 5:0.072727273 6:0.096153846 7:0.142857143 
0.0 5634.058311202331 1:0.25 2:0.0 3:0.2 4:0.044854881 5:0.054545455 6:0.0 7:0.0 
0.1457687274947737 5634.058311202331 1:0.25 2:0.0 3:0.0 4:0.10817942 5:0.127272727 6:0.096153846 7:0.142857143 
0.1457687274947737 0.0 1:0.75 2:0.0 3:0.0 4:0.145118734 5:0.181818182 6:0.096153846 7:0.571428571 
0.0 5634.058311202331 1:0.25 2:0.0 3:0.2 4:0.065963061 5:0.109090909 6:0.0 7:0.0 
0.1457687274947737 0.0 1:0.25 2:0.2 3:0.0 4:0.084432718 5:0.090909091 6:0.096153846 7:0.571428571 
0.1457687274947737 5634.058311202331 1:0.25 2:0.0 3:0.0 4:0.155672823 5:0.218181818 6:0.096153846 7:0.142857143 
0.0 5634.058311202331 1:0.25 2:0.2 3:0.0 4:0.081794195 5:0.127272727 6:0.0 7:0.142857143 
0.1457687274947737 5634.058311202331 1:0.25 2:0.0 3:0.0 4:0.092348285 5:0.109090909 6:0.096153846 7:0.142857143 
0.1457687274947737 0.0 1:0.25 2:0.2 3:0.0 4:0.187335092 5:0.236363636 6:0.096153846 7:0.571428571 
0.1457687274947737 0.0 1:0.25 2:0.0 3:0.2 4:0.124010554 5:0.2 6:0.0 7:0.571428571 
0.1457687274947737 5634.058311202331 1:0.25 2:0.2 3:0.0 4:0.100263852 5:0.109090909 6:0.096153846 7:0.142857143 
0.1457687274947737 5634.058311202331 1:0.25 2:0.0 3:0.0 4:0.092348285 5:0.127272727 6:0.0 7:0.142857143 
0.0 5634.058311202331 1:0.25 2:0.0 3:0.2 4:0.092348285 5:0.127272727 6:0.096153846 7:0.142857143 
0.0 5634.058311202331 1:0.25 2:0.0 3:0.0 4:0.068601583 5:0.090909091 6:0.096153846 7:0.142857143 
0.0 5634.058311202331 1:0.25 2:0.2 3:0.0 4:0.079155673 5:0.109090909 6:0.0 7:0.142857143 
0.1457687274947737 5634.058311202331 1:0.25 2:0.0 3:0.2 4:0.034300792 5:0.054545455 6:0.096153846 7:0.0 
0.0 5634.058311202331 1:0.25 2:0.0 3:0.2 4:0.047493404 5:0.072727273 6:0.0 7:0.0 
0.0 5634.058311202331 1:0.25 2:0.2 3:0.0 4:0.055408971 5:0.072727273 6:0.0 7:0.142857143 
0.1457687274947737 0.0 1:0.75 2:0.0 3:0.0 4:0.327176781 5:0.363636364 6:0.0 7:0.571428571 
0.1457687274947737 5634.058311202331 1:0.25 2:0.0 3:0.2 4:0.052770449 5:0.090909091 6:0.0 7:0.142857143 
0.1457687274947737 0.0 1:0.75 2:0.0 3:0.0 4:0.10817942 5:0.145454545 6:0.0 7:0.142857143 
0.1457687274947737 0.0 1:0.25 2:0.0 3:0.0 4:0.142480211 5:0.2 6:0.0 7:0.571428571 
0.1457687274947737 5634.058311202331 1:0.25 2:0.0 3:0.0 4:0.124010554 5:0.163636364 6:0.0 7:0.142857143 
0.0 5634.058311202331 1:0.75 2:0.0 3:0.0 4:0.121372032 5:0.181818182 6:0.096153846 7:0.142857143 
0.0 5634.058311202331 1:0.25 2:0.2 3:0.0 4:0.071240106 5:0.109090909 6:0.0 7:0.142857143 
0.1457687274947737 5634.058311202331 1:0.25 2:0.0 3:0.0 4:0.029023747 5:0.054545455 6:0.0 7:0.0 
0.0 5634.058311202331 1:0.25 2:0.0 3:0.0 4:0.047493404 5:0.090909091 6:0.0 7:0.142857143 
0.1457687274947737 0.0 1:0.25 2:0.4 3:0.0 4:0.073878628 5:0.109090909 6:0.0 7:0.571428571 
0.0 5634.058311202331 1:0.25 2:0.0 3:0.0 4:0.07651715 5:0.127272727 6:0.0 7:0.142857143 
0.0 5634.058311202331 1:0.25 2:0.2 3:0.0 4:0.071240106 5:0.090909091 6:0.0 7:0.142857143 
0.1457687274947737 0.0 1:0.25 2:0.4 3:0.2 4:0.08707124 5:0.109090909 6:0.0 7:0.285714286 
0.0 5634.058311202331 1:0.25 2:0.0 3:0.2 4:0.081794195 5:0.109090909 6:0.0 7:0.142857143 
0.1457687274947737 5634.058311202331 1:0.25 2:0.0 3:0.0 4:0.092348285 5:0.127272727 6:0.0 7:0.142857143 
0.1457687274947737 5634.058311202331 1:0.25 2:0.0 3:0.0 4:0.068601583 5:0.090909091 6:0.0 7:0.142857143 
0.0 5634.058311202331 1:0.25 2:0.2 3:0.2 4:0.052770449 5:0.090909091 6:0.0 7:0.142857143 
0.0 5634.058311202331 1:0.25 2:0.0 3:0.0 4:0.050131926 5:0.072727273 6:0.0 7:0.142857143 
0.1457687274947737 2479.302945436518 1:0.25 2:0.0 3:0.0 4:0.113456464 5:0.181818182 6:0.0 7:0.142857143 
0.1457687274947737 5634.058311202331 1:0.25 2:0.2 3:0.0 4:0.116094987 5:0.145454545 6:0.0 7:0.142857143 
0.1457687274947737 5634.058311202331 1:0.25 2:0.0 3:0.0 4:0.110817942 5:0.145454545 6:0.096153846 7:0.142857143 
0.029204179626355922 5634.058311202331 1:0.25 2:0.0 3:0.0 4:0.042216359 5:0.072727273 6:0.0 7:0.142857143 
0.0 5634.058311202331 1:0.25 2:0.0 3:0.0 4:0.08707124 5:0.127272727 6:0.096153846 7:0.0 
0.1457687274947737 5634.058311202331 1:0.25 2:0.0 3:0.0 4:0.121372032 5:0.145454545 6:0.096153846 7:0.142857143 
0.0 5634.058311202331 1:0.25 2:0.0 3:0.0 4:0.055408971 5:0.090909091 6:0.0 7:0.0 
0.1457687274947737 5634.058311202331 1:0.25 2:0.0 3:0.2 4:0.058047493 5:0.054545455 6:0.0 7:0.0 
0.1457687274947737 5634.058311202331 1:0.75 2:0.0 3:0.0 4:0.171503958 5:0.236363636 6:0.096153846 7:0.142857143 
0.1457687274947737 0.0 1:0.25 2:0.0 3:0.0 4:0.139841689 5:0.163636364 6:0.0 7:0.571428571 
0.0 5634.058311202331 1:0.25 2:0.0 3:0.0 4:0.08707124 5:0.145454545 6:0.096153846 7:0.142857143 
0.1457687274947737 0.0 1:0.25 2:0.0 3:0.0 4:0.102902375 5:0.145454545 6:0.0 7:0.285714286 
0.1457687274947737 5634.058311202331 1:0.25 2:0.0 3:0.0 4:0.179419525 5:0.236363636 6:0.096153846 7:0.142857143 
0.1457687274947737 5634.058311202331 1:0.25 2:0.0 3:0.0 4:0.126649077 5:0.163636364 6:0.096153846 7:0.142857143 
0.1457687274947737 0.0 1:0.25 2:0.0 3:0.0 4:0.163588391 5:0.163636364 6:0.0 7:0.142857143 
0.0 5634.058311202331 1:0.25 2:0.0 3:0.0 4:0.042216359 5:0.072727273 6:0.0 7:0.0 
0.1457687274947737 0.0 1:0.25 2:0.0 3:0.0 4:0.155672823 5:0.163636364 6:0.0 7:0.142857143 
0.0 5216.813793895414 1:0.25 2:0.2 3:0.0 4:0.060686016 5:0.090909091 6:0.0 7:0.142857143 
0.0 5634.058311202331 1:0.25 2:0.0 3:0.0 4:0.09762533 5:0.163636364 6:0.096153846 7:0.142857143 
0.0 5634.058311202331 1:0.25 2:0.0 3:0.0 4:0.050131926 5:0.072727273 6:0.0 7:0.0 
0.1457687274947737 5634.058311202331 1:0.25 2:0.0 3:0.2 4:0.071240106 5:0.072727273 6:0.0 7:0.142857143 
0.0 5634.058311202331 1:0.25 2:0.0 3:0.0 4:0.063324538 5:0.109090909 6:0.0 7:0.142857143 
0.1457687274947737 3506.4142576999143 1:0.75 2:0.0 3:0.4 4:0.084432718 5:0.145454545 6:0.096153846 7:0.142857143 
0.1457687274947737 5634.058311202331 1:0.25 2:0.0 3:0.2 4:0.026385224 5:0.054545455 6:0.096153846 7:0.0 
0.0 5634.058311202331 1:0.25 2:0.0 3:0.0 4:0.084432718 5:0.109090909 6:0.096153846 7:0.0 
0.0 5634.058311202331 1:0.25 2:0.0 3:0.2 4:0.052770449 5:0.072727273 6:0.0 7:0.0 
0.1457687274947737 0.0 1:0.75 2:0.0 3:0.0 4:0.163588391 5:0.254545455 6:0.0 7:0.571428571 
0.0 5634.058311202331 1:0.25 2:0.0 3:0.0 4:0.079155673 5:0.109090909 6:0.096153846 7:0.142857143 
0.0 5634.058311202331 1:0.25 2:0.2 3:0.0 4:0.100263852 5:0.163636364 6:0.0 7:0.142857143 
0.0 2583.3382329529895 1:0.25 2:0.2 3:0.0 4:0.065963061 5:0.109090909 6:0.0 7:0.142857143 
0.1457687274947737 0.0 1:0.25 2:0.2 3:0.0 4:0.145118734 5:0.181818182 6:0.0 7:0.571428571 
0.0 5634.058311202331 1:0.25 2:0.0 3:0.0 4:0.065963061 5:0.090909091 6:0.0 7:0.0 
0.0 4593.716059832943 1:0.75 2:0.0 3:0.0 4:0.129287599 5:0.163636364 6:0.0 7:0.142857143 
0.1457687274947737 5634.058311202331 1:0.25 2:0.0 3:0.0 4:0.07651715 5:0.072727273 6:0.096153846 7:0.142857143 
0.1457687274947737 5634.058311202331 1:0.25 2:0.0 3:0.0 4:0.084432718 5:0.127272727 6:0.0 7:0.142857143 
0.1457687274947737 5634.058311202331 1:0.25 2:0.0 3:0.0 4:0.050131926 5:0.054545455 6:0.192307692 7:0.0 
0.1457687274947737 5634.058311202331 1:0.25 2:0.0 3:0.0 4:0.102902375 5:0.145454545 6:0.0 7:0.142857143 
0.1457687274947737 5634.058311202331 1:0.25 2:0.0 3:0.0 4:0.031662269 5:0.054545455 6:0.096153846 7:0.0 
0.1457687274947737 0.0 1:0.25 2:0.0 3:0.0 4:0.232189974 5:0.290909091 6:0.0 7:0.571428571 
0.1457687274947737 0.0 1:0.75 2:0.0 3:0.0 4:0.137203166 5:0.163636364 6:0.0 7:0.571428571 
0.021421038425135472 0.0 1:0.75 2:0.0 3:0.0 4:0.176781003 5:0.254545455 6:0.0 7:0.571428571 
0.1457687274947737 0.0 1:0.75 2:0.0 3:0.0 4:0.10817942 5:0.145454545 6:0.0 7:0.142857143 
0.0 5634.058311202331 1:0.25 2:0.0 3:0.0 4:0.073878628 5:0.145454545 6:0.096153846 7:0.142857143 
0.1457687274947737 0.0 1:0.25 2:0.4 3:0.0 4:0.166226913 5:0.218181818 6:0.0 7:0.571428571 
0.0 5555.0792981325885 1:0.25 2:0.0 3:0.2 4:0.08707124 5:0.127272727 6:0.0 7:0.142857143 
0.1457687274947737 5634.058311202331 1:0.25 2:0.2 3:0.2 4:0.039577836 5:0.054545455 6:0.096153846 7:0.142857143 
0.1457687274947737 5634.058311202331 1:0.25 2:0.0 3:0.0 4:0.073878628 5:0.090909091 6:0.0 7:0.0 
0.1457687274947737 0.0 1:0.25 2:0.0 3:0.0 4:0.142480211 5:0.2 6:0.0 7:0.571428571 
0.1457687274947737 5634.058311202331 1:0.25 2:0.0 3:0.0 4:0.092348285 5:0.109090909 6:0.0 7:0.0 
0.1457687274947737 5634.058311202331 1:0.75 2:0.0 3:0.0 4:0.158311346 5:0.2 6:0.0 7:0.142857143 
0.1457687274947737 5634.058311202331 1:0.25 2:0.2 3:0.0 4:0.116094987 5:0.145454545 6:0.0 7:0.142857143 
0.0 5634.058311202331 1:0.25 2:0.0 3:0.2 4:0.089709763 5:0.145454545 6:0.0 7:0.142857143 
0.0 5634.058311202331 1:0.25 2:0.0 3:0.0 4:0.068601583 5:0.127272727 6:0.0 7:0.142857143 
0.0 5634.058311202331 1:0.25 2:0.0 3:0.0 4:0.08707124 5:0.127272727 6:0.096153846 7:0.142857143 
0.1457687274947737 5634.058311202331 1:0.25 2:0.0 3:0.0 4:0.023746702 5:0.036363636 6:0.0 7:0.142857143 
0.1457687274947737 5634.058311202331 1:0.25 2:0.0 3:0.2 4:0.058047493 5:0.090909091 6:0.192307692 7:0.0 
0.0 5634.058311202331 1:0.25 2:0.0 3:0.0 4:0.063324538 5:0.109090909 6:0.0 7:0.142857143 
0.0 5634.058311202331 1:0.75 2:0.0 3:0.0 4:0.092348285 5:0.127272727 6:0.0 7:0.0 
0.1457687274947737 5634.058311202331 1:0.25 2:0.0 3:0.2 4:0.073878628 5:0.090909091 6:0.096153846 7:0.142857143 
0.0 5634.058311202331 1:0.25 2:0.0 3:0.0 4:0.052770449 5:0.090909091 6:0.096153846 7:0.0 
0.1457687274947737 5549.535676350954 1:0.25 2:0.4 3:0.0 4:0.094986807 5:0.145454545 6:0.096153846 7:0.142857143 
0.1457687274947737 0.0 1:0.25 2:0.0 3:0.0 4:0.08707124 5:0.109090909 6:0.0 7:0.142857143 
0.1457687274947737 5634.058311202331 1:0.25 2:0.0 3:0.0 4:0.026385224 5:0.036363636 6:0.0 7:0.0 
0.1457687274947737 2435.60112956263 1:0.75 2:0.0 3:0.0 4:0.131926121 5:0.163636364 6:0.0 7:0.142857143 
0.1457687274947737 0.0 1:0.75 2:0.0 3:0.0 4:0.155672823 5:0.218181818 6:0.0 7:0.571428571 
0.1457687274947737 5634.058311202331 1:0.25 2:0.0 3:0.0 4:0.179419525 5:0.2 6:0.096153846 7:0.142857143 
0.1457687274947737 0.0 1:0.25 2:0.0 3:0.0 4:0.102902375 5:0.127272727 6:0.0 7:0.142857143 
0.1457687274947737 5634.058311202331 1:0.25 2:0.0 3:0.0 4:0.034300792 5:0.036363636 6:0.096153846 7:0.0 
0.1457687274947737 5634.058311202331 1:0.25 2:0.0 3:0.0 4:0.129287599 5:0.163636364 6:0.0 7:0.142857143 
0.1457687274947737 3871.648352654909 1:0.25 2:0.2 3:0.0 4:0.09762533 5:0.109090909 6:0.096153846 7:0.142857143 
0.0 5634.058311202331 1:0.25 2:0.0 3:0.0 4:0.071240106 5:0.090909091 6:0.096153846 7:0.142857143 
0.1457687274947737 5634.058311202331 1:0.25 2:0.0 3:0.0 4:0.023746702 5:0.036363636 6:0.096153846 7:0.0 
0.0 5634.058311202331 1:0.25 2:0.0 3:0.0 4:0.08707124 5:0.127272727 6:0.096153846 7:0.142857143 
0.0 5634.058311202331 1:0.25 2:0.0 3:0.0 4:0.100263852 5:0.163636364 6:0.0 7:0.142857143 
0.0 5634.058311202331 1:0.25 2:0.0 3:0.0 4:0.042216359 5:0.072727273 6:0.096153846 7:0.142857143 
0.1457687274947737 5634.058311202331 1:0.25 2:0.4 3:0.0 4:0.179419525 5:0.2 6:0.096153846 7:0.142857143 
0.0 14.930008419257383 1:0.25 2:0.0 3:0.0 4:0.110817942 5:0.163636364 6:0.0 7:0.285714286 
0.0 5634.058311202331 1:0.25 2:0.0 3:0.0 4:0.060686016 5:0.090909091 6:0.0 7:0.142857143 
0.0 2.261501419771937 1:0.5 2:0.6 3:0.0 4:0.203166227 5:0.272727273 6:0.0 7:0.285714286 
0.0 5634.058311202331 1:0.25 2:0.0 3:0.0 4:0.07651715 5:0.127272727 6:0.0 7:0.142857143 
0.1457687274947737 5634.058311202331 1:0.25 2:0.0 3:0.0 4:0.08707124 5:0.109090909 6:0.096153846 7:0.142857143 
0.1457687274947737 0.0 1:0.25 2:0.2 3:0.0 4:0.200527704 5:0.236363636 6:0.0 7:0.571428571 
0.1457687274947737 5634.058311202331 1:0.75 2:0.0 3:0.2 4:0.073878628 5:0.109090909 6:0.096153846 7:0.142857143 
0.1457687274947737 5634.058311202331 1:0.25 2:0.0 3:0.0 4:0.039577836 5:0.072727273 6:0.0 7:0.142857143 
0.0 5634.058311202331 1:0.25 2:0.2 3:0.0 4:0.052770449 5:0.090909091 6:0.0 7:0.142857143 
0.0 5634.058311202331 1:0.25 2:0.0 3:0.2 4:0.042216359 5:0.054545455 6:0.0 7:0.0 
0.1457687274947737 0.0 1:0.25 2:0.0 3:0.0 4:0.055408971 5:0.072727273 6:0.096153846 7:0.285714286 
0.1457687274947737 5634.058311202331 1:0.25 2:0.0 3:0.0 4:0.047493404 5:0.072727273 6:0.192307692 7:0.0 
0.1457687274947737 0.0 1:0.75 2:0.8 3:0.2 4:0.308707124 5:0.4 6:0.0 7:0.428571429 
0.1457687274947737 0.0 1:0.75 2:0.2 3:0.2 4:0.118733509 5:0.163636364 6:0.0 7:0.571428571 
0.0 5634.058311202331 1:0.25 2:0.0 3:0.0 4:0.094986807 5:0.145454545 6:0.096153846 7:0.142857143 
0.1457687274947737 5634.058311202331 1:0.25 2:0.0 3:0.0 4:0.131926121 5:0.163636364 6:0.096153846 7:0.142857143 
0.1457687274947737 5634.058311202331 1:0.25 2:0.0 3:0.0 4:0.10817942 5:0.127272727 6:0.096153846 7:0.142857143 
0.1457687274947737 0.0 1:0.25 2:0.0 3:0.0 4:0.089709763 5:0.109090909 6:0.096153846 7:0.428571429 
0.1457687274947737 5634.058311202331 1:0.75 2:0.0 3:0.0 4:0.063324538 5:0.109090909 6:0.0 7:0.142857143 
0.1457687274947737 4806.481513672579 1:0.25 2:0.0 3:0.0 4:0.139841689 5:0.181818182 6:0.096153846 7:0.142857143 
0.1457687274947737 5634.058311202331 1:0.25 2:0.0 3:0.0 4:0.09762533 5:0.145454545 6:0.0 7:0.142857143 
0.1457687274947737 5634.058311202331 1:0.25 2:0.2 3:0.0 4:0.116094987 5:0.163636364 6:0.096153846 7:0.142857143 
0.0 5634.058311202331 1:0.25 2:0.0 3:0.0 4:0.073878628 5:0.127272727 6:0.0 7:0.142857143 
0.1457687274947737 0.0 1:0.25 2:0.0 3:0.0 4:0.084432718 5:0.109090909 6:0.0 7:0.142857143 
0.0 5634.058311202331 1:0.25 2:0.0 3:0.0 4:0.081794195 5:0.145454545 6:0.096153846 7:0.142857143 
0.1457687274947737 5634.058311202331 1:0.25 2:0.0 3:0.0 4:0.118733509 5:0.163636364 6:0.0 7:0.142857143 
0.1457687274947737 5634.058311202331 1:0.25 2:0.0 3:0.0 4:0.094986807 5:0.127272727 6:0.0 7:0.142857143 
0.1457687274947737 5206.905513846359 1:0.25 2:0.2 3:0.0 4:0.018469657 5:0.036363636 6:0.0 7:0.142857143 
0.0 5634.058311202331 1:0.25 2:0.2 3:0.2 4:0.081794195 5:0.127272727 6:0.0 7:0.142857143 
0.0 5634.058311202331 1:0.25 2:0.2 3:0.0 4:0.058047493 5:0.090909091 6:0.0 7:0.142857143 
0.1457687274947737 5634.058311202331 1:0.25 2:0.0 3:0.0 4:0.036939314 5:0.054545455 6:0.096153846 7:0.142857143 
0.0 5634.058311202331 1:0.25 2:0.0 3:0.0 4:0.047493404 5:0.072727273 6:0.0 7:0.142857143 
0.1457687274947737 5634.058311202331 1:0.75 2:0.0 3:0.2 4:0.084432718 5:0.109090909 6:0.096153846 7:0.142857143 
0.0 5634.058311202331 1:0.25 2:0.0 3:0.0 4:0.044854881 5:0.072727273 6:0.0 7:0.0 
0.1457687274947737 5634.058311202331 1:0.75 2:0.0 3:0.0 4:0.079155673 5:0.145454545 6:0.0 7:0.142857143 
0.0 5634.058311202331 1:0.25 2:0.0 3:0.0 4:0.071240106 5:0.090909091 6:0.096153846 7:0.0 
0.1457687274947737 4757.169062219836 1:0.25 2:0.0 3:0.0 4:0.116094987 5:0.127272727 6:0.096153846 7:0.142857143 
0.0 5634.058311202331 1:0.25 2:0.0 3:0.0 4:0.084432718 5:0.109090909 6:0.096153846 7:0.142857143 
0.1457687274947737 4909.6719160243465 1:0.75 2:0.0 3:0.0 4:0.142480211 5:0.145454545 6:0.0 7:0.142857143 
0.1457687274947737 5634.058311202331 1:0.25 2:0.0 3:0.0 4:0.065963061 5:0.072727273 6:0.0 7:0.142857143 
0.0 5634.058311202331 1:0.25 2:0.2 3:0.0 4:0.050131926 5:0.072727273 6:0.0 7:0.142857143 
0.1457687274947737 5634.058311202331 1:0.25 2:0.0 3:0.0 4:0.118733509 5:0.163636364 6:0.096153846 7:0.142857143 
0.1457687274947737 5634.058311202331 1:0.25 2:0.0 3:0.0 4:0.021108179 5:0.054545455 6:0.096153846 7:0.142857143 
0.1457687274947737 5634.058311202331 1:0.25 2:0.0 3:0.0 4:0.034300792 5:0.054545455 6:0.096153846 7:0.142857143 
0.1457687274947737 5634.058311202331 1:0.75 2:0.0 3:0.0 4:0.226912929 5:0.254545455 6:0.0 7:0.142857143 
0.1457687274947737 5634.058311202331 1:0.75 2:0.0 3:0.2 4:0.100263852 5:0.127272727 6:0.0 7:0.142857143 
0.0 5634.058311202331 1:0.25 2:0.0 3:0.0 4:0.063324538 5:0.090909091 6:0.096153846 7:0.142857143 
0.0 5634.058311202331 1:0.25 2:0.0 3:0.0 4:0.060686016 5:0.090909091 6:0.0 7:0.142857143 
0.0 3078.448460450454 1:0.75 2:0.0 3:0.0 4:0.131926121 5:0.181818182 6:0.0 7:0.142857143 
0.1457687274947737 0.0 1:0.25 2:0.2 3:0.0 4:0.060686016 5:0.090909091 6:0.0 7:0.571428571 
0.1457687274947737 5634.058311202331 1:0.75 2:0.0 3:0.0 4:0.102902375 5:0.127272727 6:0.0 7:0.142857143 
0.1457687274947737 5634.058311202331 1:0.25 2:0.2 3:0.0 4:0.113456464 5:0.181818182 6:0.0 7:0.142857143 
0.1457687274947737 5634.058311202331 1:0.25 2:0.2 3:0.0 4:0.105540897 5:0.163636364 6:0.0 7:0.142857143 
0.0 5634.058311202331 1:0.25 2:0.0 3:0.0 4:0.092348285 5:0.127272727 6:0.096153846 7:0.142857143 
0.027265593152042873 5634.058311202331 1:0.25 2:0.0 3:0.0 4:0.044854881 5:0.090909091 6:0.0 7:0.0 
0.1457687274947737 5634.058311202331 1:0.25 2:0.2 3:0.0 4:0.081794195 5:0.109090909 6:0.0 7:0.142857143 
0.1457687274947737 5634.058311202331 1:0.25 2:0.0 3:0.0 4:0.023746702 5:0.036363636 6:0.0 7:0.142857143 
0.1457687274947737 5634.058311202331 1:0.25 2:0.0 3:0.0 4:0.042216359 5:0.054545455 6:0.0 7:0.142857143 
0.0 5634.058311202331 1:0.25 2:0.0 3:0.0 4:0.071240106 5:0.109090909 6:0.096153846 7:0.0 
0.0 5611.595203882517 1:0.25 2:0.2 3:0.0 4:0.105540897 5:0.2 6:0.0 7:0.142857143 
0.1457687274947737 5634.058311202331 1:0.25 2:0.0 3:0.0 4:0.092348285 5:0.109090909 6:0.096153846 7:0.0 
0.1457687274947737 0.0 1:0.25 2:0.2 3:0.0 4:0.118733509 5:0.163636364 6:0.0 7:0.571428571 
0.1457687274947737 0.0 1:0.25 2:0.0 3:0.0 4:0.079155673 5:0.109090909 6:0.0 7:0.142857143 
0.1457687274947737 5634.058311202331 1:0.75 2:0.0 3:0.0 4:0.192612137 5:0.272727273 6:0.0 7:0.142857143 
0.0 5634.058311202331 1:0.25 2:0.2 3:0.2 4:0.055408971 5:0.090909091 6:0.096153846 7:0.142857143 
0.0 5634.058311202331 1:0.25 2:0.0 3:0.0 4:0.081794195 5:0.127272727 6:0.0 7:0.142857143 
0.0 5634.058311202331 1:0.25 2:0.0 3:0.0 4:0.050131926 5:0.072727273 6:0.0 7:0.0 
0.1457687274947737 0.0 1:0.25 2:0.0 3:0.0 4:0.158311346 5:0.163636364 6:0.096153846 7:0.142857143 
0.1457687274947737 5634.058311202331 1:0.25 2:0.0 3:0.2 4:0.034300792 5:0.054545455 6:0.096153846 7:0.0 
0.1457687274947737 5634.058311202331 1:0.25 2:0.2 3:0.0 4:0.094986807 5:0.109090909 6:0.0 7:0.142857143 
0.1457687274947737 4513.958109178064 1:0.25 2:0.0 3:0.0 4:0.131926121 5:0.145454545 6:0.0 7:0.142857143 
0.11520044827743459 5634.058311202331 1:0.25 2:0.2 3:0.2 4:0.058047493 5:0.090909091 6:0.0 7:0.0 
0.1457687274947737 5634.058311202331 1:0.25 2:0.0 3:0.0 4:0.113456464 5:0.145454545 6:0.0 7:0.142857143 
0.1457687274947737 5634.058311202331 1:0.25 2:0.0 3:0.2 4:0.034300792 5:0.054545455 6:0.0 7:0.142857143 
0.1457687274947737 5634.058311202331 1:0.25 2:0.2 3:0.0 4:0.073878628 5:0.090909091 6:0.0 7:0.142857143 
0.1457687274947737 0.0 1:0.25 2:0.0 3:0.0 4:0.079155673 5:0.109090909 6:0.0 7:0.142857143 
0.1457687274947737 5634.058311202331 1:0.25 2:0.0 3:0.0 4:0.039577836 5:0.054545455 6:0.096153846 7:0.142857143 
0.1457687274947737 5634.058311202331 1:0.25 2:0.0 3:0.0 4:0.023746702 5:0.036363636 6:0.0 7:0.142857143 
0.1457687274947737 0.0 1:0.25 2:0.2 3:0.0 4:0.192612137 5:0.290909091 6:0.0 7:0.571428571 
0.0 5634.058311202331 1:0.25 2:0.0 3:0.0 4:0.058047493 5:0.072727273 6:0.096153846 7:0.142857143 
0.0 5634.058311202331 1:0.25 2:0.2 3:0.0 4:0.065963061 5:0.090909091 6:0.0 7:0.142857143 
0.0 5634.058311202331 1:0.25 2:0.2 3:0.0 4:0.042216359 5:0.072727273 6:0.0 7:0.142857143 
0.0 5634.058311202331 1:0.25 2:0.2 3:0.0 4:0.07651715 5:0.127272727 6:0.0 7:0.142857143 
0.0941252972413227 687.6118672798335 1:0.25 2:0.0 3:0.2 4:0.131926121 5:0.181818182 6:0.096153846 7:0.142857143 
0.1457687274947737 5634.058311202331 1:0.25 2:0.0 3:0.0 4:0.036939314 5:0.054545455 6:0.0 7:0.0 
0.0 5634.058311202331 1:0.25 2:0.0 3:0.0 4:0.044854881 5:0.072727273 6:0.0 7:0.0 
0.1457687274947737 0.0 1:0.25 2:0.0 3:0.2 4:0.110817942 5:0.145454545 6:0.0 7:0.571428571 
0.1457687274947737 0.0 1:0.25 2:0.0 3:0.0 4:0.047493404 5:0.072727273 6:0.096153846 7:0.285714286 
0.1457687274947737 5634.058311202331 1:0.25 2:0.0 3:0.0 4:0.163588391 5:0.218181818 6:0.0 7:0.142857143 
0.1457687274947737 5634.058311202331 1:0.75 2:0.2 3:0.0 4:0.10817942 5:0.145454545 6:0.0 7:0.142857143 
0.0 5634.058311202331 1:0.25 2:0.0 3:0.0 4:0.065963061 5:0.109090909 6:0.096153846 7:0.142857143 
0.1457687274947737 0.0 1:0.25 2:0.0 3:0.0 4:0.142480211 5:0.163636364 6:0.096153846 7:0.142857143 
0.1457687274947737 5634.058311202331 1:0.25 2:0.0 3:0.2 4:0.021108179 5:0.036363636 6:0.0 7:0.0 
0.0 5634.058311202331 1:0.25 2:0.0 3:0.0 4:0.060686016 5:0.090909091 6:0.0 7:0.0 
0.1457687274947737 5634.058311202331 1:0.25 2:0.0 3:0.0 4:0.021108179 5:0.036363636 6:0.0 7:0.142857143 
0.0 5634.058311202331 1:0.25 2:0.0 3:0.0 4:0.089709763 5:0.127272727 6:0.096153846 7:0.142857143 
0.1457687274947737 0.0 1:0.75 2:0.0 3:0.0 4:0.298153034 5:0.327272727 6:0.0 7:0.571428571 
0.1457687274947737 5364.402426122629 1:0.25 2:0.2 3:0.0 4:0.129287599 5:0.181818182 6:0.096153846 7:0.0 
0.0 165.57294928854907 1:0.75 2:0.2 3:0.0 4:0.234828496 5:0.272727273 6:0.096153846 7:0.285714286 
0.07957561095766263 0.0 1:0.5 2:0.0 3:0.4 4:0.094986807 5:0.145454545 6:0.096153846 7:0.285714286 
0.1457687274947737 5634.058311202331 1:0.25 2:0.0 3:0.0 4:0.10817942 5:0.109090909 6:0.096153846 7:0.142857143 
0.1457687274947737 2290.4734528943545 1:0.75 2:0.0 3:0.0 4:0.160949868 5:0.2 6:0.096153846 7:0.142857143 
0.1457687274947737 0.0 1:0.25 2:0.0 3:0.0 4:0.113456464 5:0.127272727 6:0.096153846 7:0.142857143 
0.1457687274947737 5634.058311202331 1:0.25 2:0.0 3:0.0 4:0.110817942 5:0.145454545 6:0.0 7:0.142857143 
0.0 5634.058311202331 1:0.25 2:0.2 3:0.0 4:0.063324538 5:0.090909091 6:0.0 7:0.142857143 
0.1457687274947737 5634.058311202331 1:0.25 2:0.0 3:0.2 4:0.036939314 5:0.054545455 6:0.0 7:0.0 
0.1457687274947737 0.0 1:0.75 2:0.0 3:0.2 4:0.274406332 5:0.363636364 6:0.0 7:0.571428571 
0.0 5634.058311202331 1:0.25 2:0.0 3:0.0 4:0.063324538 5:0.090909091 6:0.096153846 7:0.142857143 
0.0 5634.058311202331 1:0.25 2:0.0 3:0.0 4:0.068601583 5:0.090909091 6:0.096153846 7:0.0 
0.1457687274947737 5634.058311202331 1:0.25 2:0.0 3:0.0 4:0.039577836 5:0.054545455 6:0.096153846 7:0.0 
0.0 5634.058311202331 1:0.25 2:0.0 3:0.0 4:0.073878628 5:0.090909091 6:0.096153846 7:0.0 
0.1457687274947737 5634.058311202331 1:0.25 2:0.0 3:0.0 4:0.116094987 5:0.181818182 6:0.0 7:0.142857143 
0.0 5634.058311202331 1:0.25 2:0.0 3:0.0 4:0.063324538 5:0.072727273 6:0.096153846 7:0.0 
0.1457687274947737 5634.058311202331 1:0.25 2:0.0 3:0.0 4:0.118733509 5:0.163636364 6:0.0 7:0.142857143 
0.1457687274947737 5634.058311202331 1:0.25 2:0.0 3:0.4 4:0.084432718 5:0.127272727 6:0.0 7:0.142857143 
0.0 5634.058311202331 1:0.25 2:0.0 3:0.2 4:0.08707124 5:0.127272727 6:0.096153846 7:0.142857143 
0.1457687274947737 0.0 1:0.25 2:0.2 3:0.0 4:0.018469657 5:0.018181818 6:0.096153846 7:0.142857143 
0.0 5634.058311202331 1:0.25 2:0.2 3:0.0 4:0.063324538 5:0.090909091 6:0.0 7:0.142857143 
0.1457687274947737 5634.058311202331 1:0.25 2:0.2 3:0.0 4:0.124010554 5:0.145454545 6:0.0 7:0.142857143 
0.0 5634.058311202331 1:0.25 2:0.0 3:0.0 4:0.058047493 5:0.072727273 6:0.096153846 7:0.0 
0.0 5634.058311202331 1:0.25 2:0.0 3:0.2 4:0.047493404 5:0.054545455 6:0.096153846 7:0.0 
0.1457687274947737 7.974681877083689 1:0.25 2:0.2 3:0.0 4:0.131926121 5:0.127272727 6:0.0 7:0.142857143 
0.1457687274947737 5634.058311202331 1:0.25 2:0.0 3:0.0 4:0.021108179 5:0.036363636 6:0.0 7:0.142857143 
0.0 5634.058311202331 1:0.25 2:0.2 3:0.0 4:0.089709763 5:0.145454545 6:0.0 7:0.142857143 
0.0 5634.058311202331 1:0.25 2:0.0 3:0.0 4:0.065963061 5:0.109090909 6:0.096153846 7:0.0 
0.0 5634.058311202331 1:0.25 2:0.2 3:0.0 4:0.052770449 5:0.090909091 6:0.0 7:0.142857143 
0.1457687274947737 0.0 1:0.25 2:0.0 3:0.0 4:0.071240106 5:0.127272727 6:0.096153846 7:0.571428571 
0.1457687274947737 5634.058311202331 1:0.25 2:0.0 3:0.0 4:0.034300792 5:0.054545455 6:0.096153846 7:0.142857143 
0.1457687274947737 0.0 1:0.25 2:0.2 3:0.0 4:0.081794195 5:0.109090909 6:0.096153846 7:0.142857143 
0.0 5634.058311202331 1:0.75 2:0.0 3:0.0 4:0.142480211 5:0.181818182 6:0.0 7:0.142857143 
0.1457687274947737 5634.058311202331 1:0.25 2:0.0 3:0.0 4:0.031662269 5:0.036363636 6:0.096153846 7:0.0 
0.1457687274947737 5634.058311202331 1:0.25 2:0.0 3:0.2 4:0.084432718 5:0.109090909 6:0.0 7:0.142857143 
0.1457687274947737 5634.058311202331 1:0.25 2:0.0 3:0.0 4:0.050131926 5:0.054545455 6:0.096153846 7:0.142857143 
0.1457687274947737 2527.8618886728023 1:0.25 2:0.0 3:0.0 4:0.250659631 5:0.254545455 6:0.0 7:0.142857143 
0.1457687274947737 0.0 1:0.25 2:0.4 3:0.0 4:0.113456464 5:0.145454545 6:0.0 7:0.571428571 
0.1457687274947737 5634.058311202331 1:0.25 2:0.0 3:0.0 4:0.039577836 5:0.054545455 6:0.0 7:0.142857143 
0.1457687274947737 5634.058311202331 1:0.25 2:0.0 3:0.0 4:0.094986807 5:0.145454545 6:0.0 7:0.142857143 
0.06470717818609086 5634.058311202331 1:0.75 2:0.2 3:0.2 4:0.150395778 5:0.181818182 6:0.0 7:0.142857143 
0.1457687274947737 0.0 1:0.25 2:0.0 3:0.0 4:0.382585752 5:0.472727273 6:0.096153846 7:0.428571429 
0.0 5634.058311202331 1:0.25 2:0.0 3:0.0 4:0.09762533 5:0.163636364 6:0.0 7:0.142857143 
0.0 5634.058311202331 1:0.25 2:0.0 3:0.0 4:0.07651715 5:0.109090909 6:0.096153846 7:0.142857143 
0.1457687274947737 0.0 1:0.25 2:0.0 3:0.0 4:0.126649077 5:0.163636364 6:0.0 7:0.571428571 
0.1457687274947737 5634.058311202331 1:0.25 2:0.0 3:0.0 4:0.089709763 5:0.127272727 6:0.0 7:0.142857143 
0.1457687274947737 0.0 1:0.25 2:0.0 3:0.0 4:0.131926121 5:0.181818182 6:0.096153846 7:0.571428571 
0.1457687274947737 5634.058311202331 1:0.25 2:0.2 3:0.0 4:0.08707124 5:0.109090909 6:0.0 7:0.142857143 
0.1457687274947737 0.0 1:0.25 2:0.2 3:0.0 4:0.018469657 5:0.018181818 6:0.096153846 7:0.142857143 
0.1457687274947737 5634.058311202331 1:0.75 2:0.0 3:0.0 4:0.100263852 5:0.145454545 6:0.096153846 7:0.142857143 
0.1457687274947737 5634.058311202331 1:0.25 2:0.2 3:0.0 4:0.089709763 5:0.109090909 6:0.0 7:0.142857143 
0.1457687274947737 5634.058311202331 1:0.25 2:0.0 3:0.0 4:0.036939314 5:0.054545455 6:0.0 7:0.142857143 
0.1457687274947737 5634.058311202331 1:0.25 2:0.0 3:0.0 4:0.124010554 5:0.163636364 6:0.0 7:0.142857143 
0.0 5634.058311202331 1:0.25 2:0.0 3:0.0 4:0.092348285 5:0.127272727 6:0.096153846 7:0.142857143 
0.0 5634.058311202331 1:0.25 2:0.0 3:0.0 4:0.063324538 5:0.090909091 6:0.0 7:0.142857143 
0.0 5634.058311202331 1:0.25 2:0.0 3:0.2 4:0.068601583 5:0.109090909 6:0.096153846 7:0.0 
0.1457687274947737 5350.127280183796 1:0.25 2:0.0 3:0.0 4:0.139841689 5:0.2 6:0.096153846 7:0.142857143 
0.1457687274947737 4527.622455535674 1:0.25 2:0.2 3:0.0 4:0.052770449 5:0.054545455 6:0.0 7:0.142857143 
0.1457687274947737 5634.058311202331 1:0.25 2:0.4 3:0.0 4:0.168865435 5:0.2 6:0.0 7:0.142857143 
0.1457687274947737 5634.058311202331 1:0.25 2:0.0 3:0.0 4:0.029023747 5:0.054545455 6:0.0 7:0.0 
0.0 5634.058311202331 1:0.25 2:0.0 3:0.0 4:0.058047493 5:0.090909091 6:0.096153846 7:0.142857143 
0.1457687274947737 3938.2286541039266 1:0.25 2:0.0 3:0.0 4:0.131926121 5:0.163636364 6:0.096153846 7:0.142857143 
0.0 5634.058311202331 1:0.25 2:0.2 3:0.0 4:0.08707124 5:0.145454545 6:0.0 7:0.142857143 
0.1457687274947737 5634.058311202331 1:0.25 2:0.0 3:0.0 4:0.17414248 5:0.2 6:0.0 7:0.142857143 
0.1457687274947737 5634.058311202331 1:0.25 2:0.0 3:0.0 4:0.034300792 5:0.054545455 6:0.0 7:0.0 
0.0 5634.058311202331 1:0.25 2:0.2 3:0.0 4:0.07651715 5:0.109090909 6:0.0 7:0.142857143 
0.13998693193507353 5634.058311202331 1:0.25 2:0.0 3:0.0 4:0.073878628 5:0.109090909 6:0.0 7:0.0 
0.1457687274947737 151.72692010554334 1:0.25 2:0.4 3:0.2 4:0.242744063 5:0.381818182 6:0.096153846 7:0.285714286 
0.1457687274947737 0.0 1:0.25 2:0.0 3:0.0 4:0.298153034 5:0.436363636 6:0.096153846 7:0.571428571 
0.1457687274947737 5634.058311202331 1:0.25 2:0.0 3:0.2 4:0.036939314 5:0.054545455 6:0.096153846 7:0.0 
0.1457687274947737 5634.058311202331 1:0.25 2:0.2 3:0.0 4:0.09762533 5:0.127272727 6:0.096153846 7:0.142857143 
0.14428263601028934 5634.058311202331 1:0.25 2:0.2 3:0.0 4:0.089709763 5:0.127272727 6:0.0 7:0.142857143 
0.1457687274947737 5610.2869651366445 1:0.25 2:0.2 3:0.0 4:0.089709763 5:0.127272727 6:0.0 7:0.142857143 
0.0 5634.058311202331 1:0.25 2:0.0 3:0.0 4:0.050131926 5:0.090909091 6:0.0 7:0.142857143 
0.1457687274947737 5468.45598842588 1:0.25 2:0.2 3:0.0 4:0.118733509 5:0.145454545 6:0.0 7:0.142857143 
0.1457687274947737 3474.0276270449713 1:0.25 2:0.0 3:0.0 4:0.105540897 5:0.145454545 6:0.0 7:0.142857143 
0.1457687274947737 0.0 1:0.25 2:0.0 3:0.0 4:0.255936675 5:0.254545455 6:0.096153846 7:0.571428571 
0.0 5634.058311202331 1:0.25 2:0.0 3:0.0 4:0.071240106 5:0.090909091 6:0.096153846 7:0.142857143 
0.1457687274947737 0.0 1:0.25 2:0.0 3:0.0 4:0.084432718 5:0.109090909 6:0.0 7:0.142857143 
0.1457687274947737 0.0 1:0.25 2:0.2 3:0.0 4:0.224274406 5:0.272727273 6:0.0 7:0.571428571 
0.1457687274947737 5265.708350044942 1:0.25 2:0.2 3:0.0 4:0.100263852 5:0.127272727 6:0.096153846 7:0.142857143 
0.1457687274947737 21.489673851173297 1:0.25 2:0.0 3:0.8 4:0.153034301 5:0.181818182 6:0.096153846 7:0.285714286 
0.1457687274947737 5634.058311202331 1:0.25 2:0.0 3:0.0 4:0.023746702 5:0.036363636 6:0.192307692 7:0.0 
0.1457687274947737 0.0 1:0.75 2:0.4 3:0.0 4:0.226912929 5:0.236363636 6:0.096153846 7:0.571428571 
0.1457687274947737 5634.058311202331 1:0.25 2:0.2 3:0.0 4:0.050131926 5:0.072727273 6:0.192307692 7:0.142857143 
0.1457687274947737 5634.058311202331 1:0.75 2:0.2 3:0.0 4:0.084432718 5:0.127272727 6:0.096153846 7:0.0 
0.0 5634.058311202331 1:0.25 2:0.0 3:0.2 4:0.047493404 5:0.072727273 6:0.096153846 7:0.0 
0.0 5634.058311202331 1:0.25 2:0.0 3:0.0 4:0.060686016 5:0.072727273 6:0.0 7:0.0 
0.1457687274947737 2394.6940378087857 1:0.75 2:0.0 3:0.4 4:0.124010554 5:0.145454545 6:0.0 7:0.142857143 
0.1457687274947737 5634.058311202331 1:0.25 2:0.0 3:0.0 4:0.084432718 5:0.127272727 6:0.0 7:0.142857143 
0.1457687274947737 0.0 1:0.75 2:0.2 3:0.4 4:0.287598945 5:0.363636364 6:0.0 7:0.571428571 
0.0 3080.8974536800793 1:0.25 2:0.2 3:0.0 4:0.055408971 5:0.072727273 6:0.0 7:0.142857143 
0.1457687274947737 5634.058311202331 1:0.25 2:0.0 3:0.0 4:0.029023747 5:0.054545455 6:0.0 7:0.142857143 
0.1457687274947737 0.0 1:0.25 2:0.2 3:0.0 4:0.121372032 5:0.2 6:0.0 7:0.571428571 
0.1457687274947737 3783.6509814831325 1:0.25 2:0.0 3:0.0 4:0.139841689 5:0.2 6:0.0 7:0.142857143 
0.1457687274947737 0.0 1:0.25 2:0.2 3:0.0 4:0.327176781 5:0.290909091 6:0.0 7:0.571428571 
0.1457687274947737 5634.058311202331 1:0.25 2:0.0 3:0.0 4:0.110817942 5:0.145454545 6:0.0 7:0.142857143 
0.1457687274947737 0.0 1:0.25 2:0.0 3:0.0 4:0.147757256 5:0.236363636 6:0.096153846 7:0.571428571 
0.1457687274947737 5634.058311202331 1:0.25 2:0.2 3:0.0 4:0.052770449 5:0.090909091 6:0.096153846 7:0.142857143 
0.0 5634.058311202331 1:0.25 2:0.0 3:0.2 4:0.055408971 5:0.090909091 6:0.096153846 7:0.142857143 
0.1457687274947737 5634.058311202331 1:0.25 2:0.0 3:0.0 4:0.126649077 5:0.163636364 6:0.0 7:0.0 
0.1457687274947737 5634.058311202331 1:0.25 2:0.0 3:0.0 4:0.139841689 5:0.163636364 6:0.0 7:0.0 
0.0 5634.058311202331 1:0.25 2:0.0 3:0.0 4:0.071240106 5:0.109090909 6:0.096153846 7:0.0 
0.0 3.8795721891560975 1:0.25 2:0.0 3:0.0 4:0.113456464 5:0.218181818 6:0.096153846 7:0.428571429 
0.1457687274947737 0.0 1:0.25 2:0.0 3:0.2 4:0.065963061 5:0.072727273 6:0.0 7:0.285714286 
0.1457687274947737 5634.058311202331 1:0.75 2:0.0 3:0.0 4:0.084432718 5:0.145454545 6:0.0 7:0.142857143 
0.1457687274947737 1.8157803677163686 1:0.25 2:0.6 3:0.0 4:0.063324538 5:0.072727273 6:0.0 7:0.142857143 
0.1457687274947737 0.0 1:0.75 2:0.2 3:0.0 4:0.160949868 5:0.218181818 6:0.096153846 7:0.571428571 
0.1457687274947737 0.0 1:0.75 2:0.4 3:0.0 4:0.496042216 5:0.618181818 6:0.0 7:0.428571429 
0.1457687274947737 5634.058311202331 1:0.25 2:0.0 3:0.0 4:0.031662269 5:0.054545455 6:0.096153846 7:0.142857143 
0.0 5634.058311202331 1:0.25 2:0.0 3:0.0 4:0.071240106 5:0.109090909 6:0.096153846 7:0.0 
0.1457687274947737 5634.058311202331 1:0.25 2:0.2 3:0.0 4:0.039577836 5:0.054545455 6:0.0 7:0.142857143 
0.1457687274947737 5634.058311202331 1:0.25 2:0.0 3:0.0 4:0.031662269 5:0.054545455 6:0.096153846 7:0.0 
0.1457687274947737 5634.058311202331 1:0.25 2:0.0 3:0.2 4:0.039577836 5:0.036363636 6:0.0 7:0.0 
0.1457687274947737 0.0 1:0.25 2:0.0 3:0.0 4:0.150395778 5:0.181818182 6:0.0 7:0.285714286 
0.1457687274947737 0.0 1:0.25 2:0.0 3:0.0 4:0.192612137 5:0.218181818 6:0.096153846 7:0.571428571 
0.1457687274947737 5634.058311202331 1:0.75 2:0.0 3:0.0 4:0.09762533 5:0.127272727 6:0.0 7:0.142857143 
0.0 5634.058311202331 1:0.25 2:0.2 3:0.0 4:0.079155673 5:0.109090909 6:0.0 7:0.142857143 
0.1457687274947737 5177.419256662321 1:0.25 2:0.2 3:0.0 4:0.113456464 5:0.145454545 6:0.0 7:0.142857143 
0.0 5634.058311202331 1:0.25 2:0.0 3:0.0 4:0.071240106 5:0.090909091 6:0.096153846 7:0.0 
0.1457687274947737 5634.058311202331 1:0.25 2:0.0 3:0.0 4:0.168865435 5:0.2 6:0.096153846 7:0.142857143 
0.1457687274947737 0.0 1:0.25 2:0.0 3:0.0 4:0.224274406 5:0.272727273 6:0.096153846 7:0.285714286 
0.1457687274947737 0.0 1:0.25 2:0.0 3:0.0 4:0.102902375 5:0.127272727 6:0.0 7:0.142857143 
0.1457687274947737 1617.517397183338 1:0.25 2:0.0 3:0.0 4:0.142480211 5:0.2 6:0.096153846 7:0.142857143 
0.1457687274947737 5634.058311202331 1:0.25 2:0.0 3:0.0 4:0.116094987 5:0.181818182 6:0.0 7:0.142857143 
0.0 5634.058311202331 1:0.25 2:0.0 3:0.0 4:0.073878628 5:0.127272727 6:0.0 7:0.142857143 
0.0 5634.058311202331 1:0.25 2:0.0 3:0.0 4:0.08707124 5:0.127272727 6:0.096153846 7:0.142857143 
0.1457687274947737 5634.058311202331 1:0.25 2:0.0 3:0.2 4:0.036939314 5:0.054545455 6:0.0 7:0.0 
0.0 5634.058311202331 1:0.25 2:0.0 3:0.0 4:0.068601583 5:0.109090909 6:0.0 7:0.142857143 
0.1457687274947737 0.0 1:0.5 2:0.0 3:0.2 4:0.226912929 5:0.272727273 6:0.096153846 7:0.571428571 
0.0 5634.058311202331 1:0.25 2:0.0 3:0.2 4:0.055408971 5:0.072727273 6:0.096153846 7:0.0 
0.0 5634.058311202331 1:0.25 2:0.0 3:0.0 4:0.050131926 5:0.072727273 6:0.096153846 7:0.0 
0.1457687274947737 0.0 1:0.25 2:0.0 3:0.2 4:0.142480211 5:0.2 6:0.0 7:0.571428571 
0.0 5634.058311202331 1:0.25 2:0.0 3:0.0 4:0.042216359 5:0.072727273 6:0.096153846 7:0.142857143 
0.1457687274947737 4957.080117899355 1:0.25 2:0.0 3:0.0 4:0.142480211 5:0.181818182 6:0.0 7:0.142857143 
0.1457687274947737 5634.058311202331 1:0.25 2:0.0 3:0.0 4:0.044854881 5:0.090909091 6:0.0 7:0.0 
0.1457687274947737 5634.058311202331 1:0.25 2:0.0 3:0.0 4:0.160949868 5:0.218181818 6:0.0 7:0.142857143 
0.0 5634.058311202331 1:0.25 2:0.0 3:0.0 4:0.073878628 5:0.109090909 6:0.096153846 7:0.0 
0.1457687274947737 0.0 1:0.25 2:0.0 3:0.2 4:0.110817942 5:0.145454545 6:0.0 7:0.571428571 
0.0 5634.058311202331 1:0.25 2:0.0 3:0.0 4:0.060686016 5:0.072727273 6:0.096153846 7:0.0 
0.1457687274947737 5634.058311202331 1:0.25 2:0.0 3:0.0 4:0.029023747 5:0.036363636 6:0.096153846 7:0.142857143 
0.0 5634.058311202331 1:0.25 2:0.2 3:0.0 4:0.079155673 5:0.127272727 6:0.0 7:0.142857143 
0.1457687274947737 5634.058311202331 1:0.25 2:0.0 3:0.0 4:0.023746702 5:0.036363636 6:0.096153846 7:0.0 
0.0 5634.058311202331 1:0.25 2:0.0 3:0.0 4:0.073878628 5:0.127272727 6:0.096153846 7:0.142857143 
0.1457687274947737 5634.058311202331 1:0.25 2:0.2 3:0.0 4:0.047493404 5:0.072727273 6:0.192307692 7:0.142857143 
0.1457687274947737 0.0 1:0.25 2:0.0 3:0.0 4:0.07651715 5:0.109090909 6:0.0 7:0.285714286 
0.1457687274947737 5634.058311202331 1:0.75 2:0.0 3:0.0 4:0.08707124 5:0.127272727 6:0.096153846 7:0.142857143 
0.1457687274947737 0.0 1:0.25 2:0.0 3:0.0 4:0.134564644 5:0.2 6:0.0 7:0.142857143 
0.1457687274947737 0.0 1:0.25 2:0.4 3:0.4 4:0.274406332 5:0.327272727 6:0.0 7:0.428571429 
0.1457687274947737 5634.058311202331 1:0.25 2:0.0 3:0.0 4:0.121372032 5:0.163636364 6:0.0 7:0.142857143 
0.1457687274947737 0.0 1:0.25 2:0.0 3:0.0 4:0.121372032 5:0.181818182 6:0.0 7:0.571428571 
0.1457687274947737 0.0 1:0.25 2:0.0 3:0.0 4:0.039577836 5:0.072727273 6:0.0 7:0.428571429 
0.1457687274947737 0.0 1:0.75 2:0.0 3:0.4 4:0.137203166 5:0.145454545 6:0.0 7:0.571428571 
0.0 5634.058311202331 1:0.25 2:0.0 3:0.0 4:0.050131926 5:0.090909091 6:0.096153846 7:0.0 
0.1457687274947737 0.0 1:0.75 2:0.0 3:0.0 4:0.277044855 5:0.327272727 6:0.096153846 7:0.571428571 
0.0 5634.058311202331 1:0.25 2:0.0 3:0.0 4:0.055408971 5:0.090909091 6:0.0 7:0.142857143 
0.0 5634.058311202331 1:0.25 2:0.2 3:0.0 4:0.052770449 5:0.090909091 6:0.0 7:0.142857143 
0.0 5634.058311202331 1:0.25 2:0.0 3:0.0 4:0.089709763 5:0.145454545 6:0.0 7:0.142857143 
0.1457687274947737 5634.058311202331 1:0.25 2:0.0 3:0.0 4:0.052770449 5:0.054545455 6:0.0 7:0.142857143 
0.1457687274947737 0.0 1:0.25 2:0.2 3:0.0 4:0.134564644 5:0.181818182 6:0.0 7:0.571428571 
0.1457687274947737 5634.058311202331 1:0.25 2:0.0 3:0.0 4:0.116094987 5:0.163636364 6:0.0 7:0.142857143 
0.1457687274947737 5634.058311202331 1:0.25 2:0.0 3:0.0 4:0.084432718 5:0.127272727 6:0.0 7:0.142857143 
1.7942091443493878E-4 5634.058311202331 1:0.25 2:0.2 3:0.0 4:0.071240106 5:0.090909091 6:0.0 7:0.142857143 
0.0 5634.058311202331 1:0.25 2:0.0 3:0.0 4:0.092348285 5:0.127272727 6:0.096153846 7:0.142857143 
0.1457687274947737 5634.058311202331 1:0.25 2:0.0 3:0.0 4:0.110817942 5:0.145454545 6:0.0 7:0.142857143 
0.1457687274947737 5634.058311202331 1:0.75 2:0.0 3:0.0 4:0.158311346 5:0.236363636 6:0.0 7:0.142857143 
0.1457687274947737 5634.058311202331 1:0.25 2:0.0 3:0.0 4:0.065963061 5:0.072727273 6:0.096153846 7:0.142857143 
0.1457687274947737 0.0 1:0.25 2:0.0 3:0.4 4:0.079155673 5:0.109090909 6:0.096153846 7:0.285714286 
0.1457687274947737 2920.6958207598873 1:0.25 2:0.0 3:0.0 4:0.129287599 5:0.145454545 6:0.0 7:0.142857143 
0.1457687274947737 5634.058311202331 1:0.25 2:0.2 3:0.0 4:0.071240106 5:0.090909091 6:0.096153846 7:0.142857143 
0.0 5634.058311202331 1:0.75 2:0.0 3:0.0 4:0.113456464 5:0.181818182 6:0.0 7:0.142857143 
0.1457687274947737 5634.058311202331 1:0.25 2:0.0 3:0.0 4:0.023746702 5:0.036363636 6:0.096153846 7:0.142857143 
0.1457687274947737 0.0 1:0.25 2:0.0 3:0.0 4:0.124010554 5:0.181818182 6:0.0 7:0.571428571 
0.1457687274947737 5634.058311202331 1:0.25 2:0.0 3:0.0 4:0.155672823 5:0.2 6:0.0 7:0.142857143 
0.0 5634.058311202331 1:0.25 2:0.0 3:0.0 4:0.068601583 5:0.090909091 6:0.096153846 7:0.142857143 
0.0 5634.058311202331 1:0.25 2:0.2 3:0.0 4:0.081794195 5:0.145454545 6:0.0 7:0.142857143 
0.1457687274947737 0.0 1:0.25 2:0.0 3:0.6 4:0.192612137 5:0.254545455 6:0.0 7:0.571428571 
0.1457687274947737 5634.058311202331 1:0.25 2:0.0 3:0.0 4:0.031662269 5:0.054545455 6:0.0 7:0.142857143 
0.1457687274947737 5634.058311202331 1:0.25 2:0.0 3:0.2 4:0.126649077 5:0.163636364 6:0.096153846 7:0.142857143 
0.0 5634.058311202331 1:0.25 2:0.2 3:0.2 4:0.063324538 5:0.109090909 6:0.096153846 7:0.142857143 
0.0 5634.058311202331 1:0.25 2:0.0 3:0.0 4:0.084432718 5:0.127272727 6:0.096153846 7:0.142857143 
0.1457687274947737 5634.058311202331 1:0.25 2:0.0 3:0.0 4:0.036939314 5:0.072727273 6:0.0 7:0.0 
0.1457687274947737 0.0 1:0.75 2:0.4 3:0.0 4:0.142480211 5:0.2 6:0.0 7:0.571428571 
0.1457687274947737 5634.058311202331 1:0.25 2:0.0 3:0.2 4:0.055408971 5:0.090909091 6:0.0 7:0.142857143 
0.1457687274947737 5634.058311202331 1:0.25 2:0.0 3:0.0 4:0.192612137 5:0.272727273 6:0.096153846 7:0.142857143 
0.0 5634.058311202331 1:0.25 2:0.0 3:0.0 4:0.089709763 5:0.145454545 6:0.0 7:0.142857143 
0.1457687274947737 0.0 1:0.5 2:0.0 3:0.4 4:0.142480211 5:0.163636364 6:0.0 7:0.142857143 
0.1457687274947737 5634.058311202331 1:0.25 2:0.0 3:0.0 4:0.079155673 5:0.072727273 6:0.0 7:0.142857143 
0.1457687274947737 5634.058311202331 1:0.25 2:0.0 3:0.0 4:0.09762533 5:0.145454545 6:0.096153846 7:0.0 
0.1457687274947737 5634.058311202331 1:0.25 2:0.0 3:0.0 4:0.07651715 5:0.090909091 6:0.0 7:0.142857143 
0.0 1684.080779531827 1:0.75 2:0.0 3:0.0 4:0.126649077 5:0.163636364 6:0.0 7:0.142857143 
0.1457687274947737 5634.058311202331 1:0.25 2:0.0 3:0.0 4:0.021108179 5:0.018181818 6:0.096153846 7:0.142857143 
0.1457687274947737 5634.058311202331 1:0.25 2:0.0 3:0.0 4:0.124010554 5:0.163636364 6:0.0 7:0.142857143 
0.1457687274947737 5634.058311202331 1:0.25 2:0.0 3:0.0 4:0.113456464 5:0.145454545 6:0.0 7:0.142857143 
0.1457687274947737 5634.058311202331 1:0.25 2:0.0 3:0.0 4:0.10817942 5:0.127272727 6:0.096153846 7:0.142857143 
0.1457687274947737 31.135997331340374 1:0.25 2:0.2 3:0.4 4:0.110817942 5:0.145454545 6:0.096153846 7:0.142857143 
0.1457687274947737 199.90089118356556 1:0.75 2:0.0 3:0.0 4:0.150395778 5:0.218181818 6:0.096153846 7:0.0 
0.0 5634.058311202331 1:0.25 2:0.0 3:0.2 4:0.039577836 5:0.072727273 6:0.0 7:0.0 
0.0 5634.058311202331 1:0.5 2:0.0 3:0.0 4:0.163588391 5:0.2 6:0.096153846 7:0.142857143 
0.1457687274947737 5634.058311202331 1:0.25 2:0.0 3:0.0 4:0.134564644 5:0.163636364 6:0.096153846 7:0.142857143 
0.0 5634.058311202331 1:0.25 2:0.0 3:0.0 4:0.058047493 5:0.072727273 6:0.096153846 7:0.142857143 
0.1457687274947737 4930.397599386458 1:0.75 2:0.0 3:0.2 4:0.07651715 5:0.109090909 6:0.0 7:0.142857143 
0.1457687274947737 5634.058311202331 1:0.25 2:0.0 3:0.2 4:0.129287599 5:0.163636364 6:0.0 7:0.142857143 
0.0 5634.058311202331 1:0.25 2:0.0 3:0.0 4:0.050131926 5:0.090909091 6:0.0 7:0.0 
0.1457687274947737 5634.058311202331 1:0.25 2:0.0 3:0.0 4:0.036939314 5:0.054545455 6:0.0 7:0.0 
0.1457687274947737 5634.058311202331 1:0.25 2:0.0 3:0.0 4:0.021108179 5:0.036363636 6:0.0 7:0.142857143 
0.1457687274947737 0.0 1:0.75 2:0.8 3:0.2 4:0.308707124 5:0.4 6:0.0 7:0.428571429 
0.1457687274947737 2944.544615110493 1:0.5 2:0.0 3:0.0 4:0.237467018 5:0.327272727 6:0.096153846 7:0.142857143 
0.1457687274947737 5634.058311202331 1:0.25 2:0.0 3:0.0 4:0.042216359 5:0.036363636 6:0.096153846 7:0.142857143 
0.1457687274947737 0.0 1:0.25 2:0.0 3:0.0 4:0.07651715 5:0.109090909 6:0.288461538 7:0.285714286 
0.1457687274947737 5634.058311202331 1:0.25 2:0.0 3:0.2 4:0.029023747 5:0.036363636 6:0.096153846 7:0.0 
0.0 5634.058311202331 1:0.25 2:0.0 3:0.0 4:0.042216359 5:0.072727273 6:0.096153846 7:0.0 
0.1457687274947737 0.0 1:0.75 2:0.2 3:0.0 4:0.171503958 5:0.218181818 6:0.096153846 7:0.571428571 
0.1457687274947737 6.928171576327276 1:1.0 2:0.2 3:0.0 4:0.36939314 5:0.545454545 6:0.0 7:0.428571429 
0.0 5634.058311202331 1:0.75 2:0.0 3:0.0 4:0.137203166 5:0.181818182 6:0.096153846 7:0.142857143 
0.1457687274947737 5634.058311202331 1:0.25 2:0.0 3:0.0 4:0.110817942 5:0.163636364 6:0.0 7:0.142857143 
0.0 10.837627319751755 1:0.25 2:0.0 3:0.0 4:0.118733509 5:0.181818182 6:0.0 7:0.285714286 
0.1457687274947737 5634.058311202331 1:0.25 2:0.0 3:0.0 4:0.031662269 5:0.054545455 6:0.0 7:0.142857143 
0.1457687274947737 4255.84319643259 1:0.25 2:0.0 3:0.0 4:0.139841689 5:0.181818182 6:0.0 7:0.142857143 
0.0 124.00901645896572 1:0.25 2:0.2 3:0.0 4:0.055408971 5:0.090909091 6:0.0 7:0.142857143 
0.1457687274947737 5450.838027732184 1:0.25 2:0.0 3:0.0 4:0.137203166 5:0.2 6:0.096153846 7:0.142857143 
0.1457687274947737 5634.058311202331 1:0.25 2:0.2 3:0.0 4:0.060686016 5:0.090909091 6:0.096153846 7:0.142857143 
0.0 5634.058311202331 1:0.25 2:0.0 3:0.2 4:0.036939314 5:0.072727273 6:0.096153846 7:0.0 
0.0 5634.058311202331 1:0.25 2:0.0 3:0.0 4:0.063324538 5:0.109090909 6:0.096153846 7:0.142857143 
0.1457687274947737 5634.058311202331 1:0.25 2:0.0 3:0.0 4:0.026385224 5:0.054545455 6:0.0 7:0.0 
0.1457687274947737 5634.058311202331 1:0.25 2:0.0 3:0.0 4:0.134564644 5:0.163636364 6:0.0 7:0.142857143 
0.0 5634.058311202331 1:0.25 2:0.4 3:0.0 4:0.092348285 5:0.145454545 6:0.0 7:0.142857143 
0.1457687274947737 5634.058311202331 1:0.25 2:0.2 3:0.0 4:0.124010554 5:0.181818182 6:0.0 7:0.142857143 
0.1457687274947737 0.0 1:0.5 2:0.6 3:0.0 4:0.37994723 5:0.436363636 6:0.096153846 7:0.428571429 
0.0 5634.058311202331 1:0.25 2:0.0 3:0.0 4:0.063324538 5:0.090909091 6:0.096153846 7:0.142857143 
0.1457687274947737 5634.058311202331 1:0.25 2:0.2 3:0.0 4:0.071240106 5:0.072727273 6:0.0 7:0.142857143 
0.1457687274947737 5634.058311202331 1:0.25 2:0.2 3:0.0 4:0.071240106 5:0.090909091 6:0.192307692 7:0.142857143 
0.13879102474259028 5634.058311202331 1:0.75 2:0.0 3:0.0 4:0.113456464 5:0.181818182 6:0.0 7:0.0 
0.1457687274947737 5634.058311202331 1:0.25 2:0.0 3:0.0 4:0.060686016 5:0.072727273 6:0.0 7:0.142857143 
0.0 5634.058311202331 1:0.25 2:0.0 3:0.0 4:0.063324538 5:0.090909091 6:0.0 7:0.142857143 
0.1457687274947737 5634.058311202331 1:0.25 2:0.0 3:0.0 4:0.029023747 5:0.036363636 6:0.096153846 7:0.142857143 
0.1457687274947737 0.0 1:0.25 2:0.0 3:0.0 4:0.084432718 5:0.109090909 6:0.0 7:0.142857143 
0.1457687274947737 5634.058311202331 1:0.25 2:0.0 3:0.0 4:0.036939314 5:0.072727273 6:0.0 7:0.0 
0.0 5634.058311202331 1:0.25 2:0.0 3:0.0 4:0.089709763 5:0.145454545 6:0.096153846 7:0.142857143 
0.1457687274947737 0.0 1:1.0 2:0.2 3:0.2 4:0.187335092 5:0.272727273 6:0.0 7:0.571428571 
0.0 5634.058311202331 1:0.25 2:0.0 3:0.2 4:0.063324538 5:0.109090909 6:0.0 7:0.142857143 
0.1457687274947737 5634.058311202331 1:0.25 2:0.0 3:0.0 4:0.134564644 5:0.181818182 6:0.096153846 7:0.142857143 
0.1457687274947737 0.0 1:0.25 2:0.0 3:0.2 4:0.171503958 5:0.236363636 6:0.096153846 7:0.571428571 
0.1457687274947737 5634.058311202331 1:0.25 2:0.0 3:0.0 4:0.029023747 5:0.054545455 6:0.0 7:0.0 
0.1457687274947737 0.0 1:0.25 2:0.0 3:0.0 4:0.105540897 5:0.127272727 6:0.0 7:0.142857143 
0.1457687274947737 5634.058311202331 1:0.25 2:0.0 3:0.0 4:0.092348285 5:0.090909091 6:0.096153846 7:0.142857143 
0.1457687274947737 5634.058311202331 1:0.25 2:0.0 3:0.0 4:0.113456464 5:0.145454545 6:0.096153846 7:0.142857143 
0.1457687274947737 5634.058311202331 1:0.25 2:0.0 3:0.0 4:0.092348285 5:0.127272727 6:0.0 7:0.142857143 
0.1457687274947737 0.0 1:0.25 2:0.0 3:0.0 4:0.07651715 5:0.109090909 6:0.0 7:0.142857143 
0.1457687274947737 5634.058311202331 1:0.25 2:0.0 3:0.0 4:0.192612137 5:0.254545455 6:0.096153846 7:0.142857143 
0.1457687274947737 5634.058311202331 1:0.25 2:0.0 3:0.2 4:0.039577836 5:0.036363636 6:0.0 7:0.0 
0.0 5634.058311202331 1:0.25 2:0.0 3:0.0 4:0.081794195 5:0.109090909 6:0.096153846 7:0.142857143 
0.1457687274947737 0.0 1:0.75 2:0.0 3:0.2 4:0.058047493 5:0.090909091 6:0.0 7:0.142857143 
0.0 5634.058311202331 1:0.25 2:0.0 3:0.0 4:0.079155673 5:0.127272727 6:0.0 7:0.142857143 
0.0 5634.058311202331 1:0.25 2:0.0 3:0.0 4:0.058047493 5:0.090909091 6:0.0 7:0.0 
0.0 5634.058311202331 1:0.25 2:0.0 3:0.0 4:0.071240106 5:0.109090909 6:0.096153846 7:0.142857143 
0.1457687274947737 0.0 1:0.75 2:0.4 3:0.0 4:0.292875989 5:0.363636364 6:0.0 7:0.571428571 
0.1457687274947737 5634.058311202331 1:0.25 2:0.2 3:0.0 4:0.110817942 5:0.163636364 6:0.096153846 7:0.142857143 
0.0 5634.058311202331 1:0.25 2:0.0 3:0.0 4:0.060686016 5:0.090909091 6:0.0 7:0.142857143 
0.0 5634.058311202331 1:0.25 2:0.0 3:0.0 4:0.121372032 5:0.181818182 6:0.096153846 7:0.142857143 
0.0 5634.058311202331 1:0.25 2:0.0 3:0.0 4:0.058047493 5:0.090909091 6:0.0 7:0.142857143 
0.0 2099.067609502839 1:0.25 2:0.0 3:0.2 4:0.121372032 5:0.163636364 6:0.096153846 7:0.142857143 
0.1457687274947737 5228.9445234004315 1:0.25 2:0.0 3:0.0 4:0.118733509 5:0.145454545 6:0.096153846 7:0.142857143 
0.1457687274947737 5634.058311202331 1:0.25 2:0.0 3:0.0 4:0.029023747 5:0.054545455 6:0.0 7:0.0 
0.1457687274947737 0.0 1:0.25 2:0.0 3:0.0 4:0.126649077 5:0.145454545 6:0.096153846 7:0.142857143 
0.1457687274947737 0.0 1:0.75 2:0.0 3:0.4 4:0.092348285 5:0.109090909 6:0.096153846 7:0.428571429 
0.0 5634.058311202331 1:0.25 2:0.0 3:0.0 4:0.084432718 5:0.109090909 6:0.096153846 7:0.0 
0.1457687274947737 0.0 1:0.25 2:0.2 3:0.0 4:0.187335092 5:0.2 6:0.096153846 7:0.285714286 
0.0 5634.058311202331 1:0.25 2:0.0 3:0.2 4:0.089709763 5:0.109090909 6:0.096153846 7:0.142857143 
0.1457687274947737 5634.058311202331 1:0.25 2:0.0 3:0.0 4:0.071240106 5:0.090909091 6:0.0 7:0.142857143 
0.1457687274947737 5634.058311202331 1:0.25 2:0.0 3:0.0 4:0.134564644 5:0.181818182 6:0.096153846 7:0.142857143 
0.1457687274947737 5634.058311202331 1:0.25 2:0.2 3:0.0 4:0.065963061 5:0.072727273 6:0.096153846 7:0.142857143 
0.1457687274947737 5634.058311202331 1:0.25 2:0.0 3:0.0 4:0.068601583 5:0.090909091 6:0.0 7:0.142857143 
0.1457687274947737 5380.942077010125 1:0.75 2:0.2 3:0.0 4:0.094986807 5:0.109090909 6:0.0 7:0.142857143 
0.1457687274947737 5634.058311202331 1:0.25 2:0.2 3:0.0 4:0.118733509 5:0.163636364 6:0.096153846 7:0.142857143 
0.1457687274947737 5634.058311202331 1:0.25 2:0.2 3:0.0 4:0.113456464 5:0.145454545 6:0.096153846 7:0.0 
0.0 5634.058311202331 1:0.25 2:0.0 3:0.0 4:0.100263852 5:0.163636364 6:0.096153846 7:0.142857143 
0.0 5634.058311202331 1:0.25 2:0.0 3:0.0 4:0.044854881 5:0.072727273 6:0.096153846 7:0.0 
0.1457687274947737 5634.058311202331 1:0.25 2:0.0 3:0.0 4:0.023746702 5:0.054545455 6:0.0 7:0.142857143 
0.0 5634.058311202331 1:0.75 2:0.0 3:0.2 4:0.150395778 5:0.218181818 6:0.0 7:0.142857143 
0.1457687274947737 5308.692280653618 1:0.25 2:0.2 3:0.0 4:0.124010554 5:0.145454545 6:0.0 7:0.142857143 
0.1457687274947737 5634.058311202331 1:0.25 2:0.4 3:0.0 4:0.110817942 5:0.127272727 6:0.0 7:0.142857143 
0.1457687274947737 5634.058311202331 1:0.25 2:0.0 3:0.2 4:0.058047493 5:0.090909091 6:0.0 7:0.142857143 
0.1457687274947737 5634.058311202331 1:0.25 2:0.2 3:0.0 4:0.052770449 5:0.054545455 6:0.096153846 7:0.142857143 
0.1457687274947737 5634.058311202331 1:0.25 2:0.0 3:0.0 4:0.09762533 5:0.127272727 6:0.096153846 7:0.142857143 
0.1457687274947737 5634.058311202331 1:0.25 2:0.2 3:0.0 4:0.060686016 5:0.072727273 6:0.0 7:0.142857143 
0.1457687274947737 5634.058311202331 1:0.25 2:0.2 3:0.0 4:0.094986807 5:0.127272727 6:0.0 7:0.142857143 
0.0 5634.058311202331 1:0.25 2:0.0 3:0.0 4:0.058047493 5:0.090909091 6:0.096153846 7:0.142857143 
0.0 5634.058311202331 1:0.25 2:0.2 3:0.0 4:0.07651715 5:0.109090909 6:0.0 7:0.142857143 
0.1457687274947737 5634.058311202331 1:0.25 2:0.0 3:0.2 4:0.047493404 5:0.072727273 6:0.0 7:0.142857143 
0.1457687274947737 5215.114664117153 1:0.75 2:0.0 3:0.0 4:0.158311346 5:0.2 6:0.0 7:0.142857143 
0.1457687274947737 5634.058311202331 1:0.25 2:0.4 3:0.0 4:0.044854881 5:0.072727273 6:0.0 7:0.142857143 
0.1457687274947737 0.0 1:0.75 2:0.0 3:0.0 4:0.137203166 5:0.218181818 6:0.0 7:0.571428571 
0.1457687274947737 5634.058311202331 1:0.25 2:0.2 3:0.0 4:0.039577836 5:0.054545455 6:0.096153846 7:0.142857143 
0.1457687274947737 0.0 1:0.75 2:0.0 3:0.0 4:0.321899736 5:0.363636364 6:0.0 7:0.571428571 
0.1457687274947737 5634.058311202331 1:0.25 2:0.0 3:0.0 4:0.160949868 5:0.181818182 6:0.0 7:0.142857143 
0.1457687274947737 5634.058311202331 1:0.25 2:0.0 3:0.2 4:0.034300792 5:0.054545455 6:0.192307692 7:0.0 
0.0 5634.058311202331 1:0.25 2:0.0 3:0.0 4:0.092348285 5:0.145454545 6:0.0 7:0.142857143 
0.1457687274947737 5634.058311202331 1:0.25 2:0.0 3:0.2 4:0.189973615 5:0.236363636 6:0.0 7:0.142857143 
0.1457687274947737 0.0 1:0.75 2:0.0 3:0.0 4:0.110817942 5:0.127272727 6:0.096153846 7:0.571428571 
0.1457687274947737 5500.544958352033 1:0.25 2:0.0 3:0.0 4:0.126649077 5:0.163636364 6:0.096153846 7:0.142857143 
0.1457687274947737 0.0 1:0.25 2:0.0 3:0.0 4:0.145118734 5:0.163636364 6:0.0 7:0.142857143 
0.1457687274947737 0.0 1:0.25 2:0.0 3:0.0 4:0.102902375 5:0.127272727 6:0.0 7:0.142857143 
0.1457687274947737 5634.058311202331 1:0.25 2:0.0 3:0.0 4:0.102902375 5:0.145454545 6:0.0 7:0.142857143 
0.1457687274947737 5634.058311202331 1:0.25 2:0.0 3:0.0 4:0.018469657 5:0.036363636 6:0.096153846 7:0.0 
0.1457687274947737 0.0 1:0.25 2:0.4 3:0.2 4:0.216358839 5:0.290909091 6:0.096153846 7:0.285714286 
0.1457687274947737 5634.058311202331 1:0.25 2:0.0 3:0.0 4:0.034300792 5:0.054545455 6:0.0 7:0.142857143 
0.1457687274947737 0.0 1:0.25 2:0.4 3:0.0 4:0.084432718 5:0.127272727 6:0.096153846 7:0.571428571 
0.1457687274947737 5634.058311202331 1:0.25 2:0.0 3:0.0 4:0.155672823 5:0.236363636 6:0.0 7:0.0 
0.1457687274947737 5634.058311202331 1:0.25 2:0.2 3:0.0 4:0.09762533 5:0.145454545 6:0.0 7:0.142857143 
0.1457687274947737 0.0 1:0.75 2:0.2 3:0.0 4:0.313984169 5:0.381818182 6:0.0 7:0.571428571 
0.1457687274947737 5634.058311202331 1:0.25 2:0.0 3:0.0 4:0.08707124 5:0.109090909 6:0.096153846 7:0.142857143 
0.1457687274947737 0.0 1:0.25 2:0.0 3:0.0 4:0.079155673 5:0.109090909 6:0.0 7:0.142857143 
0.1457687274947737 5634.058311202331 1:0.25 2:0.2 3:0.0 4:0.042216359 5:0.054545455 6:0.096153846 7:0.142857143 
0.1457687274947737 5634.058311202331 1:0.25 2:0.0 3:0.2 4:0.026385224 5:0.036363636 6:0.096153846 7:0.0 
0.1457687274947737 0.0 1:0.25 2:0.2 3:0.0 4:0.131926121 5:0.181818182 6:0.0 7:0.571428571 
0.0 5634.058311202331 1:0.25 2:0.0 3:0.0 4:0.063324538 5:0.109090909 6:0.0 7:0.142857143 
0.1457687274947737 5634.058311202331 1:0.75 2:0.2 3:0.0 4:0.129287599 5:0.163636364 6:0.0 7:0.142857143 
0.1457687274947737 5634.058311202331 1:0.25 2:0.2 3:0.0 4:0.073878628 5:0.072727273 6:0.096153846 7:0.142857143 
0.0 5634.058311202331 1:0.25 2:0.0 3:0.0 4:0.079155673 5:0.127272727 6:0.0 7:0.142857143 
0.04501591564569893 5634.058311202331 1:0.25 2:0.2 3:0.2 4:0.044854881 5:0.072727273 6:0.0 7:0.142857143 
0.0 5634.058311202331 1:0.25 2:0.0 3:0.2 4:0.073878628 5:0.109090909 6:0.0 7:0.142857143 
0.0 5634.058311202331 1:0.25 2:0.0 3:0.2 4:0.081794195 5:0.127272727 6:0.096153846 7:0.142857143 
0.1457687274947737 5634.058311202331 1:0.25 2:0.0 3:0.0 4:0.218997361 5:0.254545455 6:0.096153846 7:0.142857143 
0.1457687274947737 5634.058311202331 1:0.25 2:0.0 3:0.0 4:0.026385224 5:0.054545455 6:0.0 7:0.0 
0.0 5634.058311202331 1:0.25 2:0.0 3:0.0 4:0.073878628 5:0.090909091 6:0.096153846 7:0.142857143 
0.0 5634.058311202331 1:0.25 2:0.0 3:0.2 4:0.052770449 5:0.072727273 6:0.096153846 7:0.0 
0.0 5634.058311202331 1:0.25 2:0.0 3:0.0 4:0.065963061 5:0.090909091 6:0.0 7:0.142857143 
0.1457687274947737 0.0 1:0.25 2:0.0 3:0.2 4:0.124010554 5:0.127272727 6:0.0 7:0.142857143 
0.1457687274947737 0.0 1:0.25 2:0.0 3:0.0 4:0.137203166 5:0.2 6:0.0 7:0.142857143 
0.1457687274947737 5634.058311202331 1:0.25 2:0.0 3:0.0 4:0.060686016 5:0.054545455 6:0.096153846 7:0.142857143 
0.1457687274947737 5634.058311202331 1:0.25 2:0.0 3:0.0 4:0.129287599 5:0.163636364 6:0.0 7:0.142857143 
0.1457687274947737 0.0 1:0.25 2:0.0 3:0.8 4:0.145118734 5:0.218181818 6:0.0 7:0.571428571 
0.1457687274947737 5634.058311202331 1:0.25 2:0.0 3:0.0 4:0.039577836 5:0.054545455 6:0.096153846 7:0.0 
0.1457687274947737 0.0 1:0.75 2:0.0 3:0.2 4:0.060686016 5:0.090909091 6:0.0 7:0.142857143 
0.1457687274947737 5634.058311202331 1:0.25 2:0.0 3:0.0 4:0.034300792 5:0.054545455 6:0.0 7:0.0 
0.1457687274947737 0.0 1:0.25 2:0.0 3:0.2 4:0.147757256 5:0.2 6:0.0 7:0.571428571 
0.1457687274947737 5634.058311202331 1:0.25 2:0.0 3:0.0 4:0.100263852 5:0.127272727 6:0.096153846 7:0.142857143 
0.1457687274947737 0.0 1:0.25 2:0.0 3:0.0 4:0.105540897 5:0.127272727 6:0.0 7:0.142857143 
0.1457687274947737 5634.058311202331 1:0.25 2:0.2 3:0.0 4:0.058047493 5:0.090909091 6:0.096153846 7:0.142857143 
0.1457687274947737 5634.058311202331 1:0.25 2:0.2 3:0.0 4:0.068601583 5:0.090909091 6:0.096153846 7:0.142857143 
0.0 5634.058311202331 1:0.25 2:0.0 3:0.0 4:0.068601583 5:0.090909091 6:0.096153846 7:0.0 
0.1457687274947737 0.0 1:0.25 2:0.2 3:0.0 4:0.102902375 5:0.145454545 6:0.096153846 7:0.571428571 
0.1457687274947737 5634.058311202331 1:0.25 2:0.0 3:0.0 4:0.245382586 5:0.290909091 6:0.0 7:0.142857143 
0.1457687274947737 0.0 1:0.25 2:0.0 3:0.0 4:0.100263852 5:0.127272727 6:0.0 7:0.285714286 
0.0 5634.058311202331 1:0.25 2:0.2 3:0.0 4:0.068601583 5:0.109090909 6:0.0 7:0.142857143 
0.1457687274947737 5434.56595798923 1:0.25 2:0.2 3:0.2 4:0.042216359 5:0.054545455 6:0.096153846 7:0.142857143 
0.1457687274947737 0.0 1:0.25 2:0.0 3:0.2 4:0.163588391 5:0.254545455 6:0.096153846 7:0.571428571 
0.1457687274947737 5634.058311202331 1:0.25 2:0.2 3:0.0 4:0.092348285 5:0.109090909 6:0.0 7:0.142857143 
0.1457687274947737 5634.058311202331 1:0.25 2:0.0 3:0.0 4:0.039577836 5:0.072727273 6:0.0 7:0.142857143 
0.0 5634.058311202331 1:0.25 2:0.0 3:0.2 4:0.068601583 5:0.109090909 6:0.0 7:0.142857143 
0.1457687274947737 5634.058311202331 1:0.25 2:0.2 3:0.0 4:0.060686016 5:0.072727273 6:0.0 7:0.142857143 
0.1457687274947737 5634.058311202331 1:0.25 2:0.0 3:0.0 4:0.055408971 5:0.072727273 6:0.0 7:0.142857143 
0.1457687274947737 5634.058311202331 1:0.25 2:0.0 3:0.0 4:0.08707124 5:0.109090909 6:0.0 7:0.0 
0.0 5634.058311202331 1:0.25 2:0.0 3:0.0 4:0.047493404 5:0.090909091 6:0.0 7:0.142857143 
0.0 5634.058311202331 1:0.25 2:0.0 3:0.0 4:0.084432718 5:0.127272727 6:0.096153846 7:0.142857143 
0.1457687274947737 5634.058311202331 1:0.25 2:0.0 3:0.0 4:0.10817942 5:0.163636364 6:0.0 7:0.142857143 
0.1457687274947737 0.0 1:0.25 2:0.2 3:0.0 4:0.150395778 5:0.163636364 6:0.0 7:0.142857143 
0.1457687274947737 5634.058311202331 1:0.25 2:0.2 3:0.0 4:0.145118734 5:0.181818182 6:0.096153846 7:0.142857143 
0.0 5634.058311202331 1:0.25 2:0.0 3:0.0 4:0.068601583 5:0.127272727 6:0.0 7:0.142857143 
0.1457687274947737 5634.058311202331 1:0.25 2:0.0 3:0.0 4:0.047493404 5:0.054545455 6:0.096153846 7:0.142857143 
0.0 5634.058311202331 1:0.25 2:0.2 3:0.0 4:0.052770449 5:0.072727273 6:0.0 7:0.142857143 
0.1457687274947737 5634.058311202331 1:0.25 2:0.0 3:0.2 4:0.055408971 5:0.090909091 6:0.0 7:0.142857143 
0.1457687274947737 5634.058311202331 1:0.25 2:0.0 3:0.0 4:0.036939314 5:0.054545455 6:0.0 7:0.0 
0.0 5634.058311202331 1:0.25 2:0.0 3:0.0 4:0.068601583 5:0.109090909 6:0.096153846 7:0.142857143 
0.1457687274947737 5634.058311202331 1:0.25 2:0.0 3:0.0 4:0.171503958 5:0.236363636 6:0.096153846 7:0.142857143 
0.1457687274947737 0.0 1:0.25 2:0.0 3:0.0 4:0.050131926 5:0.072727273 6:0.096153846 7:0.428571429 
0.1457687274947737 0.0 1:0.75 2:0.0 3:0.2 4:0.079155673 5:0.090909091 6:0.0 7:0.142857143 
0.1457687274947737 60.126386934044845 1:0.5 2:0.2 3:0.0 4:0.17414248 5:0.218181818 6:0.0 7:0.142857143 
0.0 5634.058311202331 1:0.25 2:0.2 3:0.0 4:0.063324538 5:0.090909091 6:0.0 7:0.142857143 
0.1457687274947737 5634.058311202331 1:0.25 2:0.2 3:0.0 4:0.155672823 5:0.218181818 6:0.0 7:0.142857143 
0.0 2363.774260991111 1:0.25 2:0.0 3:0.0 4:0.179419525 5:0.254545455 6:0.0 7:0.285714286 
0.1457687274947737 2143.109778016406 1:0.25 2:0.2 3:0.0 4:0.081794195 5:0.109090909 6:0.096153846 7:0.142857143 
0.1457687274947737 5634.058311202331 1:0.25 2:0.0 3:0.0 4:0.044854881 5:0.036363636 6:0.0 7:0.142857143 
0.1457687274947737 5634.058311202331 1:0.25 2:0.0 3:0.0 4:0.065963061 5:0.072727273 6:0.0 7:0.0 
0.0 40.41140610093735 1:0.25 2:0.0 3:0.0 4:0.118733509 5:0.218181818 6:0.0 7:0.428571429 
0.1457687274947737 5634.058311202331 1:0.25 2:0.0 3:0.2 4:0.08707124 5:0.127272727 6:0.0 7:0.0 
0.1457687274947737 5634.058311202331 1:0.25 2:0.0 3:0.0 4:0.089709763 5:0.090909091 6:0.096153846 7:0.0 
0.1457687274947737 5634.058311202331 1:0.25 2:0.0 3:0.0 4:0.021108179 5:0.036363636 6:0.096153846 7:0.0 
0.0 5634.058311202331 1:0.75 2:0.0 3:0.0 4:0.110817942 5:0.163636364 6:0.096153846 7:0.142857143 
0.1457687274947737 5634.058311202331 1:0.25 2:0.0 3:0.0 4:0.160949868 5:0.181818182 6:0.0 7:0.142857143 
0.1457687274947737 5634.058311202331 1:0.25 2:0.0 3:0.2 4:0.139841689 5:0.163636364 6:0.096153846 7:0.142857143 
0.1457687274947737 5634.058311202331 1:0.25 2:0.0 3:0.0 4:0.084432718 5:0.090909091 6:0.096153846 7:0.142857143 
0.1457687274947737 5634.058311202331 1:0.25 2:0.0 3:0.0 4:0.084432718 5:0.090909091 6:0.0 7:0.0 
0.0 5634.058311202331 1:0.25 2:0.0 3:0.0 4:0.042216359 5:0.072727273 6:0.0 7:0.0 
0.1457687274947737 0.0 1:0.25 2:0.0 3:0.0 4:0.079155673 5:0.090909091 6:0.0 7:0.428571429 
0.1457687274947737 5634.058311202331 1:0.25 2:0.0 3:0.2 4:0.023746702 5:0.036363636 6:0.096153846 7:0.0 
0.1457687274947737 5634.058311202331 1:0.25 2:0.0 3:0.0 4:0.039577836 5:0.054545455 6:0.0 7:0.142857143 
0.0 5634.058311202331 1:0.25 2:0.0 3:0.2 4:0.039577836 5:0.072727273 6:0.0 7:0.0 
0.0 5634.058311202331 1:0.25 2:0.0 3:0.2 4:0.071240106 5:0.109090909 6:0.0 7:0.142857143 
0.1457687274947737 5634.058311202331 1:0.75 2:0.0 3:0.2 4:0.084432718 5:0.127272727 6:0.0 7:0.142857143 
0.1457687274947737 5634.058311202331 1:0.25 2:0.0 3:0.2 4:0.021108179 5:0.036363636 6:0.0 7:0.0 
0.1457687274947737 5634.058311202331 1:0.25 2:0.0 3:0.0 4:0.034300792 5:0.054545455 6:0.0 7:0.0 
0.1457687274947737 5634.058311202331 1:0.25 2:0.0 3:0.0 4:0.116094987 5:0.145454545 6:0.096153846 7:0.0 
0.0 5634.058311202331 1:0.25 2:0.2 3:0.0 4:0.068601583 5:0.090909091 6:0.0 7:0.142857143 
0.1457687274947737 5634.058311202331 1:0.25 2:0.0 3:0.0 4:0.044854881 5:0.072727273 6:0.192307692 7:0.0 
0.1457687274947737 5634.058311202331 1:0.25 2:0.2 3:0.0 4:0.092348285 5:0.145454545 6:0.096153846 7:0.142857143 
0.1457687274947737 5634.058311202331 1:0.25 2:0.0 3:0.0 4:0.089709763 5:0.109090909 6:0.096153846 7:0.142857143 
0.1457687274947737 1423.014542594912 1:0.25 2:0.0 3:0.0 4:0.150395778 5:0.181818182 6:0.0 7:0.142857143 
0.0 5634.058311202331 1:0.25 2:0.0 3:0.0 4:0.063324538 5:0.090909091 6:0.0 7:0.142857143 
0.1457687274947737 0.0 1:0.25 2:0.2 3:0.0 4:0.158311346 5:0.181818182 6:0.096153846 7:0.285714286 
0.0 3119.5667688827243 1:0.5 2:0.0 3:0.2 4:0.105540897 5:0.145454545 6:0.0 7:0.142857143 
0.1457687274947737 0.0 1:0.75 2:0.0 3:0.0 4:0.19525066 5:0.218181818 6:0.0 7:0.571428571 
0.1457687274947737 5634.058311202331 1:0.25 2:0.0 3:0.2 4:0.034300792 5:0.054545455 6:0.096153846 7:0.0 
0.1457687274947737 0.0 1:0.25 2:0.0 3:0.0 4:0.118733509 5:0.163636364 6:0.0 7:0.571428571 
0.10267386328426278 0.0 1:1.0 2:0.0 3:0.2 4:0.187335092 5:0.218181818 6:0.096153846 7:0.285714286 
0.1457687274947737 0.0 1:0.25 2:0.0 3:0.0 4:0.126649077 5:0.145454545 6:0.0 7:0.285714286 
0.1457687274947737 0.0 1:0.75 2:0.2 3:0.2 4:0.319261214 5:0.418181818 6:0.0 7:0.571428571 
0.1457687274947737 5634.058311202331 1:0.25 2:0.0 3:0.0 4:0.182058047 5:0.218181818 6:0.0 7:0.142857143 
0.1457687274947737 5634.058311202331 1:0.25 2:0.0 3:0.2 4:0.055408971 5:0.090909091 6:0.0 7:0.142857143 
0.0 5634.058311202331 1:0.75 2:0.0 3:0.0 4:0.121372032 5:0.2 6:0.0 7:0.142857143 
0.1457687274947737 1657.8881123279039 1:0.75 2:0.2 3:0.0 4:0.121372032 5:0.145454545 6:0.0 7:0.142857143 
0.1457687274947737 5634.058311202331 1:0.25 2:0.2 3:0.0 4:0.100263852 5:0.127272727 6:0.0 7:0.142857143 
0.1457687274947737 0.0 1:0.25 2:0.0 3:0.0 4:0.065963061 5:0.090909091 6:0.096153846 7:0.285714286 
0.0 5634.058311202331 1:0.25 2:0.0 3:0.2 4:0.094986807 5:0.127272727 6:0.096153846 7:0.142857143 
0.1457687274947737 3745.9439447292734 1:0.25 2:0.0 3:0.0 4:0.113456464 5:0.145454545 6:0.0 7:0.142857143 
0.1457687274947737 5634.058311202331 1:0.25 2:0.0 3:0.0 4:0.166226913 5:0.2 6:0.096153846 7:0.142857143 
0.0 5634.058311202331 1:0.25 2:0.0 3:0.0 4:0.063324538 5:0.090909091 6:0.0 7:0.0 
0.1457687274947737 0.0 1:0.25 2:0.0 3:0.0 4:0.255936675 5:0.327272727 6:0.096153846 7:0.571428571 
0.1457687274947737 5634.058311202331 1:0.25 2:0.2 3:0.0 4:0.139841689 5:0.181818182 6:0.096153846 7:0.142857143 
0.1457687274947737 0.0 1:0.25 2:0.0 3:0.0 4:0.100263852 5:0.127272727 6:0.096153846 7:0.285714286 
0.0 5634.058311202331 1:0.25 2:0.0 3:0.0 4:0.042216359 5:0.054545455 6:0.096153846 7:0.0 
0.0 5634.058311202331 1:0.25 2:0.0 3:0.2 4:0.047493404 5:0.090909091 6:0.096153846 7:0.142857143 
0.1457687274947737 5335.726328654396 1:0.25 2:0.2 3:0.0 4:0.113456464 5:0.127272727 6:0.0 7:0.142857143 
0.1457687274947737 5634.058311202331 1:0.25 2:0.0 3:0.0 4:0.08707124 5:0.109090909 6:0.096153846 7:0.142857143 
0.055394291999091114 0.0 1:0.25 2:0.0 3:0.0 4:0.17414248 5:0.218181818 6:0.096153846 7:0.285714286 
0.1457687274947737 5532.5074273880455 1:0.75 2:0.2 3:0.0 4:0.039577836 5:0.072727273 6:0.0 7:0.0 
0.1457687274947737 5634.058311202331 1:0.25 2:0.0 3:0.0 4:0.142480211 5:0.218181818 6:0.0 7:0.142857143 
0.0 5634.058311202331 1:0.25 2:0.2 3:0.0 4:0.07651715 5:0.109090909 6:0.0 7:0.142857143 
0.0 2768.582064203286 1:0.25 2:0.0 3:0.0 4:0.081794195 5:0.145454545 6:0.0 7:0.142857143 
0.0 5634.058311202331 1:0.25 2:0.0 3:0.0 4:0.065963061 5:0.090909091 6:0.096153846 7:0.0 
0.1457687274947737 0.0 1:0.5 2:0.0 3:0.0 4:0.155672823 5:0.218181818 6:0.0 7:0.571428571 
0.1457687274947737 5634.058311202331 1:0.25 2:0.0 3:0.0 4:0.163588391 5:0.2 6:0.0 7:0.142857143 
0.1457687274947737 5634.058311202331 1:0.25 2:0.0 3:0.0 4:0.134564644 5:0.163636364 6:0.096153846 7:0.142857143 
0.0 5634.058311202331 1:0.25 2:0.0 3:0.0 4:0.039577836 5:0.072727273 6:0.0 7:0.0 
0.1457687274947737 0.0 1:0.25 2:0.0 3:0.0 4:0.126649077 5:0.163636364 6:0.0 7:0.571428571 
0.1457687274947737 5634.058311202331 1:0.25 2:0.0 3:0.2 4:0.073878628 5:0.072727273 6:0.096153846 7:0.0 
0.1457687274947737 1276.5827561938115 1:0.25 2:0.0 3:0.0 4:0.092348285 5:0.127272727 6:0.0 7:0.142857143 
0.1457687274947737 5634.058311202331 1:0.25 2:0.4 3:0.0 4:0.147757256 5:0.218181818 6:0.0 7:0.142857143 
0.1457687274947737 10.504190411818662 1:0.25 2:0.6 3:0.0 4:0.124010554 5:0.181818182 6:0.0 7:0.285714286 
0.1457687274947737 5634.058311202331 1:0.25 2:0.2 3:0.0 4:0.137203166 5:0.218181818 6:0.0 7:0.142857143 
0.0 5572.373798558706 1:0.25 2:0.2 3:0.0 4:0.094986807 5:0.145454545 6:0.0 7:0.142857143 
0.0 5634.058311202331 1:0.25 2:0.0 3:0.2 4:0.044854881 5:0.054545455 6:0.0 7:0.0 
0.1457687274947737 0.0 1:0.25 2:0.2 3:0.0 4:0.126649077 5:0.163636364 6:0.0 7:0.571428571 
0.0 5634.058311202331 1:0.25 2:0.0 3:0.0 4:0.055408971 5:0.090909091 6:0.0 7:0.142857143 
0.1457687274947737 0.0 1:0.25 2:0.0 3:0.0 4:0.105540897 5:0.145454545 6:0.096153846 7:0.571428571 
0.1457687274947737 5634.058311202331 1:0.25 2:0.2 3:0.2 4:0.129287599 5:0.163636364 6:0.0 7:0.142857143 
0.0 5634.058311202331 1:0.25 2:0.0 3:0.2 4:0.060686016 5:0.090909091 6:0.096153846 7:0.142857143 
0.1457687274947737 5634.058311202331 1:0.25 2:0.0 3:0.0 4:0.124010554 5:0.163636364 6:0.096153846 7:0.0 
0.1457687274947737 5634.058311202331 1:0.25 2:0.0 3:0.0 4:0.131926121 5:0.163636364 6:0.0 7:0.142857143 
0.1457687274947737 5634.058311202331 1:0.25 2:0.0 3:0.0 4:0.023746702 5:0.036363636 6:0.0 7:0.0 
0.0 5634.058311202331 1:0.25 2:0.0 3:0.0 4:0.052770449 5:0.090909091 6:0.096153846 7:0.142857143 
0.1457687274947737 0.0 1:0.25 2:0.2 3:0.0 4:0.150395778 5:0.163636364 6:0.0 7:0.142857143 
0.1457687274947737 5634.058311202331 1:0.25 2:0.0 3:0.0 4:0.021108179 5:0.036363636 6:0.096153846 7:0.142857143 
0.1457687274947737 0.0 1:0.25 2:0.0 3:0.0 4:0.142480211 5:0.2 6:0.096153846 7:0.142857143 
0.1457687274947737 5634.058311202331 1:0.75 2:0.2 3:0.0 4:0.105540897 5:0.163636364 6:0.0 7:0.142857143 
0.1002189248599663 5634.058311202331 1:0.75 2:0.2 3:0.0 4:0.126649077 5:0.181818182 6:0.0 7:0.142857143 
0.1457687274947737 0.0 1:0.25 2:0.0 3:0.0 4:0.176781003 5:0.218181818 6:0.0 7:0.285714286 
0.1457687274947737 5634.058311202331 1:0.25 2:0.0 3:0.0 4:0.042216359 5:0.072727273 6:0.192307692 7:0.142857143 
0.1457687274947737 5634.058311202331 1:0.75 2:0.0 3:0.4 4:0.113456464 5:0.163636364 6:0.0 7:0.142857143 
0.1457687274947737 5634.058311202331 1:0.25 2:0.0 3:0.0 4:0.102902375 5:0.163636364 6:0.0 7:0.0 
0.1457687274947737 0.0 1:0.25 2:0.4 3:0.0 4:0.058047493 5:0.072727273 6:0.0 7:0.142857143 
0.0 5634.058311202331 1:0.25 2:0.0 3:0.0 4:0.050131926 5:0.090909091 6:0.0 7:0.0 
0.0 5634.058311202331 1:0.25 2:0.0 3:0.0 4:0.050131926 5:0.072727273 6:0.096153846 7:0.142857143 
0.0 5634.058311202331 1:0.25 2:0.0 3:0.0 4:0.050131926 5:0.090909091 6:0.0 7:0.0 
0.1457687274947737 1952.17897031321 1:0.25 2:0.0 3:0.0 4:0.094986807 5:0.127272727 6:0.0 7:0.142857143 
0.0 5634.058311202331 1:0.25 2:0.0 3:0.0 4:0.052770449 5:0.090909091 6:0.0 7:0.142857143 
0.1457687274947737 5634.058311202331 1:0.25 2:0.0 3:0.0 4:0.042216359 5:0.072727273 6:0.0 7:0.142857143 
0.1457687274947737 5634.058311202331 1:0.25 2:0.0 3:0.0 4:0.094986807 5:0.145454545 6:0.0 7:0.142857143 
0.1457687274947737 5634.058311202331 1:0.25 2:0.0 3:0.2 4:0.060686016 5:0.090909091 6:0.0 7:0.142857143 
0.1457687274947737 0.0 1:1.0 2:0.2 3:0.2 4:0.137203166 5:0.218181818 6:0.0 7:0.571428571 
0.1457687274947737 5634.058311202331 1:0.25 2:0.2 3:0.0 4:0.065963061 5:0.072727273 6:0.0 7:0.142857143 
0.1457687274947737 5634.058311202331 1:0.25 2:0.0 3:0.0 4:0.021108179 5:0.036363636 6:0.096153846 7:0.0 
0.1457687274947737 0.0 1:0.25 2:0.2 3:0.0 4:0.079155673 5:0.090909091 6:0.0 7:0.571428571 
0.1457687274947737 0.0 1:0.75 2:0.0 3:0.0 4:0.189973615 5:0.236363636 6:0.0 7:0.571428571 
0.1457687274947737 5634.058311202331 1:0.25 2:0.0 3:0.2 4:0.036939314 5:0.054545455 6:0.096153846 7:0.0 
0.1457687274947737 0.0 1:0.25 2:0.0 3:0.0 4:0.094986807 5:0.127272727 6:0.0 7:0.142857143 
0.0 5634.058311202331 1:0.25 2:0.0 3:0.0 4:0.047493404 5:0.054545455 6:0.096153846 7:0.0 
0.1457687274947737 0.0 1:0.5 2:0.2 3:0.0 4:0.147757256 5:0.2 6:0.0 7:0.571428571 
0.1457687274947737 5634.058311202331 1:0.25 2:0.2 3:0.0 4:0.129287599 5:0.163636364 6:0.0 7:0.142857143 
0.1457687274947737 5634.058311202331 1:0.25 2:0.2 3:0.0 4:0.065963061 5:0.109090909 6:0.096153846 7:0.142857143 
0.1457687274947737 5634.058311202331 1:0.25 2:0.0 3:0.2 4:0.08707124 5:0.090909091 6:0.0 7:0.142857143 
0.0 5634.058311202331 1:0.25 2:0.0 3:0.2 4:0.071240106 5:0.090909091 6:0.096153846 7:0.142857143 
0.0 5634.058311202331 1:0.25 2:0.2 3:0.0 4:0.07651715 5:0.109090909 6:0.0 7:0.142857143 
0.1457687274947737 0.0 1:0.25 2:0.4 3:0.0 4:0.065963061 5:0.072727273 6:0.0 7:0.571428571 
0.1457687274947737 5634.058311202331 1:0.25 2:0.0 3:0.2 4:0.060686016 5:0.090909091 6:0.0 7:0.142857143 
0.1457687274947737 5634.058311202331 1:0.25 2:0.0 3:0.2 4:0.042216359 5:0.072727273 6:0.096153846 7:0.142857143 
0.1457687274947737 5634.058311202331 1:0.25 2:0.0 3:0.2 4:0.039577836 5:0.054545455 6:0.096153846 7:0.142857143 
0.0 5634.058311202331 1:0.25 2:0.0 3:0.2 4:0.047493404 5:0.054545455 6:0.0 7:0.0 
0.05825243731285091 5634.058311202331 1:0.5 2:0.0 3:0.2 4:0.158311346 5:0.2 6:0.096153846 7:0.142857143 
0.1457687274947737 5634.058311202331 1:0.25 2:0.0 3:0.0 4:0.018469657 5:0.018181818 6:0.0 7:0.142857143 
0.0 5634.058311202331 1:0.25 2:0.0 3:0.0 4:0.07651715 5:0.109090909 6:0.096153846 7:0.142857143 
0.1457687274947737 5634.058311202331 1:0.25 2:0.0 3:0.0 4:0.100263852 5:0.109090909 6:0.096153846 7:0.142857143 
0.1457687274947737 5634.058311202331 1:0.25 2:0.0 3:0.0 4:0.116094987 5:0.181818182 6:0.0 7:0.142857143 
0.1457687274947737 5634.058311202331 1:0.75 2:0.0 3:0.0 4:0.08707124 5:0.145454545 6:0.096153846 7:0.142857143 
0.1457687274947737 0.0 1:0.5 2:0.6 3:0.0 4:0.182058047 5:0.218181818 6:0.0 7:0.428571429 
0.0 5634.058311202331 1:0.25 2:0.0 3:0.0 4:0.052770449 5:0.090909091 6:0.0 7:0.0 
0.1457687274947737 0.0 1:0.75 2:0.0 3:0.2 4:0.073878628 5:0.090909091 6:0.0 7:0.142857143 
0.1457687274947737 5634.058311202331 1:0.25 2:0.2 3:0.0 4:0.050131926 5:0.072727273 6:0.096153846 7:0.142857143 
0.0 5634.058311202331 1:0.25 2:0.0 3:0.0 4:0.047493404 5:0.072727273 6:0.0 7:0.142857143 
0.1457687274947737 5634.058311202331 1:0.25 2:0.2 3:0.0 4:0.102902375 5:0.127272727 6:0.096153846 7:0.142857143 
0.1457687274947737 5634.058311202331 1:0.25 2:0.0 3:0.0 4:0.131926121 5:0.181818182 6:0.096153846 7:0.142857143 
0.1457687274947737 5608.035714890202 1:0.25 2:0.2 3:0.0 4:0.105540897 5:0.127272727 6:0.0 7:0.142857143 
0.1457687274947737 0.0 1:0.75 2:0.2 3:0.2 4:0.116094987 5:0.163636364 6:0.0 7:0.571428571 
0.1457687274947737 0.0 1:1.0 2:0.0 3:0.2 4:0.176781003 5:0.272727273 6:0.0 7:0.571428571 
0.0 5634.058311202331 1:0.25 2:0.0 3:0.0 4:0.063324538 5:0.090909091 6:0.0 7:0.142857143 
0.0 5386.888061337297 1:0.25 2:0.0 3:0.0 4:0.102902375 5:0.145454545 6:0.096153846 7:0.142857143 
0.1457687274947737 0.0 1:0.25 2:0.0 3:0.0 4:0.150395778 5:0.181818182 6:0.096153846 7:0.142857143 
0.0 5634.058311202331 1:0.25 2:0.0 3:0.0 4:0.063324538 5:0.109090909 6:0.0 7:0.142857143 
0.1457687274947737 2209.1692739997698 1:0.75 2:0.0 3:0.4 4:0.153034301 5:0.181818182 6:0.0 7:0.142857143 
0.1457687274947737 4662.618374718471 1:0.75 2:0.0 3:0.0 4:0.116094987 5:0.145454545 6:0.0 7:0.142857143 
0.0 5634.058311202331 1:0.25 2:0.0 3:0.0 4:0.052770449 5:0.072727273 6:0.096153846 7:0.142857143 
0.1457687274947737 0.0 1:0.25 2:0.0 3:0.0 4:0.145118734 5:0.163636364 6:0.096153846 7:0.142857143 
0.1457687274947737 5634.058311202331 1:0.25 2:0.0 3:0.0 4:0.166226913 5:0.218181818 6:0.096153846 7:0.0 
0.0 5634.058311202331 1:0.25 2:0.0 3:0.0 4:0.068601583 5:0.109090909 6:0.0 7:0.142857143 
0.0 5634.058311202331 1:0.25 2:0.0 3:0.2 4:0.073878628 5:0.109090909 6:0.0 7:0.0 
0.1457687274947737 5634.058311202331 1:0.25 2:0.0 3:0.2 4:0.026385224 5:0.054545455 6:0.192307692 7:0.0 
0.0 5634.058311202331 1:0.25 2:0.0 3:0.2 4:0.092348285 5:0.109090909 6:0.096153846 7:0.142857143 
0.1457687274947737 0.0 1:0.25 2:0.2 3:0.0 4:0.232189974 5:0.272727273 6:0.0 7:0.571428571 
0.0 5634.058311202331 1:0.25 2:0.0 3:0.0 4:0.042216359 5:0.072727273 6:0.096153846 7:0.142857143 
0.1457687274947737 5634.058311202331 1:0.25 2:0.0 3:0.0 4:0.09762533 5:0.127272727 6:0.096153846 7:0.0 
0.1457687274947737 5634.058311202331 1:0.25 2:0.0 3:0.0 4:0.071240106 5:0.090909091 6:0.0 7:0.0 
0.1457687274947737 5634.058311202331 1:0.25 2:0.0 3:0.0 4:0.031662269 5:0.054545455 6:0.0 7:0.142857143 
0.0 5634.058311202331 1:0.25 2:0.0 3:0.0 4:0.050131926 5:0.090909091 6:0.0 7:0.142857143 
0.1457687274947737 0.0 1:0.25 2:0.0 3:0.0 4:0.19525066 5:0.290909091 6:0.0 7:0.571428571 
0.0 5634.058311202331 1:0.25 2:0.0 3:0.0 4:0.058047493 5:0.090909091 6:0.0 7:0.142857143 
0.1457687274947737 5634.058311202331 1:0.25 2:0.0 3:0.0 4:0.029023747 5:0.036363636 6:0.096153846 7:0.142857143 
0.1457687274947737 5634.058311202331 1:0.25 2:0.0 3:0.2 4:0.08707124 5:0.109090909 6:0.0 7:0.0 
0.1457687274947737 5634.058311202331 1:0.25 2:0.2 3:0.0 4:0.039577836 5:0.054545455 6:0.0 7:0.142857143 
0.1457687274947737 0.0 1:0.25 2:0.0 3:0.0 4:0.118733509 5:0.2 6:0.0 7:0.142857143 
0.0 3140.0439482784345 1:0.25 2:0.2 3:0.0 4:0.063324538 5:0.109090909 6:0.0 7:0.142857143 
0.1457687274947737 5634.058311202331 1:0.25 2:0.0 3:0.0 4:0.023746702 5:0.054545455 6:0.0 7:0.0 
0.1457687274947737 5634.058311202331 1:0.25 2:0.0 3:0.0 4:0.126649077 5:0.145454545 6:0.0 7:0.142857143 
0.1457687274947737 5634.058311202331 1:0.75 2:0.0 3:0.0 4:0.071240106 5:0.109090909 6:0.096153846 7:0.142857143 
0.0 5634.058311202331 1:0.25 2:0.0 3:0.2 4:0.07651715 5:0.109090909 6:0.096153846 7:0.0 
0.1457687274947737 5634.058311202331 1:0.25 2:0.2 3:0.0 4:0.18469657 5:0.236363636 6:0.0 7:0.142857143 
0.1457687274947737 0.0 1:0.25 2:0.2 3:0.0 4:0.179419525 5:0.2 6:0.0 7:0.571428571 
0.1457687274947737 0.0 1:0.25 2:0.0 3:0.0 4:0.105540897 5:0.109090909 6:0.0 7:0.571428571 
0.1457687274947737 5634.058311202331 1:0.25 2:0.2 3:0.0 4:0.042216359 5:0.054545455 6:0.0 7:0.0 
0.1457687274947737 5634.058311202331 1:0.25 2:0.2 3:0.0 4:0.116094987 5:0.145454545 6:0.0 7:0.142857143 
0.1457687274947737 0.0 1:0.25 2:0.0 3:0.0 4:0.171503958 5:0.236363636 6:0.0 7:0.571428571 
0.1457687274947737 5634.058311202331 1:0.75 2:0.0 3:0.0 4:0.168865435 5:0.254545455 6:0.0 7:0.142857143 
0.0 5634.058311202331 1:0.25 2:0.0 3:0.0 4:0.09762533 5:0.163636364 6:0.096153846 7:0.142857143 
0.1457687274947737 5634.058311202331 1:0.25 2:0.0 3:0.0 4:0.018469657 5:0.036363636 6:0.0 7:0.0 
0.1457687274947737 5634.058311202331 1:0.25 2:0.0 3:0.2 4:0.047493404 5:0.072727273 6:0.0 7:0.142857143 
0.0 5634.058311202331 1:0.25 2:0.2 3:0.2 4:0.071240106 5:0.090909091 6:0.096153846 7:0.142857143 
0.1457687274947737 0.0 1:0.75 2:0.0 3:0.2 4:0.092348285 5:0.109090909 6:0.0 7:0.142857143 
0.1457687274947737 5634.058311202331 1:0.25 2:0.0 3:0.2 4:0.092348285 5:0.127272727 6:0.192307692 7:0.142857143 
0.0 5634.058311202331 1:0.25 2:0.2 3:0.0 4:0.063324538 5:0.090909091 6:0.0 7:0.142857143 
0.1457687274947737 5634.058311202331 1:0.25 2:0.0 3:0.0 4:0.094986807 5:0.109090909 6:0.096153846 7:0.142857143 
0.1457687274947737 5634.058311202331 1:0.25 2:0.2 3:0.0 4:0.18469657 5:0.2 6:0.0 7:0.142857143 
0.1457687274947737 0.0 1:0.75 2:0.2 3:0.0 4:0.124010554 5:0.181818182 6:0.0 7:0.571428571 
0.0 5634.058311202331 1:0.25 2:0.0 3:0.0 4:0.068601583 5:0.090909091 6:0.096153846 7:0.142857143 
0.0 5634.058311202331 1:0.25 2:0.0 3:0.0 4:0.08707124 5:0.127272727 6:0.096153846 7:0.142857143 
0.0 5634.058311202331 1:0.25 2:0.0 3:0.0 4:0.092348285 5:0.145454545 6:0.096153846 7:0.142857143 
0.0 5634.058311202331 1:0.25 2:0.0 3:0.2 4:0.089709763 5:0.109090909 6:0.096153846 7:0.142857143 
0.1457687274947737 5623.07890821768 1:0.25 2:0.4 3:0.0 4:0.052770449 5:0.072727273 6:0.0 7:0.0 
0.1457687274947737 5634.058311202331 1:0.25 2:0.0 3:0.0 4:0.034300792 5:0.054545455 6:0.0 7:0.0 
0.1457687274947737 5634.058311202331 1:0.25 2:0.0 3:0.0 4:0.018469657 5:0.036363636 6:0.0 7:0.142857143 
0.0 5634.058311202331 1:0.25 2:0.2 3:0.0 4:0.060686016 5:0.109090909 6:0.0 7:0.142857143 
0.1457687274947737 5634.058311202331 1:0.25 2:0.0 3:0.0 4:0.071240106 5:0.090909091 6:0.0 7:0.0 
0.0 5634.058311202331 1:0.25 2:0.0 3:0.0 4:0.044854881 5:0.072727273 6:0.0 7:0.0 
0.1457687274947737 3856.1645280721114 1:0.25 2:0.0 3:0.2 4:0.047493404 5:0.090909091 6:0.0 7:0.142857143 
0.1457687274947737 5634.058311202331 1:0.25 2:0.0 3:0.2 4:0.031662269 5:0.036363636 6:0.0 7:0.0 
0.1457687274947737 5634.058311202331 1:0.25 2:0.0 3:0.2 4:0.042216359 5:0.072727273 6:0.096153846 7:0.142857143 
0.1457687274947737 0.0 1:0.25 2:0.2 3:0.2 4:0.153034301 5:0.236363636 6:0.0 7:0.571428571 
0.1457687274947737 5634.058311202331 1:0.75 2:0.0 3:0.0 4:0.105540897 5:0.145454545 6:0.096153846 7:0.142857143 
0.1457687274947737 0.0 1:0.75 2:0.2 3:0.0 4:0.171503958 5:0.181818182 6:0.0 7:0.571428571 
0.1457687274947737 0.0 1:0.25 2:0.0 3:0.0 4:0.171503958 5:0.2 6:0.0 7:0.285714286 
0.1457687274947737 0.0 1:0.25 2:0.0 3:0.0 4:0.150395778 5:0.181818182 6:0.096153846 7:0.142857143 
0.0 5125.1099585810525 1:0.5 2:0.0 3:0.0 4:0.134564644 5:0.163636364 6:0.096153846 7:0.142857143 
0.1457687274947737 5634.058311202331 1:0.25 2:0.0 3:0.0 4:0.182058047 5:0.218181818 6:0.0 7:0.142857143 
0.1457687274947737 5634.058311202331 1:0.25 2:0.0 3:0.0 4:0.044854881 5:0.054545455 6:0.096153846 7:0.142857143 
0.0 5634.058311202331 1:0.25 2:0.0 3:0.2 4:0.039577836 5:0.054545455 6:0.096153846 7:0.0 
0.0 5634.058311202331 1:0.25 2:0.0 3:0.0 4:0.060686016 5:0.072727273 6:0.096153846 7:0.142857143 
0.0 5634.058311202331 1:0.25 2:0.0 3:0.2 4:0.105540897 5:0.127272727 6:0.096153846 7:0.142857143 
0.1457687274947737 5634.058311202331 1:0.25 2:0.0 3:0.0 4:0.023746702 5:0.054545455 6:0.096153846 7:0.0 
0.1457687274947737 5634.058311202331 1:0.25 2:0.0 3:0.0 4:0.029023747 5:0.054545455 6:0.096153846 7:0.142857143 
0.1457687274947737 5408.38547649784 1:0.25 2:0.2 3:0.0 4:0.105540897 5:0.163636364 6:0.0 7:0.142857143 
0.1457687274947737 0.0 1:0.25 2:0.2 3:0.0 4:0.08707124 5:0.109090909 6:0.0 7:0.571428571 
0.1457687274947737 5634.058311202331 1:0.25 2:0.0 3:0.2 4:0.036939314 5:0.054545455 6:0.0 7:0.0 
0.1457687274947737 0.0 1:0.25 2:0.0 3:0.0 4:0.124010554 5:0.163636364 6:0.0 7:0.571428571 
0.1457687274947737 5634.058311202331 1:0.25 2:0.0 3:0.2 4:0.039577836 5:0.054545455 6:0.0 7:0.142857143 
0.1457687274947737 5634.058311202331 1:0.25 2:0.0 3:0.2 4:0.029023747 5:0.036363636 6:0.192307692 7:0.0 
0.0 5634.058311202331 1:0.25 2:0.0 3:0.0 4:0.065963061 5:0.109090909 6:0.096153846 7:0.142857143 
0.1457687274947737 5634.058311202331 1:0.25 2:0.0 3:0.0 4:0.073878628 5:0.072727273 6:0.192307692 7:0.142857143 
0.1457687274947737 5634.058311202331 1:0.25 2:0.2 3:0.0 4:0.124010554 5:0.163636364 6:0.096153846 7:0.142857143 
0.0 5634.058311202331 1:0.25 2:0.0 3:0.0 4:0.073878628 5:0.109090909 6:0.096153846 7:0.142857143 
0.0 5634.058311202331 1:0.25 2:0.0 3:0.0 4:0.09762533 5:0.145454545 6:0.096153846 7:0.142857143 
0.0 5634.058311202331 1:0.25 2:0.0 3:0.0 4:0.060686016 5:0.090909091 6:0.0 7:0.0 
0.1457687274947737 5634.058311202331 1:0.25 2:0.0 3:0.0 4:0.118733509 5:0.163636364 6:0.0 7:0.142857143 
0.1457687274947737 5634.058311202331 1:0.25 2:0.0 3:0.2 4:0.055408971 5:0.090909091 6:0.0 7:0.142857143 
0.1457687274947737 5634.058311202331 1:0.25 2:0.0 3:0.2 4:0.17414248 5:0.218181818 6:0.0 7:0.142857143 
0.0 1469.7757479651705 1:0.75 2:0.0 3:0.0 4:0.116094987 5:0.163636364 6:0.0 7:0.142857143 
0.0 5634.058311202331 1:0.25 2:0.0 3:0.0 4:0.052770449 5:0.090909091 6:0.0 7:0.142857143 
0.1457687274947737 5634.058311202331 1:0.25 2:0.0 3:0.2 4:0.050131926 5:0.090909091 6:0.0 7:0.142857143 
0.0 5634.058311202331 1:0.25 2:0.0 3:0.0 4:0.042216359 5:0.072727273 6:0.0 7:0.0 
0.0 5634.058311202331 1:0.25 2:0.0 3:0.2 4:0.044854881 5:0.054545455 6:0.096153846 7:0.0 
0.0 5634.058311202331 1:0.75 2:0.0 3:0.0 4:0.110817942 5:0.181818182 6:0.0 7:0.142857143 
0.1457687274947737 5634.058311202331 1:0.75 2:0.0 3:0.0 4:0.09762533 5:0.163636364 6:0.0 7:0.142857143 
0.1457687274947737 5634.058311202331 1:0.25 2:0.0 3:0.0 4:0.084432718 5:0.109090909 6:0.0 7:0.0 
0.1457687274947737 0.0 1:0.75 2:0.0 3:0.0 4:0.179419525 5:0.236363636 6:0.096153846 7:0.571428571 
0.0 5634.058311202331 1:0.25 2:0.0 3:0.0 4:0.121372032 5:0.181818182 6:0.096153846 7:0.142857143 
0.1457687274947737 5634.058311202331 1:0.25 2:0.2 3:0.0 4:0.026385224 5:0.054545455 6:0.0 7:0.142857143 
0.0 5634.058311202331 1:0.25 2:0.2 3:0.0 4:0.07651715 5:0.109090909 6:0.0 7:0.142857143 
0.1363960543978911 0.0 1:0.75 2:0.2 3:0.2 4:0.147757256 5:0.181818182 6:0.0 7:0.571428571 
0.1457687274947737 5634.058311202331 1:0.75 2:0.0 3:0.0 4:0.17414248 5:0.218181818 6:0.0 7:0.142857143 
0.0 5634.058311202331 1:0.25 2:0.0 3:0.0 4:0.060686016 5:0.109090909 6:0.096153846 7:0.142857143 
0.1457687274947737 5634.058311202331 1:0.25 2:0.0 3:0.0 4:0.084432718 5:0.072727273 6:0.096153846 7:0.142857143 
0.1457687274947737 5634.058311202331 1:0.25 2:0.2 3:0.2 4:0.058047493 5:0.054545455 6:0.096153846 7:0.142857143 
0.1457687274947737 0.0 1:0.25 2:0.0 3:0.0 4:0.100263852 5:0.127272727 6:0.0 7:0.142857143 
0.0 5634.058311202331 1:0.25 2:0.0 3:0.2 4:0.065963061 5:0.090909091 6:0.0 7:0.0 
0.1457687274947737 0.0 1:0.5 2:0.0 3:0.0 4:0.221635884 5:0.272727273 6:0.096153846 7:0.571428571 
0.1457687274947737 5634.058311202331 1:0.75 2:0.0 3:0.2 4:0.058047493 5:0.109090909 6:0.0 7:0.142857143 
0.0 5634.058311202331 1:0.25 2:0.0 3:0.0 4:0.08707124 5:0.127272727 6:0.096153846 7:0.0 
0.1457687274947737 5634.058311202331 1:0.25 2:0.2 3:0.0 4:0.187335092 5:0.236363636 6:0.096153846 7:0.142857143 
0.0 5634.058311202331 1:0.25 2:0.2 3:0.0 4:0.07651715 5:0.127272727 6:0.0 7:0.142857143 
0.0 5634.058311202331 1:0.25 2:0.0 3:0.2 4:0.071240106 5:0.109090909 6:0.0 7:0.142857143 
0.1457687274947737 5634.058311202331 1:0.25 2:0.0 3:0.0 4:0.226912929 5:0.272727273 6:0.096153846 7:0.142857143 
0.0 5634.058311202331 1:0.25 2:0.0 3:0.0 4:0.065963061 5:0.090909091 6:0.0 7:0.142857143 
0.1457687274947737 5634.058311202331 1:0.75 2:0.2 3:0.0 4:0.09762533 5:0.127272727 6:0.096153846 7:0.142857143 
0.1457687274947737 5634.058311202331 1:0.25 2:0.0 3:0.0 4:0.034300792 5:0.054545455 6:0.0 7:0.0 
0.1457687274947737 5634.058311202331 1:0.25 2:0.0 3:0.0 4:0.029023747 5:0.036363636 6:0.0 7:0.142857143 
0.0 5634.058311202331 1:0.25 2:0.0 3:0.0 4:0.073878628 5:0.127272727 6:0.0 7:0.142857143 
0.1457687274947737 5634.058311202331 1:0.25 2:0.0 3:0.0 4:0.055408971 5:0.072727273 6:0.0 7:0.142857143 
0.1457687274947737 5634.058311202331 1:0.25 2:0.0 3:0.0 4:0.211081794 5:0.218181818 6:0.0 7:0.142857143 
0.1457687274947737 5634.058311202331 1:0.75 2:0.0 3:0.0 4:0.192612137 5:0.272727273 6:0.0 7:0.142857143 
0.1457687274947737 5634.058311202331 1:0.25 2:0.0 3:0.0 4:0.039577836 5:0.072727273 6:0.192307692 7:0.142857143 
0.1457687274947737 5634.058311202331 1:0.25 2:0.2 3:0.0 4:0.042216359 5:0.054545455 6:0.096153846 7:0.142857143 
0.1457687274947737 3020.675243324628 1:0.25 2:0.0 3:0.0 4:0.10817942 5:0.145454545 6:0.096153846 7:0.142857143 
0.0 5634.058311202331 1:0.25 2:0.0 3:0.0 4:0.039577836 5:0.072727273 6:0.0 7:0.0 
0.1457687274947737 5634.058311202331 1:0.25 2:0.2 3:0.0 4:0.081794195 5:0.127272727 6:0.096153846 7:0.142857143 
0.1457687274947737 0.0 1:0.25 2:0.0 3:0.2 4:0.092348285 5:0.109090909 6:0.096153846 7:0.571428571 
0.0 5634.058311202331 1:0.25 2:0.0 3:0.0 4:0.050131926 5:0.072727273 6:0.096153846 7:0.142857143 
0.1457687274947737 5634.058311202331 1:0.25 2:0.2 3:0.0 4:0.026385224 5:0.036363636 6:0.0 7:0.142857143 
0.1457687274947737 5634.058311202331 1:0.25 2:0.0 3:0.0 4:0.073878628 5:0.072727273 6:0.096153846 7:0.142857143 
0.1457687274947737 5634.058311202331 1:0.25 2:0.0 3:0.0 4:0.147757256 5:0.218181818 6:0.096153846 7:0.142857143 
0.1457687274947737 5634.058311202331 1:0.25 2:0.0 3:0.0 4:0.029023747 5:0.036363636 6:0.096153846 7:0.142857143 
0.1457687274947737 214.07884473312834 1:0.25 2:0.0 3:0.0 4:0.142480211 5:0.218181818 6:0.096153846 7:0.142857143 
0.0 3119.6494274620472 1:0.5 2:0.0 3:0.2 4:0.158311346 5:0.218181818 6:0.0 7:0.142857143 
0.1457687274947737 1820.4842028557134 1:0.25 2:0.2 3:0.0 4:0.026385224 5:0.036363636 6:0.0 7:0.142857143 
0.0 5634.058311202331 1:0.25 2:0.0 3:0.0 4:0.050131926 5:0.072727273 6:0.096153846 7:0.142857143 
0.0 5634.058311202331 1:0.25 2:0.0 3:0.0 4:0.058047493 5:0.072727273 6:0.096153846 7:0.142857143 
0.1457687274947737 0.0 1:0.25 2:0.0 3:0.0 4:0.084432718 5:0.109090909 6:0.0 7:0.142857143 
0.1457687274947737 5634.058311202331 1:0.25 2:0.0 3:0.0 4:0.092348285 5:0.127272727 6:0.192307692 7:0.142857143 
0.1457687274947737 0.0 1:0.25 2:0.0 3:0.0 4:0.205804749 5:0.254545455 6:0.0 7:0.571428571 
0.1457687274947737 5634.058311202331 1:0.75 2:0.0 3:0.0 4:0.171503958 5:0.236363636 6:0.0 7:0.142857143 
0.1457687274947737 0.0 1:0.25 2:0.2 3:0.0 4:0.058047493 5:0.072727273 6:0.192307692 7:0.0 
0.0 5634.058311202331 1:0.25 2:0.0 3:0.0 4:0.084432718 5:0.109090909 6:0.096153846 7:0.142857143 
0.1457687274947737 0.0 1:0.25 2:0.2 3:0.2 4:0.142480211 5:0.163636364 6:0.0 7:0.571428571 
0.1457687274947737 5306.411004230979 1:0.25 2:0.4 3:0.0 4:0.047493404 5:0.072727273 6:0.0 7:0.142857143 
0.0 5634.058311202331 1:0.25 2:0.0 3:0.0 4:0.08707124 5:0.127272727 6:0.096153846 7:0.142857143 
0.1457687274947737 4098.1668836478275 1:0.25 2:0.2 3:0.0 4:0.121372032 5:0.145454545 6:0.0 7:0.142857143 
0.0 5634.058311202331 1:0.25 2:0.0 3:0.2 4:0.042216359 5:0.072727273 6:0.0 7:0.0 
0.1457687274947737 5634.058311202331 1:0.25 2:0.0 3:0.0 4:0.129287599 5:0.163636364 6:0.0 7:0.142857143 
0.0 5634.058311202331 1:0.25 2:0.2 3:0.2 4:0.068601583 5:0.090909091 6:0.0 7:0.142857143 
0.1457687274947737 0.0 1:0.25 2:0.2 3:0.0 4:0.134564644 5:0.145454545 6:0.096153846 7:0.142857143 
0.1457687274947737 0.0 1:0.25 2:0.2 3:0.0 4:0.121372032 5:0.127272727 6:0.096153846 7:0.142857143 
0.1457687274947737 5634.058311202331 1:0.75 2:0.0 3:0.0 4:0.09762533 5:0.127272727 6:0.096153846 7:0.142857143 
0.0 4810.022933727309 1:0.25 2:0.0 3:0.0 4:0.081794195 5:0.127272727 6:0.0 7:0.142857143 
0.0 5634.058311202331 1:0.25 2:0.0 3:0.0 4:0.092348285 5:0.127272727 6:0.096153846 7:0.142857143 
0.1457687274947737 5634.058311202331 1:0.75 2:0.0 3:0.0 4:0.150395778 5:0.218181818 6:0.096153846 7:0.142857143 
0.04989803966972615 5634.058311202331 1:0.25 2:0.0 3:0.0 4:0.094986807 5:0.127272727 6:0.096153846 7:0.142857143 
0.0 5634.058311202331 1:0.25 2:0.0 3:0.0 4:0.047493404 5:0.072727273 6:0.096153846 7:0.142857143 
0.0 5634.058311202331 1:0.25 2:0.2 3:0.2 4:0.071240106 5:0.109090909 6:0.096153846 7:0.142857143 
0.0 5634.058311202331 1:0.25 2:0.2 3:0.0 4:0.100263852 5:0.163636364 6:0.0 7:0.142857143 
0.1457687274947737 5634.058311202331 1:0.25 2:0.0 3:0.0 4:0.092348285 5:0.109090909 6:0.096153846 7:0.142857143 
0.1457687274947737 5634.058311202331 1:0.25 2:0.2 3:0.0 4:0.081794195 5:0.109090909 6:0.096153846 7:0.142857143 
0.0 5634.058311202331 1:0.25 2:0.0 3:0.0 4:0.081794195 5:0.109090909 6:0.096153846 7:0.142857143 
0.1457687274947737 5634.058311202331 1:0.25 2:0.0 3:0.0 4:0.09762533 5:0.127272727 6:0.096153846 7:0.142857143 
0.1457687274947737 5634.058311202331 1:0.75 2:0.0 3:0.0 4:0.084432718 5:0.127272727 6:0.0 7:0.142857143 
0.1457687274947737 0.0 1:0.25 2:0.0 3:0.0 4:0.147757256 5:0.145454545 6:0.0 7:0.142857143 
0.1457687274947737 0.0 1:0.75 2:0.2 3:0.2 4:0.124010554 5:0.2 6:0.0 7:0.571428571 
0.1457687274947737 5634.058311202331 1:0.25 2:0.0 3:0.0 4:0.110817942 5:0.145454545 6:0.0 7:0.142857143 
0.1457687274947737 5634.058311202331 1:0.25 2:0.0 3:0.0 4:0.034300792 5:0.054545455 6:0.0 7:0.142857143 
0.1457687274947737 5634.058311202331 1:0.25 2:0.0 3:0.0 4:0.044854881 5:0.054545455 6:0.096153846 7:0.142857143 
0.1457687274947737 987.2745838785522 1:0.75 2:0.0 3:0.2 4:0.081794195 5:0.109090909 6:0.0 7:0.142857143 
0.1457687274947737 0.0 1:0.25 2:0.0 3:0.0 4:0.113456464 5:0.145454545 6:0.0 7:0.142857143 
0.1457687274947737 5634.058311202331 1:0.25 2:0.0 3:0.0 4:0.073878628 5:0.090909091 6:0.0 7:0.0 
0.0 5634.058311202331 1:0.25 2:0.0 3:0.0 4:0.047493404 5:0.072727273 6:0.0 7:0.142857143 
0.1457687274947737 5634.058311202331 1:0.25 2:0.0 3:0.0 4:0.029023747 5:0.054545455 6:0.0 7:0.142857143 
0.1457687274947737 5634.058311202331 1:0.25 2:0.0 3:0.0 4:0.124010554 5:0.181818182 6:0.0 7:0.142857143 
0.0 5634.058311202331 1:0.25 2:0.0 3:0.2 4:0.060686016 5:0.109090909 6:0.096153846 7:0.142857143 
0.1457687274947737 0.0 1:0.25 2:0.2 3:0.0 4:0.081794195 5:0.090909091 6:0.0 7:0.142857143 
0.0 5531.644656681457 1:0.25 2:0.0 3:0.2 4:0.134564644 5:0.2 6:0.096153846 7:0.142857143 
0.0 5634.058311202331 1:0.75 2:0.0 3:0.0 4:0.118733509 5:0.2 6:0.096153846 7:0.142857143 
0.1457687274947737 5634.058311202331 1:0.25 2:0.0 3:0.0 4:0.179419525 5:0.218181818 6:0.0 7:0.142857143 
0.07126344966356608 5634.058311202331 1:0.25 2:0.0 3:0.0 4:0.094986807 5:0.127272727 6:0.096153846 7:0.142857143 
0.1457687274947737 0.0 1:0.25 2:0.2 3:0.0 4:0.213720317 5:0.236363636 6:0.096153846 7:0.571428571 
0.0 5634.058311202331 1:0.25 2:0.0 3:0.0 4:0.071240106 5:0.090909091 6:0.096153846 7:0.142857143 
0.1457687274947737 5634.058311202331 1:0.25 2:0.0 3:0.2 4:0.031662269 5:0.054545455 6:0.0 7:0.0 
0.1457687274947737 0.0 1:0.25 2:0.0 3:0.0 4:0.129287599 5:0.145454545 6:0.096153846 7:0.142857143 
0.0 5634.058311202331 1:0.25 2:0.0 3:0.0 4:0.042216359 5:0.054545455 6:0.096153846 7:0.0 
0.0 5634.058311202331 1:0.25 2:0.0 3:0.2 4:0.10817942 5:0.145454545 6:0.096153846 7:0.142857143 
0.0 5634.058311202331 1:0.25 2:0.0 3:0.0 4:0.052770449 5:0.090909091 6:0.0 7:0.142857143 
0.1457687274947737 5634.058311202331 1:0.25 2:0.2 3:0.0 4:0.068601583 5:0.090909091 6:0.0 7:0.0 
0.1457687274947737 0.0 1:0.25 2:0.0 3:0.0 4:0.163588391 5:0.218181818 6:0.0 7:0.571428571 
0.1457687274947737 5634.058311202331 1:0.25 2:0.2 3:0.0 4:0.063324538 5:0.072727273 6:0.096153846 7:0.142857143 
0.1457687274947737 5634.058311202331 1:0.25 2:0.0 3:0.2 4:0.063324538 5:0.072727273 6:0.096153846 7:0.142857143 
0.1457687274947737 0.0 1:0.75 2:0.0 3:0.0 4:0.250659631 5:0.345454545 6:0.0 7:0.571428571 
0.1457687274947737 0.0 1:0.25 2:0.0 3:0.0 4:0.248021108 5:0.272727273 6:0.0 7:0.571428571 
0.0 5634.058311202331 1:0.25 2:0.0 3:0.0 4:0.050131926 5:0.090909091 6:0.096153846 7:0.0 
0.1457687274947737 27.116921257355404 1:0.25 2:0.2 3:0.0 4:0.08707124 5:0.090909091 6:0.0 7:0.142857143 
0.1457687274947737 5634.058311202331 1:0.75 2:0.0 3:0.0 4:0.081794195 5:0.127272727 6:0.096153846 7:0.142857143 
0.0 5634.058311202331 1:0.25 2:0.0 3:0.0 4:0.044854881 5:0.072727273 6:0.0 7:0.0 
